{"learner":{"attributes":{"scikit_learn":"{\"_estimator_type\": \"regressor\"}"},"feature_names":[],"feature_types":[],"gradient_booster":{"model":{"gbtree_model_param":{"num_parallel_tree":"1","num_trees":"300"},"iteration_indptr":[0,1,2,3,4,5,6,7,8,9,10,11,12,13,14,15,16,17,18,19,20,21,22,23,24,25,26,27,28,29,30,31,32,33,34,35,36,37,38,39,40,41,42,43,44,45,46,47,48,49,50,51,52,53,54,55,56,57,58,59,60,61,62,63,64,65,66,67,68,69,70,71,72,73,74,75,76,77,78,79,80,81,82,83,84,85,86,87,88,89,90,91,92,93,94,95,96,97,98,99,100,101,102,103,104,105,106,107,108,109,110,111,112,113,114,115,116,117,118,119,120,121,122,123,124,125,126,127,128,129,130,131,132,133,134,135,136,137,138,139,140,141,142,143,144,145,146,147,148,149,150,151,152,153,154,155,156,157,158,159,160,161,162,163,164,165,166,167,168,169,170,171,172,173,174,175,176,177,178,179,180,181,182,183,184,185,186,187,188,189,190,191,192,193,194,195,196,197,198,199,200,201,202,203,204,205,206,207,208,209,210,211,212,213,214,215,216,217,218,219,220,221,222,223,224,225,226,227,228,229,230,231,232,233,234,235,236,237,238,239,240,241,242,243,244,245,246,247,248,249,250,251,252,253,254,255,256,257,258,259,260,261,262,263,264,265,266,267,268,269,270,271,272,273,274,275,276,277,278,279,280,281,282,283,284,285,286,287,288,289,290,291,292,293,294,295,296,297,298,299,300],"tree_info":[0,0,0,0,0,0,0,0,0,0,0,0,0,0,0,0,0,0,0,0,0,0,0,0,0,0,0,0,0,0,0,0,0,0,0,0,0,0,0,0,0,0,0,0,0,0,0,0,0,0,0,0,0,0,0,0,0,0,0,0,0,0,0,0,0,0,0,0,0,0,0,0,0,0,0,0,0,0,0,0,0,0,0,0,0,0,0,0,0,0,0,0,0,0,0,0,0,0,0,0,0,0,0,0,0,0,0,0,0,0,0,0,0,0,0,0,0,0,0,0,0,0,0,0,0,0,0,0,0,0,0,0,0,0,0,0,0,0,0,0,0,0,0,0,0,0,0,0,0,0,0,0,0,0,0,0,0,0,0,0,0,0,0,0,0,0,0,0,0,0,0,0,0,0,0,0,0,0,0,0,0,0,0,0,0,0,0,0,0,0,0,0,0,0,0,0,0,0,0,0,0,0,0,0,0,0,0,0,0,0,0,0,0,0,0,0,0,0,0,0,0,0,0,0,0,0,0,0,0,0,0,0,0,0,0,0,0,0,0,0,0,0,0,0,0,0,0,0,0,0,0,0,0,0,0,0,0,0,0,0,0,0,0,0,0,0,0,0,0,0,0,0,0,0,0,0,0,0,0,0,0,0,0,0,0,0,0,0,0,0,0,0,0,0,0,0,0,0,0,0],"trees":[{"base_weights":[2.4767978E-5,-2.5515666E-3,4.2704903E-3,-2.436796E-4,-1.4058241E-3,2.7537562E-3,3.8503122E-4,-1.7997425E-3,1.07012E-3,3.4199527E-3,-1.4803167E-3,-2.248432E-3,3.544654E-4,-1.2793862E-4,2.4724854E-3,1.7030687E-3,6.425651E-3,-1.2209106E-4,2.9512806E-4,-2.864304E-3,-1.5615791E-3,-8.844039E-5,1.1063847E-3,1.6894391E-4,1.376688E-4,-4.9917266E-4,2.5096934E-3,1.931973E-3,4.2154966E-4,-4.6278048E-5,6.841265E-5,-1.5915619E-4,-5.7184603E-5,-1.0893201E-4,-3.4518176E-5,-4.08364E-6,6.438874E-5,7.844351E-5,-6.811835E-5,1.3297967E-5,-4.2920867E-5,5.572014E-5,1.4990989E-4,2.7449301E-5,1.8659803E-4],"categories":[],"categories_nodes":[],"categories_segments":[],"categories_sizes":[],"default_left":[0,0,0,0,0,0,0,0,0,0,0,0,0,0,0,0,0,0,0,0,0,0,0,0,0,0,0,0,0,0,0,0,0,0,0,0,0,0,0,0,0,0,0,0,0],"id":0,"left_children":[1,3,5,-1,7,9,-1,11,13,15,17,19,21,-1,23,25,27,-1,29,31,33,-1,35,-1,37,39,41,43,-1,-1,-1,-1,-1,-1,-1,-1,-1,-1,-1,-1,-1,-1,-1,-1,-1],"loss_changes":[1.5641495E-3,2.29928E-4,2.5973492E-4,0E0,6.142045E-5,1.1507087E-4,0E0,5.202522E-5,5.2127823E-5,1.6451144E-4,1.0963238E-5,1.4139761E-5,1.7922282E-5,0E0,1.4348661E-5,4.210956E-5,9.184796E-5,0E0,5.196257E-6,8.427902E-6,1.0860589E-5,0E0,1.8291894E-6,0E0,8.577937E-6,2.1523913E-6,8.24609E-6,1.0398002E-5,0E0,0E0,0E0,0E0,0E0,0E0,0E0,0E0,0E0,0E0,0E0,0E0,0E0,0E0,0E0,0E0,0E0],"parents":[2147483647,0,0,1,1,2,2,4,4,5,5,7,7,8,8,9,9,10,10,11,11,12,12,14,14,15,15,16,16,18,18,19,19,20,20,22,22,24,24,25,25,26,26,27,27],"right_children":[2,4,6,-1,8,10,-1,12,14,16,18,20,22,-1,24,26,28,-1,30,32,34,-1,36,-1,38,40,42,44,-1,-1,-1,-1,-1,-1,-1,-1,-1,-1,-1,-1,-1,-1,-1,-1,-1],"split_conditions":[1.1179153E-1,8.038962E-2,1.14778385E-1,-2.436796E-4,6.3432164E-2,3.7786976E-2,3.8503122E-4,1.05368264E-1,6.160186E-2,2.9224068E-2,1.2814017E-1,9.940152E-2,2.1313828E-1,-1.2793862E-4,4.2746708E-2,1.16535045E-1,1.0106765E-1,-1.2209106E-4,1.39881745E-2,5.4562658E-2,3.7170123E-2,-8.844039E-5,9.548905E-2,1.6894391E-4,3.832378E-2,8.803494E-2,1.0463585E-1,5.137465E-2,4.2154966E-4,-4.6278048E-5,6.841265E-5,-1.5915619E-4,-5.7184603E-5,-1.0893201E-4,-3.4518176E-5,-4.08364E-6,6.438874E-5,7.844351E-5,-6.811835E-5,1.3297967E-5,-4.2920867E-5,5.572014E-5,1.4990989E-4,2.7449301E-5,1.8659803E-4],"split_indices":[3,3,2,0,10,10,0,2,2,10,4,3,0,0,1,3,2,0,0,10,10,0,1,0,0,0,2,1,0,0,0,0,0,0,0,0,0,0,0,0,0,0,0,0,0],"split_type":[0,0,0,0,0,0,0,0,0,0,0,0,0,0,0,0,0,0,0,0,0,0,0,0,0,0,0,0,0,0,0,0,0,0,0,0,0,0,0,0,0,0,0,0,0],"sum_hessian":[1.41E2,8.8E1,5.3E1,2.8E1,6E1,3.8E1,1.5E1,5.2E1,8E0,3.3E1,5E0,4.3E1,9E0,2E0,6E0,2.2E1,1.1E1,3E0,2E0,2.1E1,2.2E1,2E0,7E0,4E0,2E0,6E0,1.6E1,4E0,7E0,1E0,1E0,1.7E1,4E0,1.2E1,1E1,1E0,6E0,1E0,1E0,2E0,4E0,5E0,1.1E1,3E0,1E0],"tree_param":{"num_deleted":"0","num_feature":"12","num_nodes":"45","size_leaf_vector":"1"}},{"base_weights":[5.0349485E-5,-2.2038E-3,4.0166457E-3,-2.3427555E-4,-9.0456085E-4,2.7262366E-3,3.5700548E-4,-5.100841E-4,-2.7864885E-3,3.3556137E-3,-1.0848142E-3,-2.2007723E-3,2.3206774E-5,1.7360784E-5,-1.5866288E-4,1.7581639E-3,5.8715167E-3,-1.8353958E-3,6.6702334E-5,-2.4698514E-3,1.8977433E-5,1.1849662E-3,-7.522665E-4,-3.8291877E-5,2.3970958E-3,2.0542579E-5,6.33059E-3,-1.1111001E-4,-7.2044554E-6,-9.074109E-6,-1.3402701E-4,5.3012434E-7,1.883223E-4,5.334774E-5,-8.6428096E-5,3.697743E-5,1.425111E-4,8.750854E-5,3.576999E-4],"categories":[],"categories_nodes":[],"categories_segments":[],"categories_sizes":[],"default_left":[0,0,0,0,0,0,0,0,0,0,0,0,0,0,0,0,0,0,0,0,0,0,0,0,0,0,0,0,0,0,0,0,0,0,0,0,0,0,0],"id":1,"left_children":[1,3,5,-1,7,9,-1,11,13,15,17,19,21,-1,-1,23,25,27,-1,29,-1,31,33,-1,35,-1,37,-1,-1,-1,-1,-1,-1,-1,-1,-1,-1,-1,-1],"loss_changes":[1.2337177E-3,2.795032E-4,1.8206163E-4,0E0,4.2378888E-5,9.2387985E-5,0E0,4.51325E-5,1.3221994E-5,1.18285854E-4,1.3341818E-5,9.269148E-6,3.602703E-5,0E0,0E0,3.5701756E-5,2.7481234E-5,2.95083E-6,0E0,4.816997E-6,0E0,4.8465605E-5,4.447063E-5,0E0,1.0660457E-5,0E0,2.8966373E-5,0E0,0E0,0E0,0E0,0E0,0E0,0E0,0E0,0E0,0E0,0E0,0E0],"parents":[2147483647,0,0,1,1,2,2,4,4,5,5,7,7,8,8,9,9,10,10,11,11,12,12,15,15,16,16,17,17,19,19,21,21,22,22,24,24,26,26],"right_children":[2,4,6,-1,8,10,-1,12,14,16,18,20,22,-1,-1,24,26,28,-1,30,-1,32,34,-1,36,-1,38,-1,-1,-1,-1,-1,-1,-1,-1,-1,-1,-1,-1],"split_conditions":[1.11845024E-1,8.038962E-2,1.1544769E-1,-2.3427555E-4,1.3107783E-1,1.8721027E-2,3.5700548E-4,9.3100384E-2,8.118352E-2,1.4081764E-2,1.3025486E-1,1.0425726E-1,1.05909765E-1,1.7360784E-5,-1.5866288E-4,1.1624561E-1,2.9224068E-2,2.0321855E-2,6.6702334E-5,7.6983705E-2,1.8977433E-5,1.0415448E-1,1.9704323E-2,-3.8291877E-5,1.0463585E-1,2.0542579E-5,1.0049888E-1,-1.1111001E-4,-7.2044554E-6,-9.074109E-6,-1.3402701E-4,5.3012434E-7,1.883223E-4,5.334774E-5,-8.6428096E-5,3.697743E-5,1.425111E-4,8.750854E-5,3.576999E-4],"split_indices":[3,3,2,0,7,11,0,4,3,11,5,2,5,0,0,3,10,0,0,2,0,5,0,0,2,0,2,0,0,0,0,0,0,0,0,0,0,0,0],"split_type":[0,0,0,0,0,0,0,0,0,0,0,0,0,0,0,0,0,0,0,0,0,0,0,0,0,0,0,0,0,0,0,0,0,0,0,0,0,0,0],"sum_hessian":[1.36E2,8.7E1,4.9E1,2.9E1,5.8E1,3.6E1,1.3E1,4.9E1,9E0,3.1E1,5E0,1.1E1,3.8E1,1E0,8E0,2E1,1.1E1,4E0,1E0,1E1,1E0,1.5E1,2.3E1,4E0,1.6E1,1E0,1E1,3E0,1E0,1E0,9E0,1.1E1,4E0,8E0,1.5E1,4E0,1.2E1,2E0,8E0],"tree_param":{"num_deleted":"0","num_feature":"12","num_nodes":"39","size_leaf_vector":"1"}},{"base_weights":[5.944535E-5,-2.3546675E-3,3.0668867E-3,-4.2535183E-3,-8.17422E-4,4.867702E-3,-4.3319733E-4,-2.3520026E-4,-3.20961E-3,1.257642E-3,-2.1963075E-3,1.0290109E-3,5.9997593E-3,4.9247895E-4,-1.9278581E-3,-8.847251E-6,-1.7146404E-4,-1.4417007E-3,1.8538751E-3,-3.037566E-3,-6.200382E-4,3.4088076E-3,1.2141078E-4,2.354947E-5,3.0789076E-4,-1.2432612E-3,1.2366809E-3,-3.391715E-5,-1.3959009E-4,-3.1827367E-6,-9.399156E-5,-1.6388301E-4,2.7859362E-3,-8.1727543E-4,-1.7135697E-4,3.9127268E-4,-8.882487E-4,2.6268492E-4,-7.024349E-6,-6.466092E-5,5.2213087E-5,-1.8584162E-5,-8.502093E-5,1.5037826E-3,1.9665365E-5,7.228346E-5,-1.1276625E-4,2.1029507E-4,1.2039915E-5,2.1428126E-5,-6.877045E-5,5.520331E-5,-2.5857857E-5,-5.7992573E-5,-1.2939115E-5,3.3702683E-5,9.334046E-5],"categories":[],"categories_nodes":[],"categories_segments":[],"categories_sizes":[],"default_left":[0,0,0,0,0,0,0,0,0,0,0,0,0,0,0,0,0,0,0,0,0,0,0,0,0,0,0,0,0,0,0,0,0,0,0,0,0,0,0,0,0,0,0,0,0,0,0,0,0,0,0,0,0,0,0,0,0],"id":2,"left_children":[1,3,5,7,9,11,13,-1,15,17,19,21,23,25,27,-1,-1,29,31,33,35,37,39,-1,-1,41,43,-1,-1,-1,-1,45,47,49,-1,51,53,-1,-1,-1,-1,-1,-1,55,-1,-1,-1,-1,-1,-1,-1,-1,-1,-1,-1,-1,-1],"loss_changes":[1.0599655E-3,2.3296199E-4,4.118039E-4,1.8315623E-6,1.3438084E-4,1.8068776E-4,3.2771586E-5,0E0,8.719828E-6,3.3252043E-5,3.524599E-5,2.3345074E-5,2.5936984E-5,2.0913634E-5,7.821796E-6,0E0,0E0,2.2953955E-6,3.054736E-5,1.2768476E-5,3.3312335E-6,2.0382256E-5,1.3099884E-5,0E0,0E0,1.3602239E-6,1.8864812E-6,0E0,0E0,0E0,0E0,2.3458162E-5,3.8741287E-5,3.3708245E-6,0E0,2.5135441E-6,1.2385349E-6,0E0,0E0,0E0,0E0,0E0,0E0,1.1513803E-6,0E0,0E0,0E0,0E0,0E0,0E0,0E0,0E0,0E0,0E0,0E0,0E0,0E0],"parents":[2147483647,0,0,1,1,2,2,3,3,4,4,5,5,6,6,8,8,9,9,10,10,11,11,12,12,13,13,14,14,17,17,18,18,19,19,20,20,21,21,22,22,25,25,26,26,31,31,32,32,33,33,35,35,36,36,43,43],"right_children":[2,4,6,8,10,12,14,-1,16,18,20,22,24,26,28,-1,-1,30,32,34,36,38,40,-1,-1,42,44,-1,-1,-1,-1,46,48,50,-1,52,54,-1,-1,-1,-1,-1,-1,56,-1,-1,-1,-1,-1,-1,-1,-1,-1,-1,-1,-1,-1],"split_conditions":[9.7135864E-2,9.343631E-2,1.401543E-1,7.5863786E-2,1.1853538E-1,5.2373864E-2,5.330137E-3,-2.3520026E-4,7.331216E-2,8.11901E-2,8.182619E-2,1.2741835E-1,9.7678654E-2,1.0454846E-1,1.0361771E-1,-8.847251E-6,-1.7146404E-4,5.3615868E-2,6.7294724E-2,1.2846878E-1,7.247007E-2,2.8707666E-2,1.2651068E-1,2.354947E-5,3.0789076E-4,1.07292585E-1,1.0755779E-1,-3.391715E-5,-1.3959009E-4,-3.1827367E-6,-9.399156E-5,4.2847015E-2,1.0437075E-1,7.5429594E-3,-1.7135697E-4,1.3810319E-2,7.743305E-2,2.6268492E-4,-7.024349E-6,-6.466092E-5,5.2213087E-5,-1.8584162E-5,-8.502093E-5,1.8528268E-1,1.9665365E-5,7.228346E-5,-1.1276625E-4,2.1029507E-4,1.2039915E-5,2.1428126E-5,-6.877045E-5,5.520331E-5,-2.5857857E-5,-5.7992573E-5,-1.2939115E-5,3.3702683E-5,9.334046E-5],"split_indices":[2,4,0,2,5,1,11,0,1,9,2,4,2,2,1,0,0,0,2,6,9,0,6,0,0,1,1,0,0,0,0,11,4,0,0,0,9,0,0,0,0,0,0,0,0,0,0,0,0,0,0,0,0,0,0,0,0],"split_type":[0,0,0,0,0,0,0,0,0,0,0,0,0,0,0,0,0,0,0,0,0,0,0,0,0,0,0,0,0,0,0,0,0,0,0,0,0,0,0,0,0,0,0,0,0,0,0,0,0,0,0,0,0,0,0,0,0],"sum_hessian":[1.44E2,8E1,6.4E1,3.5E1,4.5E1,4.2E1,2.2E1,2.2E1,1.3E1,1.8E1,2.7E1,1E1,3.2E1,1.4E1,8E0,1E0,1.2E1,3E0,1.5E1,1.7E1,1E1,2E0,8E0,1E0,3.1E1,4E0,1E1,4E0,4E0,1E0,2E0,5E0,1E1,3E0,1.4E1,2E0,8E0,1E0,1E0,3E0,5E0,2E0,2E0,7E0,3E0,3E0,2E0,6E0,4E0,1E0,2E0,1E0,1E0,5E0,3E0,3E0,4E0],"tree_param":{"num_deleted":"0","num_feature":"12","num_nodes":"57","size_leaf_vector":"1"}},{"base_weights":[7.312154E-5,-2.0255416E-3,4.104413E-3,-2.092205E-4,-9.642084E-4,2.6721181E-3,3.4059098E-4,-3.1600092E-4,-2.5851536E-3,3.0370979E-3,-1.1166827E-4,-1.1471147E-3,7.5614394E-4,-3.0224281E-3,-7.5629924E-4,2.022528E-3,5.517892E-3,-2.041323E-3,9.674722E-4,-1.1321534E-3,1.3781227E-3,-1.6025448E-4,-6.117098E-5,-5.008545E-5,5.6335007E-6,-2.7783532E-4,2.7635817E-3,6.2632654E-4,6.826007E-3,-1.2095071E-4,3.709778E-6,6.998168E-5,-1.8169754E-5,5.142177E-5,-1.2347785E-4,1.5650378E-4,1.936514E-5,-4.9372327E-5,1.0174923E-5,6.222031E-5,1.684508E-4,5.3823227E-5,-6.8487366E-6,2.2741558E-5,3.906032E-4],"categories":[],"categories_nodes":[],"categories_segments":[],"categories_sizes":[],"default_left":[0,0,0,0,0,0,0,0,0,0,0,0,0,0,0,0,0,0,0,0,0,0,0,0,0,0,0,0,0,0,0,0,0,0,0,0,0,0,0,0,0,0,0,0,0],"id":3,"left_children":[1,3,5,-1,7,9,-1,11,13,15,-1,17,19,21,23,25,27,29,31,33,35,-1,-1,-1,-1,37,39,41,43,-1,-1,-1,-1,-1,-1,-1,-1,-1,-1,-1,-1,-1,-1,-1,-1],"loss_changes":[1.2604415E-3,2.2051067E-4,1.7956604E-4,0E0,6.958058E-5,6.9447065E-5,0E0,4.453003E-5,1.2908669E-5,7.189886E-5,0E0,5.49196E-5,2.7398826E-5,1.0079675E-6,1.1791303E-6,4.3385124E-5,5.331324E-5,1.6159735E-5,5.684965E-6,1.987725E-5,2.8297505E-5,0E0,0E0,0E0,0E0,2.5918625E-6,1.3283032E-5,1.1782213E-6,4.042324E-5,0E0,0E0,0E0,0E0,0E0,0E0,0E0,0E0,0E0,0E0,0E0,0E0,0E0,0E0,0E0,0E0],"parents":[2147483647,0,0,1,1,2,2,4,4,5,5,7,7,8,8,9,9,11,11,12,12,13,13,14,14,15,15,16,16,17,17,18,18,19,19,20,20,25,25,26,26,27,27,28,28],"right_children":[2,4,6,-1,8,10,-1,12,14,16,-1,18,20,22,24,26,28,30,32,34,36,-1,-1,-1,-1,38,40,42,44,-1,-1,-1,-1,-1,-1,-1,-1,-1,-1,-1,-1,-1,-1,-1,-1],"split_conditions":[1.11845024E-1,8.038962E-2,1.1544769E-1,-2.092205E-4,1.3008708E-1,7.247007E-2,3.4059098E-4,1.0544993E-1,1.0771651E-1,1.5918104E-2,-1.1166827E-4,1.05368264E-1,8.2925245E-2,1.4287694E-1,7.743305E-2,1.1827508E-1,1.0064356E-1,1.03873484E-1,1.1072586E-1,4.2847015E-2,8.962373E-2,-1.6025448E-4,-6.117098E-5,-5.008545E-5,5.6335007E-6,1.1343933E-1,1.044793E-1,1.3810319E-2,4.8949257E-2,-1.2095071E-4,3.709778E-6,6.998168E-5,-1.8169754E-5,5.142177E-5,-1.2347785E-4,1.5650378E-4,1.936514E-5,-4.9372327E-5,1.0174923E-5,6.222031E-5,1.684508E-4,5.3823227E-5,-6.8487366E-6,2.2741558E-5,3.906032E-4],"split_indices":[3,3,2,0,6,9,0,7,3,11,0,2,3,6,9,3,2,3,3,11,3,0,0,0,0,3,2,0,1,0,0,0,0,0,0,0,0,0,0,0,0,0,0,0,0],"split_type":[0,0,0,0,0,0,0,0,0,0,0,0,0,0,0,0,0,0,0,0,0,0,0,0,0,0,0,0,0,0,0,0,0,0,0,0,0,0,0,0,0,0,0,0,0],"sum_hessian":[1.47E2,9.7E1,5E1,3.1E1,6.6E1,3.4E1,1.6E1,4.8E1,1.8E1,3.2E1,2E0,2.7E1,2.1E1,1.4E1,4E0,2.4E1,8E0,1.9E1,8E0,5E0,1.6E1,1.2E1,2E0,3E0,1E0,6E0,1.8E1,2E0,6E0,1.6E1,3E0,6E0,2E0,2E0,3E0,5E0,1.1E1,2E0,4E0,6E0,1.2E1,1E0,1E0,1E0,5E0],"tree_param":{"num_deleted":"0","num_feature":"12","num_nodes":"45","size_leaf_vector":"1"}},{"base_weights":[-2.2947675E-4,-1.9515097E-3,3.3598465E-3,-2.0193744E-4,-8.00881E-4,2.0229693E-4,4.378449E-3,-1.185225E-3,1.2635269E-3,1.0758433E-3,-1.0160718E-4,-1.0037988E-5,5.0644637E-3,-6.226154E-4,-2.194922E-3,1.8133195E-4,-6.0491427E-4,-1.8332334E-5,7.411484E-5,-7.564446E-4,4.9425842E-5,4.1657183E-3,3.1076148E-4,-1.167073E-3,1.5649848E-3,-1.3771173E-4,-1.2052917E-3,1.3183483E-3,-1.1884741E-4,-6.482369E-5,-7.2138464E-6,3.1574173E-3,3.380399E-4,-1.1853746E-4,-2.405005E-5,1.6633228E-4,-5.141687E-5,-2.1412066E-5,-7.612217E-5,2.054264E-5,1.0102087E-4,2.283256E-5,1.7435382E-4],"categories":[],"categories_nodes":[],"categories_segments":[],"categories_sizes":[],"default_left":[0,0,0,0,0,0,0,0,0,0,0,0,0,0,0,0,0,0,0,0,0,0,0,0,0,0,0,0,0,0,0,0,0,0,0,0,0,0,0,0,0,0,0],"id":4,"left_children":[1,3,5,-1,7,9,11,13,15,17,-1,19,21,23,25,-1,27,-1,-1,29,-1,31,-1,33,35,-1,37,39,-1,-1,-1,41,-1,-1,-1,-1,-1,-1,-1,-1,-1,-1,-1],"loss_changes":[9.336967E-4,2.4173243E-4,1.5671237E-4,0E0,5.4658216E-5,2.7560805E-5,1.1144183E-4,3.101313E-5,5.0762508E-5,6.406529E-6,0E0,5.2197256E-6,7.2049443E-6,4.7086567E-5,7.75059E-6,0E0,2.6990254E-5,0E0,0E0,1.1353025E-6,0E0,3.360238E-5,0E0,2.4459729E-5,3.9969345E-5,0E0,1.5660135E-6,1.7184047E-6,0E0,0E0,0E0,1.3543249E-5,0E0,0E0,0E0,0E0,0E0,0E0,0E0,0E0,0E0,0E0,0E0],"parents":[2147483647,0,0,1,1,2,2,4,4,5,5,6,6,7,7,8,8,9,9,11,11,12,12,13,13,14,14,16,16,19,19,21,21,23,23,24,24,26,26,27,27,31,31],"right_children":[2,4,6,-1,8,10,12,14,16,18,-1,20,22,24,26,-1,28,-1,-1,30,-1,32,-1,34,36,-1,38,40,-1,-1,-1,42,-1,-1,-1,-1,-1,-1,-1,-1,-1,-1,-1],"split_conditions":[1.11845024E-1,8.038962E-2,5.137465E-2,-2.0193744E-4,6.3432164E-2,3.6789037E-2,1.17486626E-1,1.1804052E-1,9.6490495E-2,1.0578636E-1,-1.0160718E-4,1.1624561E-1,1.2727098E-1,9.5581904E-2,1.2256974E-1,1.8133195E-4,2.7959531E-2,-1.8332334E-5,7.411484E-5,1.1343933E-1,4.9425842E-5,3.142298E-2,3.1076148E-4,9.845166E-2,9.898168E-2,-1.3771173E-4,1.3625094E-1,2.7870594E-2,-1.1884741E-4,-6.482369E-5,-7.2138464E-6,1.14481516E-1,3.380399E-4,-1.1853746E-4,-2.405005E-5,1.6633228E-4,-5.141687E-5,-2.1412066E-5,-7.612217E-5,2.054264E-5,1.0102087E-4,2.283256E-5,1.7435382E-4],"split_indices":[3,3,1,0,10,10,4,7,9,7,0,3,3,8,4,0,1,0,0,3,0,10,0,3,8,0,5,1,0,0,0,3,0,0,0,0,0,0,0,0,0,0,0],"split_type":[0,0,0,0,0,0,0,0,0,0,0,0,0,0,0,0,0,0,0,0,0,0,0,0,0,0,0,0,0,0,0,0,0,0,0,0,0,0,0,0,0,0,0],"sum_hessian":[1.49E2,1.01E2,4.8E1,3.5E1,6.6E1,1.2E1,3.6E1,5.6E1,1E1,9E0,3E0,5E0,3.1E1,3.7E1,1.9E1,4E0,6E0,2E0,7E0,3E0,2E0,2E1,1.1E1,3E1,7E0,1.1E1,8E0,3E0,3E0,1E0,2E0,1.6E1,4E0,1E1,2E1,4E0,3E0,3E0,5E0,2E0,1E0,2E0,1.4E1],"tree_param":{"num_deleted":"0","num_feature":"12","num_nodes":"43","size_leaf_vector":"1"}},{"base_weights":[1.8693072E-4,-1.7733163E-3,3.4868484E-3,-3.6595073E-3,-4.7218212E-4,2.4642467E-3,2.9906648E-4,-3.7727999E-3,1.0475494E-5,4.8118725E-4,-1.9241084E-3,2.9054978E-3,-1.2056108E-3,-2.090964E-4,-1.3636354E-4,1.9028953E-3,-3.807851E-4,-2.125823E-3,6.2025385E-5,1.5983592E-3,5.7309624E-3,-1.08571105E-4,6.644086E-5,5.4220236E-5,1.7398641E-4,1.8667936E-3,-9.839578E-4,-2.2657516E-3,1.3320568E-5,9.849535E-5,-9.3843446E-5,-6.428309E-4,2.162587E-3,6.6891983E-3,4.7296628E-5,-4.2501106E-5,4.724538E-5,1.693131E-4,-1.3746973E-5,6.963938E-5,-7.7607976E-5,-1.264394E-4,-3.2358454E-5,-6.245541E-5,-1.3707671E-6,4.298655E-5,1.3763028E-4,6.358721E-5,3.603706E-4],"categories":[],"categories_nodes":[],"categories_segments":[],"categories_sizes":[],"default_left":[0,0,0,0,0,0,0,0,0,0,0,0,0,0,0,0,0,0,0,0,0,0,0,0,0,0,0,0,0,0,0,0,0,0,0,0,0,0,0,0,0,0,0,0,0,0,0,0,0],"id":5,"left_children":[1,3,5,7,9,11,-1,13,-1,15,17,19,21,-1,-1,23,25,27,29,31,33,-1,-1,35,-1,37,39,41,-1,-1,-1,43,45,47,-1,-1,-1,-1,-1,-1,-1,-1,-1,-1,-1,-1,-1,-1,-1],"loss_changes":[9.376694E-4,2.2160308E-4,1.2300705E-4,1.7008628E-5,7.705807E-5,6.827607E-5,0E0,3.993977E-6,0E0,4.239068E-5,8.945761E-6,1.2379771E-4,1.51243175E-5,0E0,0E0,3.7706995E-5,3.1661766E-5,7.2984694E-6,1.4794799E-5,3.4268254E-5,4.4109533E-5,0E0,0E0,6.440973E-6,0E0,1.7202497E-5,2.64703E-5,6.4526175E-6,0E0,0E0,0E0,2.2044298E-6,1.3776393E-5,1.6100588E-5,0E0,0E0,0E0,0E0,0E0,0E0,0E0,0E0,0E0,0E0,0E0,0E0,0E0,0E0,0E0],"parents":[2147483647,0,0,1,1,2,2,3,3,4,4,5,5,7,7,9,9,10,10,11,11,12,12,15,15,16,16,17,17,18,18,19,19,20,20,23,23,25,25,26,26,27,27,31,31,32,32,33,33],"right_children":[2,4,6,8,10,12,-1,14,-1,16,18,20,22,-1,-1,24,26,28,30,32,34,-1,-1,36,-1,38,40,42,-1,-1,-1,44,46,48,-1,-1,-1,-1,-1,-1,-1,-1,-1,-1,-1,-1,-1,-1,-1],"split_conditions":[1.11845024E-1,9.3100384E-2,1.1544769E-1,9.845166E-2,1.1804052E-1,3.6831718E-2,2.9906648E-4,7.742987E-2,1.0475494E-5,1.00065455E-1,4.459653E-2,1.5918104E-2,1.3025486E-1,-2.090964E-4,-1.3636354E-4,1.0389656E-1,3.832378E-2,7.158219E-2,1.4507454E-2,1.16535045E-1,1.2549803E-1,-1.08571105E-4,6.644086E-5,1.0454846E-1,1.7398641E-4,1.10411376E-1,6.415802E-2,1.0771651E-1,1.3320568E-5,9.849535E-5,-9.3843446E-5,1.14481516E-1,1.0463585E-1,1.0049888E-1,4.7296628E-5,-4.2501106E-5,4.724538E-5,1.693131E-4,-1.3746973E-5,6.963938E-5,-7.7607976E-5,-1.264394E-4,-3.2358454E-5,-6.245541E-5,-1.3707671E-6,4.298655E-5,1.3763028E-4,6.358721E-5,3.603706E-4],"split_indices":[3,4,2,3,7,10,0,3,0,4,11,11,5,0,0,5,0,10,0,3,6,0,0,2,0,3,7,3,0,0,0,3,2,2,0,0,0,0,0,0,0,0,0,0,0,0,0,0,0],"split_type":[0,0,0,0,0,0,0,0,0,0,0,0,0,0,0,0,0,0,0,0,0,0,0,0,0,0,0,0,0,0,0,0,0,0,0,0,0,0,0,0,0,0,0,0,0,0,0,0,0],"sum_hessian":[1.43E2,9E1,5.3E1,3.6E1,5.4E1,3.9E1,1.4E1,3.5E1,1E0,3.3E1,2.1E1,3.5E1,4E0,2.3E1,1.2E1,1.2E1,2.1E1,1.9E1,2E0,2.5E1,1E1,3E0,1E0,6E0,6E0,4E0,1.7E1,1.8E1,1E0,1E0,1E0,5E0,2E1,8E0,2E0,3E0,3E0,2E0,2E0,3E0,1.4E1,1.5E1,3E0,2E0,3E0,7E0,1.3E1,1E0,7E0],"tree_param":{"num_deleted":"0","num_feature":"12","num_nodes":"49","size_leaf_vector":"1"}},{"base_weights":[-4.0891668E-5,-1.7537884E-3,3.21443E-3,-1.8154006E-4,-7.878792E-4,2.195232E-3,2.97318E-4,-2.6628177E-3,-3.484992E-4,2.602625E-3,-9.591313E-5,-1.440551E-4,-5.237988E-5,-1.1803149E-3,6.30347E-4,1.5804259E-3,5.0000795E-3,-1.6483291E-3,5.2606233E-4,1.598902E-4,1.3488451E-4,2.396454E-3,3.5135425E-5,1.9003161E-3,3.3749346E-4,-9.9936326E-5,-1.6120748E-5,5.0634437E-5,-2.3016784E-5,1.8136851E-4,-1.0207812E-5,5.7509253E-5,1.576912E-4,-4.0380746E-5,3.657857E-5,1.557535E-4,2.6061743E-6],"categories":[],"categories_nodes":[],"categories_segments":[],"categories_sizes":[],"default_left":[0,0,0,0,0,0,0,0,0,0,0,0,0,0,0,0,0,0,0,0,0,0,0,0,0,0,0,0,0,0,0,0,0,0,0,0,0],"id":6,"left_children":[1,3,5,-1,7,9,-1,11,13,15,-1,-1,-1,17,19,21,23,25,27,-1,29,31,33,35,-1,-1,-1,-1,-1,-1,-1,-1,-1,-1,-1,-1,-1],"loss_changes":[8.085857E-4,1.6937664E-4,1.2616522E-4,0E0,5.1795883E-5,6.867321E-5,0E0,1.2126911E-6,4.389765E-5,7.787142E-5,0E0,0E0,0E0,2.402678E-5,3.1370633E-5,3.2701813E-5,4.141245E-5,1.0041316E-5,3.826228E-6,0E0,2.6790638E-5,1.241859E-5,6.460044E-6,1.106313E-5,0E0,0E0,0E0,0E0,0E0,0E0,0E0,0E0,0E0,0E0,0E0,0E0,0E0],"parents":[2147483647,0,0,1,1,2,2,4,4,5,5,7,7,8,8,9,9,13,13,14,14,15,15,16,16,17,17,18,18,20,20,21,21,22,22,23,23],"right_children":[2,4,6,-1,8,10,-1,12,14,16,-1,-1,-1,18,20,22,24,26,28,-1,30,32,34,36,-1,-1,-1,-1,-1,-1,-1,-1,-1,-1,-1,-1,-1],"split_conditions":[1.1179153E-1,7.99353E-2,1.1544769E-1,-1.8154006E-4,2.372087E-2,4.1348565E-2,2.97318E-4,7.2165154E-2,7.715474E-2,1.7327765E-2,-9.591313E-5,-1.440551E-4,-5.237988E-5,1.05368264E-1,1.1002087E-1,7.263952E-2,1.0186781E-1,1.0771651E-1,4.050474E-2,1.598902E-4,7.771948E-2,1.0463585E-1,1.1624561E-1,9.9140644E-2,3.3749346E-4,-9.9936326E-5,-1.6120748E-5,5.0634437E-5,-2.3016784E-5,1.8136851E-4,-1.0207812E-5,5.7509253E-5,1.576912E-4,-4.0380746E-5,3.657857E-5,1.557535E-4,2.6061743E-6],"split_indices":[3,3,2,0,1,10,0,2,9,11,0,0,0,2,6,1,2,3,8,0,9,2,3,2,0,0,0,0,0,0,0,0,0,0,0,0,0],"split_type":[0,0,0,0,0,0,0,0,0,0,0,0,0,0,0,0,0,0,0,0,0,0,0,0,0,0,0,0,0,0,0,0,0,0,0,0,0],"sum_hessian":[1.43E2,9.4E1,4.9E1,3.1E1,6.3E1,3.7E1,1.2E1,1.1E1,5.2E1,3.4E1,3E0,9E0,2E0,2.8E1,2.4E1,2.5E1,9E0,2.2E1,6E0,3E0,2.1E1,1.6E1,9E0,4E0,5E0,1.7E1,5E0,4E0,2E0,1E0,2E1,7E0,9E0,4E0,5E0,2E0,2E0],"tree_param":{"num_deleted":"0","num_feature":"12","num_nodes":"37","size_leaf_vector":"1"}},{"base_weights":[-2.0043805E-4,-2.0171846E-3,3.0373794E-3,-3.2690084E-3,-7.7593594E-4,7.247088E-4,4.10438E-3,-1.7376307E-4,-2.0807737E-3,-1.3090116E-3,1.9197997E-3,-1.6620236E-3,1.586936E-3,4.485825E-3,6.1042897E-6,1.1007581E-5,-1.3848156E-4,-1.6037328E-3,2.6739022E-4,-9.0658374E-5,2.7121047E-3,-1.9169978E-5,-1.19331984E-4,2.7218706E-4,3.908131E-4,3.5702856E-3,3.0257148E-4,-1.7916149E-3,-1.9326992E-4,-7.9085E-5,8.3918864E-4,1.9882445E-5,1.5157863E-4,-4.594883E-5,9.968563E-4,1.2734627E-3,2.6890912E-4,-1.0497724E-4,-2.6195014E-5,-2.4985598E-5,2.5812455E-5,6.403189E-5,1.491523E-5,6.3498956E-5,-2.2875076E-5,-2.9279976E-5,1.0219055E-4],"categories":[],"categories_nodes":[],"categories_segments":[],"categories_sizes":[],"default_left":[0,0,0,0,0,0,0,0,0,0,0,0,0,0,0,0,0,0,0,0,0,0,0,0,0,0,0,0,0,0,0,0,0,0,0,0,0,0,0,0,0,0,0,0,0,0,0],"id":7,"left_children":[1,3,5,7,9,11,13,-1,15,17,19,21,23,25,-1,-1,-1,27,29,-1,31,-1,-1,-1,33,35,-1,37,39,-1,41,-1,-1,-1,43,45,-1,-1,-1,-1,-1,-1,-1,-1,-1,-1,-1],"loss_changes":[8.1788347E-4,1.3575383E-4,1.2040659E-4,3.5520934E-6,6.861646E-5,3.7621918E-5,5.1099225E-5,0E0,1.4874822E-5,1.8548191E-5,2.8578685E-5,3.7175205E-6,5.7844278E-5,2.282922E-5,0E0,0E0,0E0,8.398762E-6,8.7284925E-6,0E0,3.970261E-6,0E0,0E0,0E0,9.647768E-6,8.450431E-5,0E0,1.0220698E-5,1.3451081E-6,0E0,1.0506169E-6,0E0,0E0,0E0,3.7587624E-6,1.6950233E-5,0E0,0E0,0E0,0E0,0E0,0E0,0E0,0E0,0E0,0E0,0E0],"parents":[2147483647,0,0,1,1,2,2,3,3,4,4,5,5,6,6,8,8,9,9,10,10,11,11,12,12,13,13,17,17,18,18,20,20,24,24,25,25,27,27,28,28,30,30,34,34,35,35],"right_children":[2,4,6,8,10,12,14,-1,16,18,20,22,24,26,-1,-1,-1,28,30,-1,32,-1,-1,-1,34,36,-1,38,40,-1,42,-1,-1,-1,44,46,-1,-1,-1,-1,-1,-1,-1,-1,-1,-1,-1],"split_conditions":[1.102222E-1,8.709495E-2,5.2373864E-2,8.0633454E-2,3.4742326E-2,1.2877965E-1,1.7132066E-1,-1.7376307E-4,8.118352E-2,1.0454846E-1,9.382226E-2,1.2622234E-1,1.2923032E-1,2.9224068E-2,6.1042897E-6,1.1007581E-5,-1.3848156E-4,1.0771651E-1,2.1313828E-1,-9.0658374E-5,7.5429594E-3,-1.9169978E-5,-1.19331984E-4,2.7218706E-4,3.7915207E-2,1.2668416E-1,3.0257148E-4,2.895767E-2,5.5078086E-2,-7.9085E-5,1.0755779E-1,1.9882445E-5,1.5157863E-4,-4.594883E-5,3.967959E-2,1.16535045E-1,2.6890912E-4,-1.0497724E-4,-2.6195014E-5,-2.4985598E-5,2.5812455E-5,6.403189E-5,1.491523E-5,6.3498956E-5,-2.2875076E-5,-2.9279976E-5,1.0219055E-4],"split_indices":[3,3,1,3,11,5,0,0,3,2,8,5,5,10,0,0,0,3,0,0,0,0,0,0,1,3,0,11,0,0,1,0,0,0,0,3,0,0,0,0,0,0,0,0,0,0,0],"split_type":[0,0,0,0,0,0,0,0,0,0,0,0,0,0,0,0,0,0,0,0,0,0,0,0,0,0,0,0,0,0,0,0,0,0,0,0,0,0,0,0,0,0,0,0,0,0,0],"sum_hessian":[1.37E2,8.8E1,4.9E1,4.3E1,4.5E1,1.6E1,3.3E1,3.5E1,8E0,3.8E1,7E0,4E0,1.2E1,3E1,3E0,2E0,6E0,3.2E1,6E0,1E0,6E0,2E0,2E0,2E0,1E1,2.1E1,9E0,2.8E1,4E0,1E0,5E0,1E0,5E0,3E0,7E0,1E1,1.1E1,2.2E1,6E0,3E0,1E0,2E0,3E0,6E0,1E0,3E0,7E0],"tree_param":{"num_deleted":"0","num_feature":"12","num_nodes":"47","size_leaf_vector":"1"}},{"base_weights":[-6.9912145E-5,-1.8560285E-3,2.5948212E-3,-1.7067716E-4,-8.0196065E-4,1.6142514E-3,2.7456338E-4,-1.5411894E-3,9.576283E-4,1.8883086E-3,-1.5983977E-3,-2.0237812E-3,-7.813011E-4,2.131095E-3,-8.555565E-4,6.006279E-4,3.210342E-3,-1.298209E-5,-9.7905126E-5,-2.1486518E-3,1.4962431E-5,5.453471E-5,-1.1266358E-3,1.5754442E-4,-9.315869E-6,7.922124E-4,-1.1447182E-4,-3.7682036E-4,1.306309E-3,4.1134455E-3,4.1752597E-4,2.9934338E-6,-1.1310356E-4,-1.0611532E-4,-2.5806841E-5,-6.962623E-5,9.923164E-5,6.256557E-5,-3.483792E-5,3.67243E-5,1.03716426E-4,2.7246072E-4,1.4503198E-4,-3.784314E-5,5.96968E-5],"categories":[],"categories_nodes":[],"categories_segments":[],"categories_sizes":[],"default_left":[0,0,0,0,0,0,0,0,0,0,0,0,0,0,0,0,0,0,0,0,0,0,0,0,0,0,0,0,0,0,0,0,0,0,0,0,0,0,0,0,0,0,0,0,0],"id":8,"left_children":[1,3,5,-1,7,9,-1,11,13,15,17,19,21,23,25,27,29,-1,-1,31,-1,-1,33,-1,-1,35,-1,37,39,41,43,-1,-1,-1,-1,-1,-1,-1,-1,-1,-1,-1,-1,-1,-1],"loss_changes":[6.759089E-4,1.3680919E-4,1.5302523E-4,0E0,6.911429E-5,4.1758038E-5,0E0,1.19873075E-5,3.586666E-5,6.7868415E-5,1.4178231E-6,7.0246897E-6,1.1572254E-5,2.4219884E-5,1.8352637E-5,1.5667112E-5,4.8726564E-5,0E0,0E0,5.3957046E-6,0E0,0E0,7.414581E-6,0E0,0E0,1.3184152E-5,0E0,6.0808748E-6,4.185662E-6,8.494215E-6,6.3744883E-6,0E0,0E0,0E0,0E0,0E0,0E0,0E0,0E0,0E0,0E0,0E0,0E0,0E0,0E0],"parents":[2147483647,0,0,1,1,2,2,4,4,5,5,7,7,8,8,9,9,10,10,11,11,12,12,13,13,14,14,15,15,16,16,19,19,22,22,25,25,27,27,28,28,29,29,30,30],"right_children":[2,4,6,-1,8,10,-1,12,14,16,18,20,22,24,26,28,30,-1,-1,32,-1,-1,34,-1,-1,36,-1,38,40,42,44,-1,-1,-1,-1,-1,-1,-1,-1,-1,-1,-1,-1,-1,-1],"split_conditions":[1.102222E-1,8.038962E-2,1.1544769E-1,-1.7067716E-4,3.1641703E-2,4.4730008E-2,2.7456338E-4,9.975854E-2,4.3041926E-2,1.1425946E-2,8.80407E-3,1.0425726E-1,8.552018E-2,1.15296E-1,3.832378E-2,1.1624561E-1,1.3223487E-1,-1.298209E-5,-9.7905126E-5,8.1131004E-2,1.4962431E-5,5.453471E-5,1.5200618E-2,1.5754442E-4,-9.315869E-6,6.160186E-2,-1.1447182E-4,1.1072586E-1,1.239852E-1,1.1523775E-1,8.829088E-2,2.9934338E-6,-1.1310356E-4,-1.0611532E-4,-2.5806841E-5,-6.962623E-5,9.923164E-5,6.256557E-5,-3.483792E-5,3.67243E-5,1.03716426E-4,2.7246072E-4,1.4503198E-4,-3.784314E-5,5.96968E-5],"split_indices":[3,3,2,0,11,10,0,3,11,11,0,2,5,5,0,3,5,0,0,3,0,0,11,0,0,2,0,3,3,3,2,0,0,0,0,0,0,0,0,0,0,0,0,0,0],"split_type":[0,0,0,0,0,0,0,0,0,0,0,0,0,0,0,0,0,0,0,0,0,0,0,0,0,0,0,0,0,0,0,0,0,0,0,0,0,0,0,0,0,0,0,0,0],"sum_hessian":[1.4E2,8.4E1,5.6E1,3.3E1,5.1E1,4.3E1,1.3E1,3.6E1,1.5E1,4E1,3E0,2.1E1,1.5E1,9E0,6E0,2.1E1,1.9E1,1E0,2E0,2E1,1E0,2E0,1.3E1,6E0,3E0,3E0,3E0,9E0,1.2E1,1.4E1,5E0,1E0,1.9E1,4E0,9E0,1E0,2E0,1E0,8E0,8E0,4E0,5E0,9E0,2E0,3E0],"tree_param":{"num_deleted":"0","num_feature":"12","num_nodes":"45","size_leaf_vector":"1"}},{"base_weights":[6.667114E-5,-1.5418017E-3,3.1816983E-3,-3.14481E-3,-6.077336E-4,2.6298244E-4,3.7588668E-3,-1.9442195E-4,-1.2812235E-4,-6.4370666E-5,-1.8720042E-3,-9.464162E-5,5.7466706E-5,2.8116285E-4,2.8577792E-3,-9.48597E-4,1.2164213E-3,-1.2976248E-4,-8.60398E-4,4.078784E-3,1.0412511E-3,-1.8766149E-3,-1.4294284E-4,1.2803494E-4,3.308909E-4,-6.341623E-5,-1.4019591E-5,4.74977E-3,3.553196E-5,-1.2942978E-5,1.7017403E-3,2.918602E-6,-1.0289147E-4,5.1707666E-5,-5.2128977E-5,1.12753296E-4,-4.5653993E-5,2.5819533E-4,7.549827E-5,4.6184006E-5,-1.9250181E-5,9.34187E-5,1.3382617E-5],"categories":[],"categories_nodes":[],"categories_segments":[],"categories_sizes":[],"default_left":[0,0,0,0,0,0,0,0,0,0,0,0,0,0,0,0,0,0,0,0,0,0,0,0,0,0,0,0,0,0,0,0,0,0,0,0,0,0,0,0,0,0,0],"id":9,"left_children":[1,3,5,7,9,11,13,-1,-1,15,17,-1,-1,-1,19,21,23,-1,25,27,29,31,33,-1,35,-1,-1,37,-1,39,41,-1,-1,-1,-1,-1,-1,-1,-1,-1,-1,-1,-1],"loss_changes":[7.0636667E-4,1.3733949E-4,7.9871825E-5,4.7601643E-6,4.1096966E-5,1.9372786E-5,5.1129085E-5,0E0,0E0,4.985182E-5,1.0936565E-5,0E0,0E0,0E0,6.0074686E-5,1.9170946E-5,2.057986E-5,0E0,1.773772E-6,3.5044213E-5,9.073716E-6,4.3278887E-6,1.696257E-5,0E0,3.0782463E-5,0E0,0E0,1.0986812E-5,0E0,2.4465037E-6,1.4116649E-6,0E0,0E0,0E0,0E0,0E0,0E0,0E0,0E0,0E0,0E0,0E0,0E0],"parents":[2147483647,0,0,1,1,2,2,3,3,4,4,5,5,6,6,9,9,10,10,14,14,15,15,16,16,18,18,19,19,20,20,21,21,22,22,24,24,27,27,29,29,30,30],"right_children":[2,4,6,8,10,12,14,-1,-1,16,18,-1,-1,-1,20,22,24,-1,26,28,30,32,34,-1,36,-1,-1,38,-1,40,42,-1,-1,-1,-1,-1,-1,-1,-1,-1,-1,-1,-1],"split_conditions":[1.11845024E-1,7.9860225E-2,4.8949257E-2,6.1249394E-2,1.3008708E-1,1.1565614E-1,3.804988E-2,-1.9442195E-4,-1.2812235E-4,9.393277E-2,1.2256974E-1,-9.464162E-5,5.7466706E-5,2.8116285E-4,1.1438558E-1,9.930443E-2,1.16074175E-1,-1.2976248E-4,2.7767146E-2,1.5059286E-1,1.2758933E-1,8.1131004E-2,6.415802E-2,1.2803494E-4,1.9704323E-2,-6.341623E-5,-1.4019591E-5,1.1915289E-1,3.553196E-5,1.1292658E-1,1.3364735E-1,2.918602E-6,-1.0289147E-4,5.1707666E-5,-5.2128977E-5,1.12753296E-4,-4.5653993E-5,2.5819533E-4,7.549827E-5,4.6184006E-5,-1.9250181E-5,9.34187E-5,1.3382617E-5],"split_indices":[3,3,1,3,6,3,0,0,0,8,4,0,0,0,6,3,6,0,1,0,4,3,7,0,0,0,0,5,0,3,5,0,0,0,0,0,0,0,0,0,0,0,0],"split_type":[0,0,0,0,0,0,0,0,0,0,0,0,0,0,0,0,0,0,0,0,0,0,0,0,0,0,0,0,0,0,0,0,0,0,0,0,0,0,0,0,0,0,0],"sum_hessian":[1.39E2,9.2E1,4.7E1,3.3E1,5.9E1,8E0,3.9E1,1.2E1,2.1E1,4.2E1,1.7E1,2E0,6E0,1.1E1,2.8E1,2.5E1,1.7E1,9E0,8E0,1.6E1,1.2E1,1.1E1,1.4E1,6E0,1.1E1,4E0,4E0,1.3E1,3E0,5E0,7E0,1E0,1E1,6E0,8E0,4E0,7E0,1.1E1,2E0,1E0,4E0,6E0,1E0],"tree_param":{"num_deleted":"0","num_feature":"12","num_nodes":"43","size_leaf_vector":"1"}},{"base_weights":[-3.7172314E-5,-1.6144632E-3,2.0186487E-3,-1.5690818E-4,-1.0416573E-3,-2.8005484E-4,2.8218734E-3,-1.2768514E-4,-4.4041316E-4,3.666836E-4,-1.6346456E-3,2.9134736E-4,2.347957E-3,-1.4206497E-3,1.8494775E-5,8.706174E-4,-4.9241087E-5,1.7160655E-5,-1.04943E-4,-4.99894E-4,2.6452397E-3,2.7115539E-5,-1.5995976E-3,1.1707578E-3,-8.9216E-4,2.335338E-6,1.4121067E-3,1.4986844E-6,-6.548413E-5,9.609242E-4,3.2509826E-3,-1.1248527E-4,-5.5729204E-5,2.2817894E-5,1.9381192E-4,-6.6748085E-5,5.5104316E-5,8.0275684E-5,1.1126802E-5,-6.563549E-5,9.323294E-5,1.2829772E-4,2.518682E-4],"categories":[],"categories_nodes":[],"categories_segments":[],"categories_sizes":[],"default_left":[0,0,0,0,0,0,0,0,0,0,0,0,0,0,0,0,0,0,0,0,0,0,0,0,0,0,0,0,0,0,0,0,0,0,0,0,0,0,0,0,0,0,0],"id":10,"left_children":[1,3,5,-1,7,9,11,-1,13,15,17,-1,19,21,23,25,-1,-1,-1,27,29,-1,31,33,35,-1,37,-1,-1,39,41,-1,-1,-1,-1,-1,-1,-1,-1,-1,-1,-1,-1],"loss_changes":[4.928958E-4,7.1790564E-5,1.2265108E-4,0E0,5.7058256E-5,1.6368585E-5,5.6102086E-5,0E0,2.1168677E-5,9.7113025E-6,6.2292584E-6,0E0,3.8573446E-5,6.136499E-6,3.5671863E-5,4.3954333E-6,0E0,0E0,0E0,2.18466E-6,3.768652E-5,0E0,1.9068648E-6,2.7222977E-5,1.8249297E-5,0E0,1.0231424E-6,0E0,0E0,2.7104896E-5,2.2562279E-5,0E0,0E0,0E0,0E0,0E0,0E0,0E0,0E0,0E0,0E0,0E0,0E0],"parents":[2147483647,0,0,1,1,2,2,4,4,5,5,6,6,8,8,9,9,10,10,12,12,13,13,14,14,15,15,19,19,20,20,22,22,23,23,24,24,26,26,29,29,30,30],"right_children":[2,4,6,-1,8,10,12,-1,14,16,18,-1,20,22,24,26,-1,-1,-1,28,30,-1,32,34,36,-1,38,-1,-1,40,42,-1,-1,-1,-1,-1,-1,-1,-1,-1,-1,-1,-1],"split_conditions":[9.840608E-2,6.211913E-2,1.0662638E-1,-1.5690818E-4,1.5200618E-2,1.1095618E-1,1.1068257E-1,-1.2768514E-4,9.539947E-2,6.415802E-2,7.774497E-2,2.9134736E-4,1.1187677E-1,5.8838353E-2,1.1798312E-1,1.05993934E-1,-4.9241087E-5,1.7160655E-5,-1.04943E-4,8.107493E-2,5.2373864E-2,2.7115539E-5,7.5863786E-2,1.1657448E-1,1.00803174E-1,2.335338E-6,1.0755779E-1,1.4986844E-6,-6.548413E-5,1.0763224E-1,3.142298E-2,-1.1248527E-4,-5.5729204E-5,2.2817894E-5,1.9381192E-4,-6.6748085E-5,5.5104316E-5,8.0275684E-5,1.1126802E-5,-6.563549E-5,9.323294E-5,1.2829772E-4,2.518682E-4],"split_indices":[2,2,5,0,11,1,5,0,8,7,5,0,5,9,7,2,0,0,0,1,1,0,2,7,9,0,1,0,0,7,10,0,0,0,0,0,0,0,0,0,0,0,0],"split_type":[0,0,0,0,0,0,0,0,0,0,0,0,0,0,0,0,0,0,0,0,0,0,0,0,0,0,0,0,0,0,0,0,0,0,0,0,0,0,0,0,0,0,0],"sum_hessian":[1.5E2,8.5E1,6.5E1,2.2E1,6.3E1,1.7E1,4.8E1,1.7E1,4.6E1,1.2E1,5E0,5E0,4.3E1,1.4E1,3.2E1,9E0,3E0,1E0,4E0,4E0,3.9E1,1E0,1.3E1,1.4E1,1.8E1,4E0,5E0,3E0,1E0,1.1E1,2.8E1,4E0,9E0,1.2E1,2E0,1.5E1,3E0,4E0,1E0,3E0,8E0,2.2E1,6E0],"tree_param":{"num_deleted":"0","num_feature":"12","num_nodes":"43","size_leaf_vector":"1"}},{"base_weights":[8.678931E-5,-1.3255092E-3,2.2904344E-3,-2.8005925E-3,-4.888166E-4,1.4961384E-3,2.3115955E-4,-1.6844411E-4,-1.1172264E-4,-1.0929953E-3,1.3160286E-3,4.460876E-4,2.3525937E-3,-1.6337029E-3,-4.229963E-4,-4.5950778E-4,2.550776E-3,2.4881638E-5,8.944852E-5,2.0663692E-4,4.1525085E-3,4.2388683E-6,-1.7121054E-3,-1.0494107E-3,7.261034E-4,5.1150077E-5,-9.1357004E-5,1.5802131E-4,1.3900013E-5,3.7974867E-5,-4.4486305E-4,1.5555396E-4,-3.402287E-4,2.3772283E-3,2.9137317E-4,-9.3241215E-5,-3.9467635E-5,-1.09101005E-4,-2.7107584E-5,-2.938672E-7,5.8323367E-5,1.9176157E-5,-3.357813E-5,-6.200694E-5,1.755842E-5,1.3747529E-4,-5.7177854E-6],"categories":[],"categories_nodes":[],"categories_segments":[],"categories_sizes":[],"default_left":[0,0,0,0,0,0,0,0,0,0,0,0,0,0,0,0,0,0,0,0,0,0,0,0,0,0,0,0,0,0,0,0,0,0,0,0,0,0,0,0,0,0,0,0,0,0,0],"id":11,"left_children":[1,3,5,7,9,11,-1,-1,-1,13,15,17,19,21,23,25,27,29,-1,31,33,-1,35,37,39,-1,-1,-1,-1,-1,41,-1,43,45,-1,-1,-1,-1,-1,-1,-1,-1,-1,-1,-1,-1,-1],"loss_changes":[4.5430567E-4,1.08474036E-4,9.8698336E-5,2.7677743E-6,6.468446E-5,3.8520695E-5,0E0,0E0,0E0,1.5248988E-5,3.4057182E-5,1.1833723E-5,9.184287E-5,3.3787437E-6,1.5878044E-5,1.606186E-5,1.15917865E-5,6.2042636E-6,0E0,2.0118554E-5,2.4802459E-5,0E0,1.7692E-6,6.860384E-6,2.5855584E-6,0E0,0E0,0E0,0E0,0E0,2.3233022E-6,0E0,7.2796443E-6,7.7349E-6,0E0,0E0,0E0,0E0,0E0,0E0,0E0,0E0,0E0,0E0,0E0,0E0,0E0],"parents":[2147483647,0,0,1,1,2,2,3,3,4,4,5,5,9,9,10,10,11,11,12,12,13,13,14,14,15,15,16,16,17,17,19,19,20,20,22,22,23,23,24,24,30,30,32,32,33,33],"right_children":[2,4,6,8,10,12,-1,-1,-1,14,16,18,20,22,24,26,28,30,-1,32,34,-1,36,38,40,-1,-1,-1,-1,-1,42,-1,44,46,-1,-1,-1,-1,-1,-1,-1,-1,-1,-1,-1,-1,-1],"split_conditions":[1.102222E-1,8.038962E-2,1.2608646E-1,6.3960455E-2,3.403208E-2,1.1425946E-2,2.3115955E-4,-1.6844411E-4,-1.1172264E-4,9.940152E-2,8.612165E-2,1.239852E-1,5.137465E-2,8.1131004E-2,2.1313828E-1,4.2847015E-2,1.0437075E-1,5.5225156E-2,8.944852E-5,1.10411376E-1,1.6880147E-2,4.2388683E-6,3.1117741E-2,1.5200618E-2,1.0202035E-1,5.1150077E-5,-9.1357004E-5,1.5802131E-4,1.3900013E-5,3.7974867E-5,4.352263E-2,1.5555396E-4,1.3025486E-1,8.759705E-2,2.9137317E-4,-9.3241215E-5,-3.9467635E-5,-1.09101005E-4,-2.7107584E-5,-2.938672E-7,5.8323367E-5,1.9176157E-5,-3.357813E-5,-6.200694E-5,1.755842E-5,1.3747529E-4,-5.7177854E-6],"split_indices":[3,3,3,3,11,11,0,0,0,3,3,3,1,3,0,11,4,8,0,3,11,0,11,11,3,0,0,0,0,0,0,0,5,0,0,0,0,0,0,0,0,0,0,0,0,0,0],"split_type":[0,0,0,0,0,0,0,0,0,0,0,0,0,0,0,0,0,0,0,0,0,0,0,0,0,0,0,0,0,0,0,0,0,0,0,0,0,0,0,0,0,0,0,0,0,0,0],"sum_hessian":[1.44E2,8.8E1,5.6E1,3.1E1,5.7E1,4.3E1,1.3E1,1.3E1,1.8E1,4.3E1,1.4E1,2E1,2.3E1,2.3E1,2E1,6E0,8E0,1.6E1,4E0,1.1E1,1.2E1,1E0,2.2E1,1.3E1,7E0,3E0,3E0,6E0,2E0,6E0,1E1,1E0,1E1,7E0,5E0,1.8E1,4E0,3E0,1E1,3E0,4E0,2E0,8E0,4E0,6E0,6E0,1E0],"tree_param":{"num_deleted":"0","num_feature":"12","num_nodes":"47","size_leaf_vector":"1"}},{"base_weights":[6.801014E-5,-1.3190174E-3,2.4940937E-3,-1.3646533E-4,-5.61035E-4,2.901361E-3,-1.3833618E-3,-2.7347238E-5,-1.6779357E-3,2.3015635E-3,5.1303757E-3,-1.03588216E-4,5.146627E-5,-8.4785634E-4,1.6701947E-3,-1.9808845E-3,-3.1232298E-4,1.1455524E-3,2.1530066E-4,2.828758E-4,9.652856E-6,-1.3401778E-3,3.200366E-4,1.3560265E-4,4.1956204E-4,-1.2913789E-4,-7.5209996E-4,-8.2976694E-5,1.1389955E-3,-7.1999435E-5,1.636173E-3,-8.4033985E-5,7.683229E-6,6.4615415E-5,-4.5534838E-5,-3.4573375E-5,1.2508837E-4,-1.09588555E-5,-5.4849894E-5,3.5537407E-6,8.187093E-5,-4.3668308E-5,1.4086453E-5,3.3508542E-5,1.11216345E-4],"categories":[],"categories_nodes":[],"categories_segments":[],"categories_sizes":[],"default_left":[0,0,0,0,0,0,0,0,0,0,0,0,0,0,0,0,0,0,0,0,0,0,0,0,0,0,0,0,0,0,0,0,0,0,0,0,0,0,0,0,0,0,0,0,0],"id":12,"left_children":[1,3,5,-1,7,9,11,13,15,17,19,-1,-1,21,23,25,27,29,-1,-1,-1,31,33,-1,35,-1,37,-1,39,41,43,-1,-1,-1,-1,-1,-1,-1,-1,-1,-1,-1,-1,-1,-1],"loss_changes":[5.1814155E-4,1.0322823E-4,9.244666E-5,0E0,3.8699072E-5,5.637697E-5,1.2097919E-5,6.409428E-5,8.069252E-6,9.238822E-5,2.4934357E-5,0E0,0E0,1.8253246E-5,1.8406856E-5,1.063024E-5,1.1666362E-5,1.6843776E-5,0E0,0E0,0E0,1.14486975E-5,1.3142973E-5,0E0,2.0237023E-5,0E0,1.0461908E-6,0E0,1.4804491E-6,2.797249E-6,9.872485E-6,0E0,0E0,0E0,0E0,0E0,0E0,0E0,0E0,0E0,0E0,0E0,0E0,0E0,0E0],"parents":[2147483647,0,0,1,1,2,2,4,4,5,5,6,6,7,7,8,8,9,9,10,10,13,13,14,14,15,15,16,16,17,17,21,21,22,22,24,24,26,26,28,28,29,29,30,30],"right_children":[2,4,6,-1,8,10,12,14,16,18,20,-1,-1,22,24,26,28,30,-1,-1,-1,32,34,-1,36,-1,38,-1,40,42,44,-1,-1,-1,-1,-1,-1,-1,-1,-1,-1,-1,-1,-1,-1],"split_conditions":[1.11845024E-1,8.038962E-2,3.9028164E-2,-1.3646533E-4,1.1804052E-1,1.7327765E-2,1.3046955E-1,9.5581904E-2,1.00803174E-1,1.2608646E-1,1.2741835E-1,-1.03588216E-4,5.146627E-5,1.05368264E-1,1.007581E-1,1.2256974E-1,6.160186E-2,1.2031853E-1,2.1530066E-4,2.828758E-4,9.652856E-6,1.03873484E-1,6.415802E-2,1.3560265E-4,8.403064E-2,-1.2913789E-4,1.26471E-1,-8.2976694E-5,6.297787E-2,1.14440896E-1,1.0463585E-1,-8.4033985E-5,7.683229E-6,6.4615415E-5,-4.5534838E-5,-3.4573375E-5,1.2508837E-4,-1.09588555E-5,-5.4849894E-5,3.5537407E-6,8.187093E-5,-4.3668308E-5,1.4086453E-5,3.3508542E-5,1.11216345E-4],"split_indices":[3,3,10,0,7,11,5,8,9,3,4,0,0,2,4,4,2,4,0,0,0,3,7,0,2,0,4,0,2,4,2,0,0,0,0,0,0,0,0,0,0,0,0,0,0],"split_type":[0,0,0,0,0,0,0,0,0,0,0,0,0,0,0,0,0,0,0,0,0,0,0,0,0,0,0,0,0,0,0,0,0,0,0,0,0,0,0,0,0,0,0,0,0],"sum_hessian":[1.52E2,9.7E1,5.5E1,3.3E1,6.4E1,5E1,5E0,4.4E1,2E1,4.1E1,9E0,4E0,1E0,3E1,1.4E1,1.6E1,4E0,2.7E1,1.4E1,8E0,1E0,2.1E1,9E0,7E0,7E0,1E1,6E0,2E0,2E0,8E0,1.9E1,1.7E1,4E0,5E0,4E0,5E0,2E0,3E0,3E0,1E0,1E0,2E0,6E0,8E0,1.1E1],"tree_param":{"num_deleted":"0","num_feature":"12","num_nodes":"45","size_leaf_vector":"1"}},{"base_weights":[1.3242006E-5,-1.3554911E-3,2.1780883E-3,-2.5731435E-3,-5.2580587E-4,1.3984379E-3,2.1807307E-4,-1.5969893E-4,-1.0551803E-4,-7.245372E-4,8.836478E-4,-1.1924278E-5,1.9629803E-3,-4.467798E-4,-1.3473381E-3,6.286969E-5,1.4449499E-5,1.485379E-4,-5.0804426E-4,1.1088065E-3,2.3055752E-4,4.218044E-4,-1.075879E-3,-8.210143E-5,-1.0005216E-5,-1.05063875E-4,2.5650873E-4,-2.1873109E-4,1.786246E-3,-7.870085E-6,6.584236E-5,-7.095392E-5,-1.9283577E-6,-2.6800537E-5,3.7105183E-5,-2.1527003E-5,1.7420009E-5,4.0833842E-5,1.8779813E-4],"categories":[],"categories_nodes":[],"categories_segments":[],"categories_sizes":[],"default_left":[0,0,0,0,0,0,0,0,0,0,0,0,0,0,0,0,0,0,0,0,0,0,0,0,0,0,0,0,0,0,0,0,0,0,0,0,0,0,0],"id":13,"left_children":[1,3,5,7,9,11,-1,-1,-1,13,15,17,19,21,23,-1,-1,-1,25,27,-1,29,31,-1,-1,-1,33,35,37,-1,-1,-1,-1,-1,-1,-1,-1,-1,-1],"loss_changes":[4.20749E-4,8.6540356E-5,8.752549E-5,3.3154793E-6,1.5485672E-5,3.3464188E-5,0E0,0E0,0E0,7.5284497E-6,1.1923826E-6,2.0746265E-5,6.274706E-5,1.903228E-5,4.40453E-6,0E0,0E0,0E0,1.5156331E-5,2.1974543E-5,0E0,7.983486E-6,7.065366E-6,0E0,0E0,0E0,3.8613657E-6,1.2311116E-6,2.7489008E-5,0E0,0E0,0E0,0E0,0E0,0E0,0E0,0E0,0E0,0E0],"parents":[2147483647,0,0,1,1,2,2,3,3,4,4,5,5,9,9,10,10,11,11,12,12,13,13,14,14,18,18,19,19,21,21,22,22,26,26,27,27,28,28],"right_children":[2,4,6,8,10,12,-1,-1,-1,14,16,18,20,22,24,-1,-1,-1,26,28,-1,30,32,-1,-1,-1,34,36,38,-1,-1,-1,-1,-1,-1,-1,-1,-1,-1],"split_conditions":[1.102222E-1,8.038962E-2,1.1544769E-1,6.1249394E-2,1.05368264E-1,5.0042327E-2,2.1807307E-4,-1.5969893E-4,-1.0551803E-4,1.2794466E-1,1.0755779E-1,1.10411376E-1,6.0306896E-2,8.329299E-2,8.182619E-2,6.286969E-5,1.4449499E-5,1.485379E-4,1.3046955E-1,1.0765452E-1,2.3055752E-4,7.6983705E-2,1.13113284E-1,-8.210143E-5,-1.0005216E-5,-1.05063875E-4,3.7915207E-2,1.3298877E-1,4.94198E-2,-7.870085E-6,6.584236E-5,-7.095392E-5,-1.9283577E-6,-2.6800537E-5,3.7105183E-5,-2.1527003E-5,1.7420009E-5,4.0833842E-5,1.8779813E-4],"split_indices":[3,3,2,3,2,1,0,0,0,6,1,3,9,2,2,0,0,0,5,2,0,2,4,0,0,0,1,5,9,0,0,0,0,0,0,0,0,0,0],"split_type":[0,0,0,0,0,0,0,0,0,0,0,0,0,0,0,0,0,0,0,0,0,0,0,0,0,0,0,0,0,0,0,0,0,0,0,0,0,0,0],"sum_hessian":[1.4E2,8.6E1,5.4E1,3.4E1,5.2E1,4.1E1,1.3E1,1.2E1,2.2E1,4.6E1,6E0,1.2E1,2.9E1,3.3E1,1.3E1,3E0,3E0,1E0,1.1E1,2.3E1,6E0,1.4E1,1.9E1,1E1,3E0,3E0,8E0,8E0,1.5E1,9E0,5E0,1.4E1,5E0,3E0,5E0,6E0,2E0,1.1E1,4E0],"tree_param":{"num_deleted":"0","num_feature":"12","num_nodes":"39","size_leaf_vector":"1"}},{"base_weights":[4.3104365E-6,-1.2540095E-3,1.6248086E-3,-1.3930332E-4,-5.316444E-4,9.956518E-4,1.9452795E-4,-1.1025392E-3,1.3821275E-3,2.4849188E-4,2.2160413E-3,-9.996493E-5,-5.5762427E-4,2.273932E-3,-6.779075E-4,5.878581E-4,-1.4331935E-3,-5.405429E-4,3.170939E-3,1.7915959E-4,-1.131586E-3,1.1257315E-5,1.3789927E-4,-7.991472E-5,2.342242E-5,1.4897413E-4,9.875515E-4,1.7086044E-5,-9.282602E-5,1.7061917E-5,-7.680352E-5,1.2389412E-3,4.0130434E-3,-2.7644097E-5,1.07374195E-4,-7.352524E-5,-2.8324464E-5,1.6971715E-5,-6.293671E-5,7.963477E-5,3.1135438E-5,7.6492004E-5,-5.388819E-6,8.293315E-5,2.6530933E-4],"categories":[],"categories_nodes":[],"categories_segments":[],"categories_sizes":[],"default_left":[0,0,0,0,0,0,0,0,0,0,0,0,0,0,0,0,0,0,0,0,0,0,0,0,0,0,0,0,0,0,0,0,0,0,0,0,0,0,0,0,0,0,0,0,0],"id":14,"left_children":[1,3,5,-1,7,9,-1,11,13,15,17,-1,19,21,23,25,27,29,31,33,35,-1,-1,-1,-1,37,39,-1,-1,-1,-1,41,43,-1,-1,-1,-1,-1,-1,-1,-1,-1,-1,-1,-1],"loss_changes":[3.0790328E-4,9.258867E-5,9.0210175E-5,0E0,6.5985034E-5,4.7776117E-5,0E0,2.1363394E-5,2.7261598E-5,2.0246558E-5,5.4359138E-5,0E0,1.2889308E-5,9.296262E-6,6.024172E-6,4.9400314E-6,5.1426277E-6,5.79119E-6,1.9432235E-5,2.1359836E-5,2.4228466E-6,0E0,0E0,0E0,0E0,4.448944E-6,2.3199518E-6,0E0,0E0,0E0,0E0,2.5154313E-6,2.164433E-5,0E0,0E0,0E0,0E0,0E0,0E0,0E0,0E0,0E0,0E0,0E0,0E0],"parents":[2147483647,0,0,1,1,2,2,4,4,5,5,7,7,8,8,9,9,10,10,12,12,13,13,14,14,15,15,16,16,17,17,18,18,19,19,20,20,25,25,26,26,31,31,32,32],"right_children":[2,4,6,-1,8,10,-1,12,14,16,18,-1,20,22,24,26,28,30,32,34,36,-1,-1,-1,-1,38,40,-1,-1,-1,-1,42,44,-1,-1,-1,-1,-1,-1,-1,-1,-1,-1,-1,-1],"split_conditions":[9.840608E-2,6.211913E-2,1.1544769E-1,-1.3930332E-4,3.4570646E-2,1.1310666E-2,1.9452795E-4,1.5200618E-2,4.4634778E-2,1.1095618E-1,5.0042327E-2,-9.996493E-5,4.5812692E-2,2.7870594E-2,6.7208245E-2,1.0783851E-1,8.831975E-2,1.0186781E-1,2.9224068E-2,8.923236E-2,8.323286E-2,1.1257315E-5,1.3789927E-4,-7.991472E-5,2.342242E-5,1.0765452E-1,7.263952E-2,1.7086044E-5,-9.282602E-5,1.7061917E-5,-7.680352E-5,6.172958E-2,1.01972476E-1,-2.7644097E-5,1.07374195E-4,-7.352524E-5,-2.8324464E-5,1.6971715E-5,-6.293671E-5,7.963477E-5,3.1135438E-5,7.6492004E-5,-5.388819E-6,8.293315E-5,2.6530933E-4],"split_indices":[2,2,2,0,11,11,0,11,11,1,1,0,10,1,2,2,4,2,10,2,9,0,0,0,0,2,1,0,0,0,0,1,2,0,0,0,0,0,0,0,0,0,0,0,0],"split_type":[0,0,0,0,0,0,0,0,0,0,0,0,0,0,0,0,0,0,0,0,0,0,0,0,0,0,0,0,0,0,0,0,0,0,0,0,0,0,0,0,0,0,0,0,0],"sum_hessian":[1.49E2,8.4E1,6.5E1,2.6E1,5.8E1,5.2E1,1.3E1,4.5E1,1.3E1,3.3E1,1.9E1,1.6E1,2.9E1,9E0,4E0,2.8E1,5E0,5E0,1.4E1,1.3E1,1.6E1,2E0,7E0,2E0,2E0,1.4E1,1.4E1,1E0,4E0,3E0,2E0,5E0,9E0,1E1,3E0,9E0,7E0,1.3E1,1E0,4E0,1E1,4E0,1E0,4E0,5E0],"tree_param":{"num_deleted":"0","num_feature":"12","num_nodes":"45","size_leaf_vector":"1"}},{"base_weights":[1.141013E-4,-1.0369247E-3,2.2811482E-3,-1.1866441E-4,-2.5682923E-4,2.4677732E-3,-7.948253E-5,-5.98906E-4,9.832185E-4,1.9537285E-3,4.3285787E-3,-1.2269028E-3,-6.1662E-5,-6.176606E-4,2.2610854E-3,5.390134E-4,3.0374615E-3,3.7921865E-5,2.5631546E-4,7.1216027E-6,-1.2956195E-3,7.659122E-4,-4.3098727E-4,4.2504398E-5,-9.65497E-5,1.4861206E-4,4.253963E-6,-9.540835E-5,1.4232693E-3,1.6390925E-4,5.372401E-5,-7.325984E-5,-2.1300857E-5,-3.3431047E-6,5.9672147E-5,-3.9993534E-5,6.222569E-5,3.387927E-5,-3.7217236E-5,1.2038751E-4,3.469087E-5],"categories":[],"categories_nodes":[],"categories_segments":[],"categories_sizes":[],"default_left":[0,0,0,0,0,0,0,0,0,0,0,0,0,0,0,0,0,0,0,0,0,0,0,0,0,0,0,0,0,0,0,0,0,0,0,0,0,0,0,0,0],"id":15,"left_children":[1,3,5,-1,7,9,-1,11,13,15,17,19,21,23,25,27,29,-1,-1,-1,31,33,35,-1,-1,-1,-1,37,39,-1,-1,-1,-1,-1,-1,-1,-1,-1,-1,-1,-1],"loss_changes":[3.740201E-4,1.01554586E-4,4.1487045E-5,0E0,2.7312924E-5,3.9369974E-5,0E0,1.6793725E-5,3.0036528E-5,6.122289E-5,2.459214E-5,2.3487482E-6,8.888132E-6,1.5135017E-5,1.2126951E-5,1.0794623E-5,7.345967E-6,0E0,0E0,0E0,2.6200287E-6,3.2841263E-6,1.3356739E-5,0E0,0E0,0E0,0E0,6.5238423E-6,4.0745126E-6,0E0,0E0,0E0,0E0,0E0,0E0,0E0,0E0,0E0,0E0,0E0,0E0],"parents":[2147483647,0,0,1,1,2,2,4,4,5,5,7,7,8,8,9,9,10,10,11,11,12,12,13,13,14,14,15,15,16,16,20,20,21,21,22,22,27,27,28,28],"right_children":[2,4,6,-1,8,10,-1,12,14,16,18,20,22,24,26,28,30,-1,-1,-1,32,34,36,-1,-1,-1,-1,38,40,-1,-1,-1,-1,-1,-1,-1,-1,-1,-1,-1,-1],"split_conditions":[1.11845024E-1,8.038962E-2,7.247007E-2,-1.1866441E-4,3.403208E-2,1.7327765E-2,-7.948253E-5,9.975854E-2,8.612165E-2,1.239852E-1,4.8949257E-2,8.1131004E-2,6.415802E-2,8.118352E-2,1.1653882E-1,7.645845E-2,2.579719E-2,3.7921865E-5,2.5631546E-4,7.1216027E-6,3.1117741E-2,1.0202035E-1,2.3429498E-2,4.2504398E-5,-9.65497E-5,1.4861206E-4,4.253963E-6,8.1716076E-2,1.3056225E-1,1.6390925E-4,5.372401E-5,-7.325984E-5,-2.1300857E-5,-3.3431047E-6,5.9672147E-5,-3.9993534E-5,6.222569E-5,3.387927E-5,-3.7217236E-5,1.2038751E-4,3.469087E-5],"split_indices":[3,3,9,0,11,11,0,3,3,3,1,3,7,3,5,8,10,0,0,0,11,3,11,0,0,0,0,7,5,0,0,0,0,0,0,0,0,0,0,0,0],"split_type":[0,0,0,0,0,0,0,0,0,0,0,0,0,0,0,0,0,0,0,0,0,0,0,0,0,0,0,0,0,0,0,0,0,0,0,0,0,0,0,0,0],"sum_hessian":[1.48E2,9.7E1,5.1E1,3.5E1,6.2E1,4.9E1,2E0,4.9E1,1.3E1,4E1,9E0,2.2E1,2.7E1,6E0,7E0,1.8E1,2.2E1,2E0,7E0,1E0,2.1E1,8E0,1.9E1,3E0,3E0,5E0,2E0,1.1E1,7E0,1.9E1,3E0,1.7E1,4E0,3E0,5E0,1.6E1,3E0,5E0,6E0,2E0,5E0],"tree_param":{"num_deleted":"0","num_feature":"12","num_nodes":"41","size_leaf_vector":"1"}},{"base_weights":[-3.4027795E-5,-1.2604225E-3,2.0105934E-3,-2.2806346E-3,-6.297623E-4,2.951604E-4,2.6628072E-3,-1.3841005E-4,-1.750019E-3,-2.2255443E-4,-1.4996818E-3,-9.9526536E-5,9.7574526E-4,2.9883375E-3,3.7433524E-4,-4.8527563E-5,-9.7953765E-5,-1.1757696E-3,6.958673E-4,-1.619131E-3,1.3273838E-5,2.1860938E-4,-3.926128E-5,2.533589E-3,2.344116E-4,-2.6345417E-5,4.7834208E-5,-1.4118439E-3,-1.8517747E-4,1.0288842E-4,1.4166269E-4,-9.251712E-5,-4.4342647E-5,-3.8153943E-5,6.9109985E-4,1.7241526E-3,1.9495515E-4,6.943557E-6,-7.6224154E-5,-5.069601E-5,3.5264555E-5,-8.8117486E-5,2.6977328E-5,-1.6411324E-5,4.8030524E-5,7.656216E-6,1.279156E-4],"categories":[],"categories_nodes":[],"categories_segments":[],"categories_sizes":[],"default_left":[0,0,0,0,0,0,0,0,0,0,0,0,0,0,0,0,0,0,0,0,0,0,0,0,0,0,0,0,0,0,0,0,0,0,0,0,0,0,0,0,0,0,0,0,0,0,0],"id":16,"left_children":[1,3,5,7,9,11,13,-1,15,17,19,-1,21,23,25,-1,-1,27,29,31,-1,-1,33,35,-1,-1,-1,37,39,-1,41,-1,-1,-1,43,45,-1,-1,-1,-1,-1,-1,-1,-1,-1,-1,-1],"loss_changes":[3.6110854E-4,5.647038E-5,5.963081E-5,3.9517327E-6,1.985781E-5,2.6831958E-5,2.793505E-5,0E0,1.1947195E-6,3.5836318E-5,4.225083E-6,0E0,4.4988006E-5,1.4404795E-5,3.653114E-6,0E0,0E0,4.4156295E-6,1.55587E-5,1.2373057E-6,0E0,0E0,6.342495E-6,2.533097E-5,0E0,0E0,0E0,3.0064439E-6,4.4049552E-6,0E0,1.3072082E-5,0E0,0E0,0E0,1.9636132E-6,2.5818015E-5,0E0,0E0,0E0,0E0,0E0,0E0,0E0,0E0,0E0,0E0,0E0],"parents":[2147483647,0,0,1,1,2,2,3,3,4,4,5,5,6,6,8,8,9,9,10,10,12,12,13,13,14,14,17,17,18,18,19,19,22,22,23,23,27,27,28,28,30,30,34,34,35,35],"right_children":[2,4,6,8,10,12,14,-1,16,18,20,-1,22,24,26,-1,-1,28,30,32,-1,-1,34,36,-1,-1,-1,38,40,-1,42,-1,-1,-1,44,46,-1,-1,-1,-1,-1,-1,-1,-1,-1,-1,-1],"split_conditions":[1.102222E-1,8.038962E-2,5.2373864E-2,6.3960455E-2,1.2794466E-1,1.2877965E-1,1.7132066E-1,-1.3841005E-4,7.2478235E-2,1.0389656E-1,1.085616E-1,-9.9526536E-5,1.2923032E-1,8.303244E-2,1.821485E-1,-4.8527563E-5,-9.7953765E-5,1.0016528E-1,1.05997816E-1,1.2256974E-1,1.3273838E-5,2.1860938E-4,1.3298877E-1,5.8367852E-2,2.344116E-4,-2.6345417E-5,4.7834208E-5,8.1131004E-2,2.1313828E-1,1.0288842E-4,8.2925245E-2,-9.251712E-5,-4.4342647E-5,-3.8153943E-5,4.875137E-3,1.239852E-1,1.9495515E-4,6.943557E-6,-7.6224154E-5,-5.069601E-5,3.5264555E-5,-8.8117486E-5,2.6977328E-5,-1.6411324E-5,4.8030524E-5,7.656216E-6,1.279156E-4],"split_indices":[3,3,1,3,6,5,0,0,3,5,3,0,5,1,0,0,0,4,5,4,0,0,5,9,0,0,0,3,0,0,3,0,0,0,0,3,0,0,0,0,0,0,0,0,0,0,0],"split_type":[0,0,0,0,0,0,0,0,0,0,0,0,0,0,0,0,0,0,0,0,0,0,0,0,0,0,0,0,0,0,0,0,0,0,0,0,0,0,0,0,0,0,0,0,0,0,0],"sum_hessian":[1.42E2,8.9E1,5.3E1,3.3E1,5.6E1,1.5E1,3.8E1,1.5E1,1.8E1,3.9E1,1.7E1,3E0,1.2E1,3.3E1,5E0,5E0,1.3E1,1.9E1,2E1,1.6E1,1E0,2E0,1E1,2.8E1,5E0,2E0,3E0,1.5E1,4E0,5E0,1.5E1,1.1E1,5E0,5E0,5E0,1.9E1,9E0,1E0,1.4E1,2E0,2E0,2E0,1.3E1,1E0,4E0,7E0,1.2E1],"tree_param":{"num_deleted":"0","num_feature":"12","num_nodes":"47","size_leaf_vector":"1"}},{"base_weights":[4.242694E-6,-9.979455E-4,1.8572655E-3,-1.9865176E-3,-3.3874143E-4,2.1992768E-3,-1.1883697E-3,-1.3076086E-4,-1.529837E-3,-6.371531E-4,2.453156E-3,1.6658847E-3,4.0595788E-3,-9.083468E-5,4.8831233E-5,-8.6501466E-5,-1.915309E-5,-8.561787E-5,-3.8956193E-4,1.2162119E-5,2.8464901E-3,5.0104497E-4,2.7474302E-3,9.357727E-4,4.723558E-3,-6.7689916E-4,5.8622914E-4,1.6078717E-4,3.4236957E-5,-1.7636702E-4,1.3485893E-3,8.542207E-5,1.6488596E-4,1.0377972E-4,-3.3596763E-5,2.5109606E-4,6.587552E-5,2.6196674E-6,-6.314764E-5,7.4239644E-5,-3.9450297E-5,3.320009E-5,-3.3977583E-5,3.8267426E-5,1.1299774E-4],"categories":[],"categories_nodes":[],"categories_segments":[],"categories_sizes":[],"default_left":[0,0,0,0,0,0,0,0,0,0,0,0,0,0,0,0,0,0,0,0,0,0,0,0,0,0,0,0,0,0,0,0,0,0,0,0,0,0,0,0,0,0,0,0,0],"id":17,"left_children":[1,3,5,7,9,11,13,-1,15,17,19,21,23,-1,-1,-1,-1,-1,25,-1,27,29,31,33,35,37,39,-1,-1,41,43,-1,-1,-1,-1,-1,-1,-1,-1,-1,-1,-1,-1,-1,-1],"loss_changes":[2.8041512E-4,6.319081E-5,5.7820565E-5,7.1966206E-6,5.1551127E-5,4.0866187E-5,9.936133E-6,0E0,5.076683E-6,1.3974541E-5,4.523019E-6,4.7756672E-5,1.6321268E-5,0E0,0E0,0E0,0E0,0E0,1.3294349E-5,0E0,1.7892235E-6,1.172058E-5,5.8009173E-6,6.8921663E-6,1.5134574E-6,1.5452732E-5,1.4764609E-5,0E0,0E0,5.5255514E-6,3.0542578E-6,0E0,0E0,0E0,0E0,0E0,0E0,0E0,0E0,0E0,0E0,0E0,0E0,0E0,0E0],"parents":[2147483647,0,0,1,1,2,2,3,3,4,4,5,5,6,6,8,8,9,9,10,10,11,11,12,12,18,18,20,20,21,21,22,22,23,23,24,24,25,25,26,26,29,29,30,30],"right_children":[2,4,6,8,10,12,14,-1,16,18,20,22,24,-1,-1,-1,-1,-1,26,-1,28,30,32,34,36,38,40,-1,-1,42,44,-1,-1,-1,-1,-1,-1,-1,-1,-1,-1,-1,-1,-1,-1],"split_conditions":[1.11845024E-1,8.709495E-2,3.9028164E-2,4.9727667E-2,6.3432164E-2,1.7327765E-2,1.3046955E-1,-1.3076086E-4,7.130139E-2,7.650022E-2,7.5429594E-3,1.239852E-1,1.0064356E-1,-9.083468E-5,4.8831233E-5,-8.6501466E-5,-1.915309E-5,-8.561787E-5,4.241132E-2,1.2162119E-5,7.960118E-2,7.645845E-2,1.14153065E-1,3.358169E-2,8.760101E-2,4.472197E-2,9.898168E-2,1.6078717E-4,3.4236957E-5,1.5041457E-2,1.044793E-1,8.542207E-5,1.6488596E-4,1.0377972E-4,-3.3596763E-5,2.5109606E-4,6.587552E-5,2.6196674E-6,-6.314764E-5,7.4239644E-5,-3.9450297E-5,3.320009E-5,-3.3977583E-5,3.8267426E-5,1.1299774E-4],"split_indices":[3,3,10,2,10,11,5,0,10,2,0,3,2,0,0,0,0,0,10,0,2,8,2,0,8,8,8,0,0,10,2,0,0,0,0,0,0,0,0,0,0,0,0,0,0],"split_type":[0,0,0,0,0,0,0,0,0,0,0,0,0,0,0,0,0,0,0,0,0,0,0,0,0,0,0,0,0,0,0,0,0,0,0,0,0,0,0,0,0,0,0,0,0],"sum_hessian":[1.49E2,9.7E1,5.2E1,3.8E1,5.9E1,4.7E1,5E0,1.4E1,2.4E1,5.4E1,5E0,3.8E1,9E0,4E0,1E0,2E1,4E0,9E0,4.5E1,1E0,4E0,1.9E1,1.9E1,2E0,7E0,3.5E1,1E1,3E0,1E0,1.1E1,8E0,8E0,1.1E1,1E0,1E0,6E0,1E0,1.6E1,1.9E1,6E0,4E0,4E0,7E0,6E0,2E0],"tree_param":{"num_deleted":"0","num_feature":"12","num_nodes":"45","size_leaf_vector":"1"}},{"base_weights":[-5.27242E-5,-1.2292615E-3,1.7332758E-3,-2.0054975E-3,-4.769265E-4,1.152709E-3,3.0656601E-3,-1.2514442E-4,-1.5840154E-3,-7.45744E-4,2.5320933E-3,1.3575861E-3,-1.1330205E-3,2.117043E-3,1.9341121E-4,-8.8357985E-5,-6.746617E-6,-9.768283E-4,8.420807E-4,1.1858065E-5,1.6090085E-4,6.100345E-4,2.1958388E-3,-6.0361112E-6,-7.151062E-5,1.6593757E-4,5.6395897E-5,2.3677543E-5,-1.0705591E-3,5.7256777E-5,7.865702E-6,8.539836E-5,1.1269072E-3,5.810624E-4,3.7460527E-3,-6.0052367E-5,-1.0661269E-6,3.8322014E-5,-2.5527579E-5,6.3194944E-5,-6.07525E-6,-8.902027E-6,1.2058247E-4,4.561892E-5,2.2126672E-4],"categories":[],"categories_nodes":[],"categories_segments":[],"categories_sizes":[],"default_left":[0,0,0,0,0,0,0,0,0,0,0,0,0,0,0,0,0,0,0,0,0,0,0,0,0,0,0,0,0,0,0,0,0,0,0,0,0,0,0,0,0,0,0,0,0],"id":18,"left_children":[1,3,5,7,9,11,13,-1,15,17,19,21,23,25,-1,-1,-1,27,29,-1,-1,31,33,-1,-1,-1,-1,-1,35,-1,-1,37,39,41,43,-1,-1,-1,-1,-1,-1,-1,-1,-1,-1],"loss_changes":[3.0681852E-4,5.0434595E-5,4.1331412E-5,5.049951E-6,3.9096645E-5,2.1206506E-5,4.753354E-6,0E0,6.6617285E-6,1.6600186E-5,5.533402E-6,2.3099317E-5,1.030729E-6,8.143117E-6,0E0,0E0,0E0,5.6728786E-6,1.0649846E-6,0E0,0E0,5.869505E-6,4.2881788E-5,0E0,0E0,0E0,0E0,0E0,4.9032606E-6,0E0,0E0,5.2617092E-6,2.0348152E-6,1.4325411E-5,1.3286175E-5,0E0,0E0,0E0,0E0,0E0,0E0,0E0,0E0,0E0,0E0],"parents":[2147483647,0,0,1,1,2,2,3,3,4,4,5,5,6,6,8,8,9,9,10,10,11,11,12,12,13,13,17,17,18,18,21,21,22,22,28,28,31,31,32,32,33,33,34,34],"right_children":[2,4,6,8,10,12,14,-1,16,18,20,22,24,26,-1,-1,-1,28,30,-1,-1,32,34,-1,-1,-1,-1,-1,36,-1,-1,38,40,42,44,-1,-1,-1,-1,-1,-1,-1,-1,-1,-1],"split_conditions":[1.102222E-1,8.709495E-2,1.14778385E-1,5.31127E-2,5.825384E-2,4.4730008E-2,2.0129398E-2,-1.2514442E-4,1.0735378E-1,1.05368264E-1,7.5429594E-3,2.9224068E-2,8.80407E-3,1.1108975E-1,1.9341121E-4,-8.8357985E-5,-6.746617E-6,9.195093E-3,1.0755779E-1,1.1858065E-5,1.6090085E-4,1.08097896E-1,5.0042327E-2,-6.0361112E-6,-7.151062E-5,1.6593757E-4,5.6395897E-5,2.3677543E-5,1.0771651E-1,5.7256777E-5,7.865702E-6,4.352263E-2,1.14153065E-1,4.013626E-2,1.0064356E-1,-6.0052367E-5,-1.0661269E-6,3.8322014E-5,-2.5527579E-5,6.3194944E-5,-6.07525E-6,-8.902027E-6,1.2058247E-4,4.561892E-5,2.2126672E-4],"split_indices":[3,3,2,2,10,10,10,0,9,2,0,10,0,5,0,0,0,10,1,0,0,2,1,0,0,0,0,0,3,0,0,0,2,10,2,0,0,0,0,0,0,0,0,0,0],"split_type":[0,0,0,0,0,0,0,0,0,0,0,0,0,0,0,0,0,0,0,0,0,0,0,0,0,0,0,0,0,0,0,0,0,0,0,0,0,0,0,0,0,0,0,0,0],"sum_hessian":[1.44E2,8.7E1,5.7E1,4.2E1,4.5E1,4.1E1,1.6E1,1.7E1,2.5E1,4.2E1,3E0,3.8E1,3E0,9E0,7E0,2.2E1,3E0,3.7E1,5E0,1E0,2E0,2.1E1,1.7E1,1E0,2E0,3E0,6E0,2E0,3.5E1,3E0,2E0,1.1E1,1E1,9E0,8E0,3.1E1,4E0,5E0,6E0,9E0,1E0,7E0,2E0,2E0,6E0],"tree_param":{"num_deleted":"0","num_feature":"12","num_nodes":"45","size_leaf_vector":"1"}},{"base_weights":[9.32408E-6,-1.0067243E-3,1.4351933E-3,-1.0991288E-4,-3.5824024E-4,2.0995734E-3,-1.2093989E-4,-1.0059066E-3,8.5368403E-4,1.461478E-3,1.6562137E-4,4.073467E-4,-1.5759544E-3,-1.31523E-3,3.3831406E-5,-5.4709988E-5,1.4460663E-3,4.8670595E-4,3.1673969E-3,-3.887784E-5,6.6962704E-4,-4.07286E-6,-9.6460724E-5,-8.851113E-4,-8.25702E-5,1.1180976E-4,-4.5743593E-5,2.0658146E-3,8.60707E-6,1.1201149E-3,-5.242458E-4,-2.1777914E-5,2.0612903E-4,3.6613365E-6,9.5867383E-4,-6.352259E-5,-7.9791025E-6,5.1680254E-6,1.13619026E-4,1.6199052E-5,6.747475E-5,-7.5255484E-6,-5.484834E-5,6.407825E-5,1.5769567E-5],"categories":[],"categories_nodes":[],"categories_segments":[],"categories_sizes":[],"default_left":[0,0,0,0,0,0,0,0,0,0,0,0,0,0,0,0,0,0,0,0,0,0,0,0,0,0,0,0,0,0,0,0,0,0,0,0,0,0,0,0,0,0,0,0,0],"id":19,"left_children":[1,3,5,-1,7,9,11,13,15,17,-1,19,21,23,25,-1,27,29,31,-1,33,-1,-1,35,-1,-1,-1,37,-1,39,41,-1,-1,-1,43,-1,-1,-1,-1,-1,-1,-1,-1,-1,-1],"loss_changes":[1.9847513E-4,6.102772E-5,5.9184174E-5,0E0,4.2459622E-5,2.6115624E-5,1.4477923E-5,1.1301036E-5,2.3506233E-5,4.50191E-5,0E0,4.871549E-6,2.4825822E-6,2.4423825E-6,2.085034E-5,0E0,1.1487078E-5,1.2753788E-5,3.621047E-5,0E0,1.9984514E-6,0E0,0E0,3.7113196E-6,0E0,0E0,0E0,3.818888E-6,0E0,1.7541979E-6,1.5472606E-6,0E0,0E0,0E0,1.2574874E-6,0E0,0E0,0E0,0E0,0E0,0E0,0E0,0E0,0E0,0E0],"parents":[2147483647,0,0,1,1,2,2,4,4,5,5,6,6,7,7,8,8,9,9,11,11,12,12,13,13,14,14,16,16,17,17,18,18,20,20,23,23,27,27,29,29,30,30,34,34],"right_children":[2,4,6,-1,8,10,12,14,16,18,-1,20,22,24,26,-1,28,30,32,-1,34,-1,-1,36,-1,-1,-1,38,-1,40,42,-1,-1,-1,44,-1,-1,-1,-1,-1,-1,-1,-1,-1,-1],"split_conditions":[9.840608E-2,6.211913E-2,1.7132066E-1,-1.0991288E-4,2.9103432E-2,1.1544769E-1,5.330137E-3,9.0250865E-2,1.0389656E-1,1.6880147E-2,1.6562137E-4,1.0208003E-1,7.831254E-2,3.323966E-2,3.954927E-2,-5.4709988E-5,1.1653882E-1,7.263952E-2,4.8949257E-2,-3.887784E-5,1.0284414E-1,-4.07286E-6,-9.6460724E-5,8.299337E-2,-8.25702E-5,1.1180976E-4,-4.5743593E-5,1.3427564E-2,8.60707E-6,5.2373864E-2,8.107493E-2,-2.1777914E-5,2.0612903E-4,3.6613365E-6,1.0755779E-1,-6.352259E-5,-7.9791025E-6,5.1680254E-6,1.13619026E-4,1.6199052E-5,6.747475E-5,-7.5255484E-6,-5.484834E-5,6.407825E-5,1.5769567E-5],"split_indices":[2,2,0,0,11,2,11,2,5,11,0,2,1,0,1,0,5,1,1,0,1,0,0,2,0,0,0,0,0,1,1,0,0,0,1,0,0,0,0,0,0,0,0,0,0],"split_type":[0,0,0,0,0,0,0,0,0,0,0,0,0,0,0,0,0,0,0,0,0,0,0,0,0,0,0,0,0,0,0,0,0,0,0,0,0,0,0,0,0,0,0,0,0],"sum_hessian":[1.35E2,7.9E1,5.6E1,2.7E1,5.2E1,3.9E1,1.7E1,3.4E1,1.8E1,2.7E1,1.2E1,1.3E1,4E0,2.6E1,8E0,4E0,1.4E1,1.8E1,9E0,2E0,1.1E1,1E0,3E0,1.3E1,1.3E1,2E0,6E0,9E0,5E0,1.1E1,7E0,2E0,7E0,4E0,7E0,8E0,5E0,1E0,8E0,3E0,8E0,5E0,2E0,4E0,3E0],"tree_param":{"num_deleted":"0","num_feature":"12","num_nodes":"45","size_leaf_vector":"1"}},{"base_weights":[-8.347813E-5,-1.0464784E-3,1.767152E-3,-2.0863104E-3,-6.3045067E-4,1.1617998E-3,1.7003542E-4,-1.179899E-4,-1.4739835E-3,-8.969981E-4,7.326117E-4,1.4651044E-3,-1.1330319E-3,-9.895886E-5,-2.359579E-5,-1.0950859E-3,6.693809E-5,1.4991579E-3,-6.403846E-4,4.295653E-4,2.475375E-3,-9.338467E-5,4.5140343E-5,-1.1904958E-3,-2.1289817E-4,6.0578895E-4,-5.1374907E-5,1.0923506E-5,9.4482115E-5,-6.697713E-5,1.3611745E-5,-4.773281E-5,7.700533E-4,8.6545426E-4,3.0740541E-3,-7.120391E-5,-2.9412127E-5,-2.3718472E-5,2.7361455E-5,1.2409214E-5,5.5953435E-5,2.0694553E-5,6.176574E-5,6.754747E-5,-3.905054E-5,1.6819192E-4,-2.839323E-6],"categories":[],"categories_nodes":[],"categories_segments":[],"categories_sizes":[],"default_left":[0,0,0,0,0,0,0,0,0,0,0,0,0,0,0,0,0,0,0,0,0,0,0,0,0,0,0,0,0,0,0,0,0,0,0,0,0,0,0,0,0,0,0,0,0,0,0],"id":20,"left_children":[1,3,5,7,9,11,-1,-1,13,15,17,19,21,-1,-1,23,25,27,29,31,33,-1,-1,35,37,39,-1,-1,-1,-1,-1,-1,41,43,45,-1,-1,-1,-1,-1,-1,-1,-1,-1,-1,-1,-1],"loss_changes":[2.6026208E-4,4.021419E-5,4.549291E-5,1.0432195E-6,2.6089601E-5,2.8109269E-5,0E0,0E0,4.634614E-6,1.1338998E-5,1.3589619E-5,3.4506607E-5,9.164426E-6,0E0,0E0,3.8708495E-6,7.109564E-6,3.5878766E-6,3.5549963E-6,9.218732E-6,1.3724595E-5,0E0,0E0,5.352027E-6,1.4520973E-6,1.1906745E-6,0E0,0E0,0E0,0E0,0E0,0E0,1.974343E-6,5.8512123E-6,1.1078235E-5,0E0,0E0,0E0,0E0,0E0,0E0,0E0,0E0,0E0,0E0,0E0,0E0],"parents":[2147483647,0,0,1,1,2,2,3,3,4,4,5,5,8,8,9,9,10,10,11,11,12,12,15,15,16,16,17,17,18,18,19,19,20,20,23,23,24,24,25,25,32,32,33,33,34,34],"right_children":[2,4,6,8,10,12,-1,-1,14,16,18,20,22,-1,-1,24,26,28,30,32,34,-1,-1,36,38,40,-1,-1,-1,-1,-1,-1,42,44,46,-1,-1,-1,-1,-1,-1,-1,-1,-1,-1,-1,-1],"split_conditions":[1.11845024E-1,6.211913E-2,1.1544769E-1,1.891806E-2,3.403208E-2,3.7786976E-2,1.7003542E-4,-1.179899E-4,1.2052175E-1,1.05368264E-1,4.4634778E-2,1.1868848E-2,1.2814017E-1,-9.895886E-5,-2.359579E-5,1.0771651E-1,4.472197E-2,2.7870594E-2,6.9847934E-2,1.1624561E-1,1.0106765E-1,-9.338467E-5,4.5140343E-5,2.5044447E-2,5.4007955E-2,1.0951336E-1,-5.1374907E-5,1.0923506E-5,9.4482115E-5,-6.697713E-5,1.3611745E-5,-4.773281E-5,1.239852E-1,1.8927526E-2,7.2292775E-2,-7.120391E-5,-2.9412127E-5,-2.3718472E-5,2.7361455E-5,1.2409214E-5,5.5953435E-5,2.0694553E-5,6.176574E-5,6.754747E-5,-3.905054E-5,1.6819192E-4,-2.839323E-6],"split_indices":[3,2,2,1,11,10,0,0,8,2,11,11,4,0,0,3,8,1,2,3,2,0,0,11,1,2,0,0,0,0,0,0,3,11,1,0,0,0,0,0,0,0,0,0,0,0,0],"split_type":[0,0,0,0,0,0,0,0,0,0,0,0,0,0,0,0,0,0,0,0,0,0,0,0,0,0,0,0,0,0,0,0,0,0,0,0,0,0,0,0,0,0,0,0,0,0,0],"sum_hessian":[1.44E2,9.5E1,4.9E1,2.6E1,6.9E1,3.7E1,1.2E1,1.6E1,1E1,5.8E1,1.1E1,3.3E1,4E0,6E0,4E0,4.8E1,1E1,7E0,4E0,1.7E1,1.6E1,3E0,1E0,4.3E1,5E0,7E0,3E0,2E0,5E0,2E0,2E0,3E0,1.4E1,5E0,1.1E1,3E1,1.3E1,4E0,1E0,5E0,2E0,9E0,5E0,4E0,1E0,1E1,1E0],"tree_param":{"num_deleted":"0","num_feature":"12","num_nodes":"47","size_leaf_vector":"1"}},{"base_weights":[-8.062907E-5,-1.1028266E-3,9.573231E-4,-9.7873875E-5,-6.5252563E-4,4.7301472E-4,2.7015863E-3,-1.108478E-3,5.3396437E-4,1.2027922E-3,-3.553681E-4,3.1078118E-5,1.402881E-4,-8.123128E-5,-7.296351E-4,1.5835845E-3,-1.1294599E-3,1.5095953E-3,-3.165715E-5,2.3693727E-4,-9.2229E-4,-6.748198E-5,-3.503237E-4,1.1491835E-4,5.7757366E-6,-7.823868E-5,2.6177708E-5,8.7490364E-4,2.0769867E-3,-3.8279824E-5,2.8997762E-5,-2.150118E-5,-8.611824E-5,-2.851059E-5,3.5964964E-5,-6.850753E-5,8.058751E-5,6.0078888E-5,1.4490173E-4],"categories":[],"categories_nodes":[],"categories_segments":[],"categories_sizes":[],"default_left":[0,0,0,0,0,0,0,0,0,0,0,0,0,0,0,0,0,0,0,0,0,0,0,0,0,0,0,0,0,0,0,0,0,0,0,0,0,0,0],"id":21,"left_children":[1,3,5,-1,7,9,11,13,15,17,19,-1,-1,-1,21,23,25,27,-1,29,31,-1,33,-1,-1,-1,-1,35,37,-1,-1,-1,-1,-1,-1,-1,-1,-1,-1],"loss_changes":[1.4959466E-4,2.6047048E-5,5.7855395E-5,0E0,2.655907E-5,3.4281395E-5,1.5063633E-6,5.658476E-6,2.6232086E-5,1.7853909E-5,9.284879E-6,0E0,0E0,0E0,4.7010344E-6,9.178659E-6,5.1367215E-6,7.545921E-6,0E0,5.258431E-6,4.773241E-6,0E0,3.938113E-6,0E0,0E0,0E0,0E0,2.5367986E-5,5.8615697E-6,0E0,0E0,0E0,0E0,0E0,0E0,0E0,0E0,0E0,0E0],"parents":[2147483647,0,0,1,1,2,2,4,4,5,5,6,6,7,7,8,8,9,9,10,10,14,14,15,15,16,16,17,17,19,19,20,20,22,22,27,27,28,28],"right_children":[2,4,6,-1,8,10,12,14,16,18,20,-1,-1,-1,22,24,26,28,-1,30,32,-1,34,-1,-1,-1,-1,36,38,-1,-1,-1,-1,-1,-1,-1,-1,-1,-1],"split_conditions":[9.06822E-2,6.211913E-2,1.1544769E-1,-9.7873875E-5,5.4562658E-2,7.263952E-2,1.2490274E-2,3.450076E-2,4.3041926E-2,2.4243735E-2,5.2805208E-3,3.1078118E-5,1.402881E-4,-8.123128E-5,7.650022E-2,1.09795876E-1,7.509529E-2,5.4007955E-2,-3.165715E-5,1.0187239E-1,1.0361771E-1,-6.748198E-5,8.323286E-2,1.1491835E-4,5.7757366E-6,-7.823868E-5,2.6177708E-5,1.2877965E-1,1.02771215E-1,-3.8279824E-5,2.8997762E-5,-2.150118E-5,-8.611824E-5,-2.851059E-5,3.5964964E-5,-6.850753E-5,8.058751E-5,6.0078888E-5,1.4490173E-4],"split_indices":[2,2,2,0,10,1,10,10,11,11,11,0,0,0,2,5,2,1,0,2,1,0,9,0,0,0,0,5,7,0,0,0,0,0,0,0,0,0,0],"split_type":[0,0,0,0,0,0,0,0,0,0,0,0,0,0,0,0,0,0,0,0,0,0,0,0,0,0,0,0,0,0,0,0,0,0,0,0,0,0,0],"sum_hessian":[1.39E2,7E1,6.9E1,2.3E1,4.7E1,5.5E1,1.4E1,3.4E1,1.3E1,2.9E1,2.6E1,1E0,1.3E1,1.3E1,2.1E1,8E0,5E0,2.5E1,4E0,1.3E1,1.3E1,7E0,1.4E1,5E0,3E0,4E0,1E0,1.3E1,1.2E1,3E0,1E1,9E0,4E0,1.2E1,2E0,3E0,1E1,7E0,5E0],"tree_param":{"num_deleted":"0","num_feature":"12","num_nodes":"39","size_leaf_vector":"1"}},{"base_weights":[-1.5262204E-4,-1.0705014E-3,1.2624351E-3,-8.677592E-5,-6.367808E-4,7.037656E-4,1.6403849E-4,-3.5389804E-4,-1.3389152E-3,1.2980732E-3,1.5637795E-4,-7.8570214E-4,4.1161597E-4,-8.6108316E-4,-1.0133981E-4,-3.1560197E-4,2.647044E-3,6.505742E-4,-8.764217E-5,-9.7494805E-4,4.320011E-5,-1.0763118E-3,9.15261E-4,4.795974E-6,-4.8903727E-5,-6.6531694E-4,3.6108602E-5,6.9355206E-6,3.1890392E-3,7.536632E-6,1.0003924E-3,-5.3466367E-5,2.5175454E-5,4.621351E-6,-7.483502E-5,-4.8385486E-5,6.0016453E-5,-4.7336107E-5,5.9632816E-6,1.8521213E-6,1.7892043E-4,7.1439856E-5,1.0027368E-5],"categories":[],"categories_nodes":[],"categories_segments":[],"categories_sizes":[],"default_left":[0,0,0,0,0,0,0,0,0,0,0,0,0,0,0,0,0,0,0,0,0,0,0,0,0,0,0,0,0,0,0,0,0,0,0,0,0,0,0,0,0,0,0],"id":22,"left_children":[1,3,5,-1,7,9,-1,11,13,15,17,19,21,23,-1,25,27,29,-1,31,-1,33,35,-1,-1,37,-1,-1,39,-1,41,-1,-1,-1,-1,-1,-1,-1,-1,-1,-1,-1,-1],"loss_changes":[1.7150101E-4,2.1969383E-5,5.6325385E-5,0E0,9.457244E-6,1.3460307E-5,0E0,1.2553835E-5,2.8564427E-6,4.437143E-5,2.2841547E-5,8.335154E-6,1.147653E-5,1.213426E-6,0E0,4.1097246E-6,1.4512196E-5,3.1714271E-6,0E0,3.6082038E-6,0E0,2.1036335E-6,7.0660917E-6,0E0,0E0,1.8791964E-6,0E0,0E0,1.0913063E-5,0E0,3.4826899E-6,0E0,0E0,0E0,0E0,0E0,0E0,0E0,0E0,0E0,0E0,0E0,0E0],"parents":[2147483647,0,0,1,1,2,2,4,4,5,5,7,7,8,8,9,9,10,10,11,11,12,12,13,13,15,15,16,16,17,17,19,19,21,21,22,22,25,25,28,28,30,30],"right_children":[2,4,6,-1,8,10,-1,12,14,16,18,20,22,24,-1,26,28,30,-1,32,-1,34,36,-1,-1,38,-1,-1,40,-1,42,-1,-1,-1,-1,-1,-1,-1,-1,-1,-1,-1,-1],"split_conditions":[1.085616E-1,8.038962E-2,1.1544769E-1,-8.677592E-5,1.2846878E-1,1.1523775E-1,1.6403849E-4,8.323286E-2,1.7170066E-2,1.7046785E-2,1.8721027E-2,1.05368264E-1,6.624879E-2,1.2568463E-1,-1.0133981E-4,1.7537566E-1,1.318949E-2,1.2202487E-1,-8.764217E-5,1.03873484E-1,4.320011E-5,1.3427564E-2,1.0389656E-1,4.795974E-6,-4.8903727E-5,1.5620977E-2,3.6108602E-5,6.9355206E-6,8.923236E-2,7.536632E-6,4.9476568E-2,-5.3466367E-5,2.5175454E-5,4.621351E-6,-7.483502E-5,-4.8385486E-5,6.0016453E-5,-4.7336107E-5,5.9632816E-6,1.8521213E-6,1.7892043E-4,7.1439856E-5,1.0027368E-5],"split_indices":[3,3,2,0,6,3,0,9,0,11,11,2,2,7,0,0,0,3,0,3,0,0,5,0,0,11,0,0,2,0,0,0,0,0,0,0,0,0,0,0,0,0,0],"split_type":[0,0,0,0,0,0,0,0,0,0,0,0,0,0,0,0,0,0,0,0,0,0,0,0,0,0,0,0,0,0,0,0,0,0,0,0,0,0,0,0,0,0,0],"sum_hessian":[1.3E2,7.9E1,5.1E1,3E1,4.9E1,4.1E1,1E1,3.6E1,1.3E1,1.9E1,2.2E1,2.3E1,1.3E1,9E0,4E0,9E0,1E1,1.8E1,4E0,2.1E1,2E0,3E0,1E1,1E0,8E0,7E0,2E0,2E0,8E0,8E0,1E1,2E1,1E0,1E0,2E0,1E0,9E0,5E0,2E0,1E0,7E0,6E0,4E0],"tree_param":{"num_deleted":"0","num_feature":"12","num_nodes":"43","size_leaf_vector":"1"}},{"base_weights":[-1.8522306E-4,-1.2002679E-3,8.0346654E-4,-9.5652314E-5,-7.934468E-4,1.3856665E-3,-2.9992018E-4,-1.4714275E-3,-4.397966E-4,1.5734576E-3,-4.8975227E-5,1.8547002E-4,-1.1834438E-3,-7.778708E-5,-7.27576E-6,-5.936516E-4,3.735689E-5,1.0636644E-3,2.9597955E-3,7.181194E-4,-9.107404E-4,-2.998212E-5,-8.8164255E-5,-7.852333E-4,2.2233526E-5,4.6300257E-4,2.0762393E-3,6.7298254E-4,2.0852026E-4,1.351776E-6,8.5363263E-4,-6.16942E-5,1.762443E-5,-7.256237E-6,-5.798117E-5,-2.4929735E-5,4.724938E-5,6.89294E-5,1.3886168E-4,1.1049797E-4,-5.4416083E-5,5.1755436E-5,4.257619E-6],"categories":[],"categories_nodes":[],"categories_segments":[],"categories_sizes":[],"default_left":[0,0,0,0,0,0,0,0,0,0,0,0,0,0,0,0,0,0,0,0,0,0,0,0,0,0,0,0,0,0,0,0,0,0,0,0,0,0,0,0,0,0,0],"id":23,"left_children":[1,3,5,-1,7,9,11,13,15,17,-1,19,21,-1,-1,23,-1,25,27,29,31,-1,-1,33,-1,35,37,39,-1,-1,41,-1,-1,-1,-1,-1,-1,-1,-1,-1,-1,-1,-1],"loss_changes":[1.3845268E-4,1.8200284E-5,4.538301E-5,0E0,1.0142432E-5,2.1972483E-5,1.0940837E-5,1.4505131E-6,6.10463E-6,2.7241833E-5,0E0,1.0580248E-5,1.9892686E-6,0E0,0E0,5.919028E-6,0E0,1.9109793E-5,2.7646216E-5,1.1007342E-6,2.8841564E-6,0E0,0E0,5.583318E-6,0E0,1.0667627E-5,2.0399311E-6,1.5940564E-5,0E0,0E0,1.3064646E-6,0E0,0E0,0E0,0E0,0E0,0E0,0E0,0E0,0E0,0E0,0E0,0E0],"parents":[2147483647,0,0,1,1,2,2,4,4,5,5,6,6,7,7,8,8,9,9,11,11,12,12,15,15,17,17,18,18,19,19,20,20,23,23,25,25,26,26,27,27,30,30],"right_children":[2,4,6,-1,8,10,12,14,16,18,-1,20,22,-1,-1,24,-1,26,28,30,32,-1,-1,34,-1,36,38,40,-1,-1,42,-1,-1,-1,-1,-1,-1,-1,-1,-1,-1,-1,-1],"split_conditions":[9.06822E-2,6.1657235E-2,1.5490113E-1,-9.5652314E-5,9.382226E-2,4.4730008E-2,5.330137E-3,9.044575E-2,1.01468444E-1,1.7327765E-2,-4.8975227E-5,1.1095618E-1,1.03674755E-1,-7.778708E-5,-7.27576E-6,8.414489E-2,3.735689E-5,1.1351239E-1,5.0042327E-2,1.8528268E-1,1.1602994E-1,-2.998212E-5,-8.8164255E-5,1.1657448E-1,2.2233526E-5,7.645845E-2,2.0108685E-2,1.9704323E-2,2.0852026E-4,1.351776E-6,1.0755779E-1,-6.16942E-5,1.762443E-5,-7.256237E-6,-5.798117E-5,-2.4929735E-5,4.724938E-5,6.89294E-5,1.3886168E-4,1.1049797E-4,-5.4416083E-5,5.1755436E-5,4.257619E-6],"split_indices":[2,2,0,0,8,10,11,2,9,11,0,1,1,0,0,2,0,2,1,0,1,0,0,7,0,8,10,0,0,0,1,0,0,0,0,0,0,0,0,0,0,0,0],"split_type":[0,0,0,0,0,0,0,0,0,0,0,0,0,0,0,0,0,0,0,0,0,0,0,0,0,0,0,0,0,0,0,0,0,0,0,0,0,0,0,0,0,0,0],"sum_hessian":[1.36E2,6.7E1,6.9E1,2.3E1,4.4E1,4.5E1,2.4E1,1.4E1,3E1,4.2E1,3E0,1.6E1,8E0,1.3E1,1E0,2.7E1,3E0,3.2E1,1E1,1.1E1,5E0,5E0,3E0,2.3E1,4E0,2.1E1,1.1E1,4E0,6E0,2E0,9E0,4E0,1E0,9E0,1.4E1,7E0,1.4E1,7E0,4E0,2E0,2E0,7E0,2E0],"tree_param":{"num_deleted":"0","num_feature":"12","num_nodes":"43","size_leaf_vector":"1"}},{"base_weights":[1.1404316E-5,-7.107813E-4,1.4555521E-3,-1.5242436E-3,-3.3413942E-4,-2.1196707E-4,1.9740697E-3,-1.0357031E-4,-5.906893E-5,-5.2101277E-5,-9.204755E-4,-7.470656E-5,3.8807593E-5,1.516472E-3,1.5747282E-4,-5.556401E-4,1.0211751E-3,-9.6880965E-4,3.5719015E-6,3.3302707E-4,2.1840967E-3,-1.1368747E-3,-2.2822901E-4,-4.699444E-5,1.2145719E-3,-6.063715E-5,-2.774077E-5,-1.2689088E-5,6.581542E-4,1.3533059E-4,1.1273121E-3,1.7935095E-5,-6.5272274E-5,1.4244731E-5,-3.2242722E-5,1.0368397E-4,2.0571242E-5,1.4739339E-5,5.827521E-5,2.186397E-5,8.540125E-5],"categories":[],"categories_nodes":[],"categories_segments":[],"categories_sizes":[],"default_left":[0,0,0,0,0,0,0,0,0,0,0,0,0,0,0,0,0,0,0,0,0,0,0,0,0,0,0,0,0,0,0,0,0,0,0,0,0,0,0,0,0],"id":24,"left_children":[1,3,5,7,9,11,13,-1,-1,15,17,-1,-1,19,-1,21,23,25,-1,27,29,31,33,-1,35,-1,-1,-1,37,-1,39,-1,-1,-1,-1,-1,-1,-1,-1,-1,-1],"loss_changes":[1.5956187E-4,3.0741863E-5,4.4514993E-5,3.5561825E-6,1.1693251E-5,1.7629769E-5,1.6200254E-5,0E0,0E0,2.7048784E-5,1.1719058E-6,0E0,0E0,2.2975546E-5,0E0,6.210822E-6,7.209779E-6,1.5488658E-6,0E0,2.4564774E-6,7.440329E-6,3.4935929E-6,5.100663E-6,0E0,9.49668E-6,0E0,0E0,0E0,1.1312607E-6,0E0,2.4588026E-6,0E0,0E0,0E0,0E0,0E0,0E0,0E0,0E0,0E0,0E0],"parents":[2147483647,0,0,1,1,2,2,3,3,4,4,5,5,6,6,9,9,10,10,13,13,15,15,16,16,17,17,19,19,20,20,21,21,22,22,24,24,28,28,30,30],"right_children":[2,4,6,8,10,12,14,-1,-1,16,18,-1,-1,20,-1,22,24,26,-1,28,30,32,34,-1,36,-1,-1,-1,38,-1,40,-1,-1,-1,-1,-1,-1,-1,-1,-1,-1],"split_conditions":[1.11845024E-1,8.038962E-2,5.2373864E-2,1.1432342E-2,1.1804052E-1,1.2834802E-1,2.9224068E-2,-1.0357031E-4,-5.906893E-5,9.5581904E-2,1.2507747E-1,-7.470656E-5,3.8807593E-5,1.239852E-1,1.5747282E-4,9.845166E-2,1.0389656E-1,1.3184191E-1,3.5719015E-6,1.16535045E-1,1.2602468E-1,8.1131004E-2,8.4006146E-2,-4.699444E-5,9.0608895E-2,-6.063715E-5,-2.774077E-5,-1.2689088E-5,2.6187232E-2,1.3533059E-4,2.0108685E-2,1.7935095E-5,-6.5272274E-5,1.4244731E-5,-3.2242722E-5,1.0368397E-4,2.0571242E-5,1.4739339E-5,5.827521E-5,2.186397E-5,8.540125E-5],"split_indices":[3,3,1,1,7,6,10,0,0,8,8,0,0,3,0,3,5,5,0,3,4,3,6,0,3,0,0,0,10,0,10,0,0,0,0,0,0,0,0,0,0],"split_type":[0,0,0,0,0,0,0,0,0,0,0,0,0,0,0,0,0,0,0,0,0,0,0,0,0,0,0,0,0,0,0,0,0,0,0,0,0,0,0,0,0],"sum_hessian":[1.51E2,1.01E2,5E1,3.1E1,7E1,1.2E1,3.8E1,1E1,2.1E1,4.8E1,2.2E1,5E0,7E0,2.9E1,9E0,3.3E1,1.5E1,2.1E1,1E0,1.1E1,1.8E1,1.1E1,2.2E1,1E0,1.4E1,1.2E1,9E0,4E0,7E0,1.1E1,7E0,1E0,1E1,1E1,1.2E1,6E0,8E0,5E0,2E0,4E0,3E0],"tree_param":{"num_deleted":"0","num_feature":"12","num_nodes":"41","size_leaf_vector":"1"}},{"base_weights":[5.9969475E-6,-6.006625E-4,1.7584021E-3,-8.544759E-5,-1.8984741E-4,-3.9581328E-6,2.0573372E-3,-3.7773538E-4,1.2717211E-3,1.7408571E-3,1.8791815E-4,-5.8329806E-5,-1.1757749E-4,-4.483942E-5,2.019408E-3,1.0103377E-3,1.3153441E-4,1.722357E-5,-8.7798643E-4,1.4040078E-4,5.711809E-5,5.608641E-4,1.3475516E-3,-4.3766627E-6,1.1828202E-4,-6.00175E-5,-1.2776763E-5,-7.720789E-6,3.936446E-5,3.7341845E-6,7.4866235E-5],"categories":[],"categories_nodes":[],"categories_segments":[],"categories_sizes":[],"default_left":[0,0,0,0,0,0,0,0,0,0,0,0,0,0,0,0,0,0,0,0,0,0,0,0,0,0,0,0,0,0,0],"id":25,"left_children":[1,3,5,-1,7,-1,9,11,13,15,-1,-1,17,-1,19,21,-1,23,25,-1,-1,27,29,-1,-1,-1,-1,-1,-1,-1,-1],"loss_changes":[1.4882893E-4,4.7026962E-5,1.9938117E-5,0E0,2.1625432E-5,0E0,1.01457845E-5,1.402359E-5,1.6403272E-5,1.5543214E-5,0E0,0E0,5.4478305E-6,0E0,1.633749E-6,1.8208775E-6,0E0,1.1523655E-5,1.2985133E-6,0E0,0E0,1.5791854E-6,1.6039448E-6,0E0,0E0,0E0,0E0,0E0,0E0,0E0,0E0],"parents":[2147483647,0,0,1,1,2,2,4,4,6,6,7,7,8,8,9,9,12,12,14,14,15,15,17,17,18,18,21,21,22,22],"right_children":[2,4,6,-1,8,-1,10,12,14,16,-1,-1,18,-1,20,22,-1,24,26,-1,-1,28,30,-1,-1,-1,-1,-1,-1,-1,-1],"split_conditions":[1.1827508E-1,6.624879E-2,1.02083445E-1,-8.544759E-5,6.3432164E-2,-3.9581328E-6,6.049752E-2,8.9379534E-2,1.0389656E-1,1.19147465E-1,1.8791815E-4,-5.8329806E-5,1.2290773E-1,-4.483942E-5,9.3809776E-2,2.09407E-2,1.3153441E-4,1.22875355E-1,1.326189E-1,1.4040078E-4,5.711809E-5,8.1093E-2,1.044793E-1,-4.3766627E-6,1.1828202E-4,-6.00175E-5,-1.2776763E-5,-7.720789E-6,3.936446E-5,3.7341845E-6,7.4866235E-5],"split_indices":[3,2,2,0,10,0,9,3,5,2,0,0,4,0,9,10,0,4,5,0,0,0,2,0,0,0,0,0,0,0,0],"split_type":[0,0,0,0,0,0,0,0,0,0,0,0,0,0,0,0,0,0,0,0,0,0,0,0,0,0,0,0,0,0,0],"sum_hessian":[1.38E2,1.03E2,3.5E1,2.7E1,7.6E1,5E0,3E1,6.8E1,8E0,2.7E1,3E0,1.6E1,5.2E1,2E0,6E0,1.6E1,1.1E1,4.5E1,7E0,2E0,4E0,8E0,8E0,4.4E1,1E0,4E0,3E0,2E0,6E0,1E0,7E0],"tree_param":{"num_deleted":"0","num_feature":"12","num_nodes":"31","size_leaf_vector":"1"}},{"base_weights":[1.3228718E-4,-1.2357751E-3,6.331147E-4,-7.6563614E-5,-7.895412E-4,-4.0383256E-4,1.3148203E-3,-1.0242972E-3,1.4408957E-5,-2.064518E-4,-1.902112E-3,2.8103264E-3,9.3044253E-4,1.8944964E-5,-1.1515898E-3,4.2919227E-4,-8.019961E-4,-1.1861795E-4,-5.2810645E-7,1.568596E-4,3.375217E-5,1.2146527E-3,1.7952755E-4,-7.95632E-4,-8.165937E-5,-5.261911E-4,9.841057E-4,-7.5907345E-5,-2.4450742E-4,2.5145716E-3,6.7969545E-4,3.480208E-5,-5.839964E-4,-5.2810574E-6,-5.381311E-5,-4.1655065E-5,4.055451E-5,7.467302E-5,1.6708227E-5,2.8041331E-5,-3.3237386E-5,2.4420862E-5,1.8013001E-4,-5.947018E-5,3.9446386E-5,-5.1537307E-5,4.3762267E-7],"categories":[],"categories_nodes":[],"categories_segments":[],"categories_sizes":[],"default_left":[0,0,0,0,0,0,0,0,0,0,0,0,0,0,0,0,0,0,0,0,0,0,0,0,0,0,0,0,0,0,0,0,0,0,0,0,0,0,0,0,0,0,0,0,0,0,0],"id":26,"left_children":[1,3,5,-1,7,9,11,13,-1,15,17,19,21,-1,23,25,27,-1,-1,-1,-1,29,31,33,-1,35,37,-1,39,41,43,-1,45,-1,-1,-1,-1,-1,-1,-1,-1,-1,-1,-1,-1,-1,-1],"loss_changes":[1.02186554E-4,4.0654268E-6,7.758227E-5,0E0,4.8492066E-6,1.2619493E-5,3.5324556E-5,3.1155814E-6,0E0,1.548638E-5,4.42242E-6,6.9556118E-6,1.13064925E-5,0E0,1.1005832E-6,1.1120928E-5,8.012967E-6,0E0,0E0,0E0,0E0,2.5411493E-5,6.7164196E-6,1.8227033E-6,0E0,3.9591223E-6,3.8045955E-6,0E0,4.772448E-6,2.249008E-5,6.8591635E-6,0E0,1.8626945E-6,0E0,0E0,0E0,0E0,0E0,0E0,0E0,0E0,0E0,0E0,0E0,0E0,0E0,0E0],"parents":[2147483647,0,0,1,1,2,2,4,4,5,5,6,6,7,7,9,9,10,10,11,11,12,12,14,14,15,15,16,16,21,21,22,22,23,23,25,25,26,26,28,28,29,29,30,30,32,32],"right_children":[2,4,6,-1,8,10,12,14,-1,16,18,20,22,-1,24,26,28,-1,-1,-1,-1,30,32,34,-1,36,38,-1,40,42,44,-1,46,-1,-1,-1,-1,-1,-1,-1,-1,-1,-1,-1,-1,-1,-1],"split_conditions":[9.3100384E-2,8.384467E-2,5.0042327E-2,-7.6563614E-5,3.1445763E-1,4.6940446E-2,4.500686E-2,8.385062E-2,1.4408957E-5,1.3008708E-1,1.2814017E-1,1.274433E-1,1.7132066E-1,1.8944964E-5,1.0823448E-1,1.1451155E-1,1.3184191E-1,-1.1861795E-4,-5.2810645E-7,1.568596E-4,3.375217E-5,1.1068257E-1,1.3405052E-2,4.7371782E-2,-8.165937E-5,1.3046955E-1,1.1798312E-1,-7.5907345E-5,1.393098E-1,1.0495632E-1,1.11000754E-1,3.480208E-5,1.10777296E-1,-5.2810574E-6,-5.381311E-5,-4.1655065E-5,4.055451E-5,7.467302E-5,1.6708227E-5,2.8041331E-5,-3.3237386E-5,2.4420862E-5,1.8013001E-4,-5.947018E-5,3.9446386E-5,-5.1537307E-5,4.3762267E-7],"split_indices":[4,4,1,0,0,1,0,4,0,6,4,6,0,0,5,7,5,0,0,0,0,5,10,0,0,5,7,0,6,5,5,0,4,0,0,0,0,0,0,0,0,0,0,0,0,0,0],"split_type":[0,0,0,0,0,0,0,0,0,0,0,0,0,0,0,0,0,0,0,0,0,0,0,0,0,0,0,0,0,0,0,0,0,0,0,0,0,0,0,0,0,0,0,0,0,0,0],"sum_hessian":[1.47E2,3.9E1,1.08E2,2.2E1,1.7E1,4.3E1,6.5E1,1.4E1,3E0,3.9E1,4E0,1.2E1,5.3E1,1E0,1.3E1,1.9E1,2E1,3E0,1E0,1E1,2E0,3.8E1,1.5E1,9E0,4E0,7E0,1.2E1,8E0,1.2E1,1E1,2.8E1,9E0,6E0,3E0,6E0,6E0,1E0,6E0,6E0,4E0,8E0,4E0,6E0,1E0,2.7E1,3E0,3E0],"tree_param":{"num_deleted":"0","num_feature":"12","num_nodes":"47","size_leaf_vector":"1"}},{"base_weights":[-1.3451157E-4,-7.7820546E-4,1.1555664E-3,-1.3115881E-3,-4.8356006E-4,-1.9927455E-4,1.6879844E-3,-8.711469E-5,-1.0415858E-3,-2.4427564E-4,-8.9212967E-4,-7.711147E-5,4.292754E-4,1.2380183E-3,2.7340949E-3,-5.5860502E-5,-6.990643E-6,-3.9731368E-4,3.82839E-5,-1.9801702E-5,-1.2814387E-3,-1.3922602E-5,3.0874362E-5,3.105124E-4,1.1857622E-4,5.7961246E-5,1.6217178E-4,-2.0102043E-4,-1.1082857E-3,-7.7285117E-4,-8.7299115E-5,3.6244757E-5,-4.61646E-6,-2.385897E-5,5.145858E-5,-8.25039E-5,-2.2659742E-5,-5.9172617E-5,-1.4489997E-5],"categories":[],"categories_nodes":[],"categories_segments":[],"categories_sizes":[],"default_left":[0,0,0,0,0,0,0,0,0,0,0,0,0,0,0,0,0,0,0,0,0,0,0,0,0,0,0,0,0,0,0,0,0,0,0,0,0,0,0],"id":27,"left_children":[1,3,5,7,9,11,13,-1,15,17,19,-1,21,23,25,-1,-1,27,-1,-1,29,-1,-1,31,-1,-1,-1,33,35,37,-1,-1,-1,-1,-1,-1,-1,-1,-1],"loss_changes":[1.2463116E-4,1.5081641E-5,3.6403464E-5,2.2554595E-6,6.2345225E-6,1.33237545E-5,1.356085E-5,0E0,1.4805009E-6,6.950351E-6,4.1277344E-6,0E0,1.6371703E-6,2.7649621E-5,4.2615793E-6,0E0,0E0,5.0804547E-6,0E0,0E0,1.72201E-6,0E0,0E0,2.7378192E-6,0E0,0E0,0E0,1.1022685E-5,2.0915786E-6,1.2437672E-6,0E0,0E0,0E0,0E0,0E0,0E0,0E0,0E0,0E0],"parents":[2147483647,0,0,1,1,2,2,3,3,4,4,5,5,6,6,8,8,9,9,10,10,12,12,13,13,14,14,17,17,20,20,23,23,27,27,28,28,29,29],"right_children":[2,4,6,8,10,12,14,-1,16,18,20,-1,22,24,26,-1,-1,28,-1,-1,30,-1,-1,32,-1,-1,-1,34,36,38,-1,-1,-1,-1,-1,-1,-1,-1,-1],"split_conditions":[1.11845024E-1,7.99353E-2,5.2373864E-2,6.1249394E-2,1.1728366E-1,1.2651068E-1,2.9224068E-2,-8.711469E-5,8.681347E-2,1.1358233E-1,1.7170066E-2,-7.711147E-5,1.3082504E-1,1.1544769E-1,1.01972476E-1,-5.5860502E-5,-6.990643E-6,1.05997816E-1,3.82839E-5,-1.9801702E-5,1.2846878E-1,-1.3922602E-5,3.0874362E-5,7.25617E-2,1.1857622E-4,5.7961246E-5,1.6217178E-4,1.0415448E-1,1.0786279E-1,1.1892011E-1,-8.7299115E-5,3.6244757E-5,-4.61646E-6,-2.385897E-5,5.145858E-5,-8.25039E-5,-2.2659742E-5,-5.9172617E-5,-1.4489997E-5],"split_indices":[3,3,1,3,5,6,10,0,10,5,0,0,5,2,2,0,0,5,0,0,6,0,0,1,0,0,0,5,5,5,0,0,0,0,0,0,0,0,0],"split_type":[0,0,0,0,0,0,0,0,0,0,0,0,0,0,0,0,0,0,0,0,0,0,0,0,0,0,0,0,0,0,0,0,0,0,0,0,0,0,0],"sum_hessian":[1.48E2,9.9E1,4.9E1,3.4E1,6.5E1,1.4E1,3.5E1,1.1E1,2.3E1,4.2E1,2.3E1,4E0,1E1,2.6E1,9E0,2.1E1,2E0,3.7E1,5E0,1.1E1,1.2E1,2E0,8E0,1.5E1,1.1E1,3E0,6E0,3E1,7E0,7E0,5E0,7E0,8E0,2.5E1,5E0,3E0,4E0,3E0,4E0],"tree_param":{"num_deleted":"0","num_feature":"12","num_nodes":"39","size_leaf_vector":"1"}},{"base_weights":[-2.0727286E-5,-7.10018E-4,1.0078986E-3,-7.090472E-5,-3.8914048E-4,3.568802E-5,1.3527805E-3,1.2327362E-4,-9.385901E-4,-1.0591226E-3,7.2914135E-4,4.528831E-4,1.7445766E-3,-3.6962278E-4,1.1874773E-3,-1.0622735E-3,-2.461971E-4,-1.2345307E-3,-1.6684645E-7,1.0293961E-4,2.0490866E-4,8.238256E-4,-1.2041745E-5,1.3943829E-3,1.6433538E-4,1.03284496E-4,-8.511371E-4,-6.039363E-4,1.6526732E-3,-6.543039E-4,-1.4837127E-3,-2.9891204E-5,1.5235227E-5,-1.4778185E-5,-8.150617E-5,-2.1771652E-5,2.2503407E-5,1.5161745E-4,8.971168E-5,1.3493955E-4,9.752542E-4,3.1483225E-5,-2.1892523E-5,-5.8713904E-5,4.4357207E-6,1.5052809E-5,-6.0348033E-5,9.931475E-5,3.695361E-5,-7.874634E-5,-1.4645214E-5,-8.347294E-5,-1.8499411E-5,-5.7304474E-6,4.3724398E-5,1.9799681E-5,7.12486E-5],"categories":[],"categories_nodes":[],"categories_segments":[],"categories_sizes":[],"default_left":[0,0,0,0,0,0,0,0,0,0,0,0,0,0,0,0,0,0,0,0,0,0,0,0,0,0,0,0,0,0,0,0,0,0,0,0,0,0,0,0,0,0,0,0,0,0,0,0,0,0,0,0,0,0,0,0,0],"id":28,"left_children":[1,3,5,-1,7,9,11,13,15,17,19,21,23,25,27,29,31,33,-1,-1,35,37,-1,39,-1,41,43,45,47,49,51,-1,-1,-1,-1,-1,-1,53,-1,-1,55,-1,-1,-1,-1,-1,-1,-1,-1,-1,-1,-1,-1,-1,-1,-1,-1],"loss_changes":[1.0777799E-4,2.0123898E-5,2.0404885E-5,0E0,1.813463E-5,1.3678651E-5,1.5075842E-5,1.8273353E-5,2.3932334E-6,1.2922337E-6,7.2456473E-6,4.058348E-6,1.2158453E-5,5.552988E-6,1.0165051E-5,3.4994937E-6,1.3444309E-6,1.7468847E-6,0E0,0E0,1.6088472E-6,6.2511235E-6,0E0,1.2129291E-5,0E0,3.9786537E-6,3.7486307E-6,2.0005605E-6,1.275157E-6,4.52939E-6,1.864757E-6,0E0,0E0,0E0,0E0,0E0,0E0,1.4473545E-6,0E0,0E0,5.166803E-6,0E0,0E0,0E0,0E0,0E0,0E0,0E0,0E0,0E0,0E0,0E0,0E0,0E0,0E0,0E0,0E0],"parents":[2147483647,0,0,1,1,2,2,4,4,5,5,6,6,7,7,8,8,9,9,10,10,11,11,12,12,13,13,14,14,15,15,16,16,17,17,20,20,21,21,23,23,25,25,26,26,27,27,28,28,29,29,30,30,37,37,40,40],"right_children":[2,4,6,-1,8,10,12,14,16,18,20,22,24,26,28,30,32,34,-1,-1,36,38,-1,40,-1,42,44,46,48,50,52,-1,-1,-1,-1,-1,-1,54,-1,-1,56,-1,-1,-1,-1,-1,-1,-1,-1,-1,-1,-1,-1,-1,-1,-1,-1],"split_conditions":[1.102222E-1,8.435903E-2,5.0042327E-2,-7.090472E-5,1.16074175E-1,1.2834802E-1,1.1827508E-1,1.04213886E-1,1.2256974E-1,1.2905906E-1,1.3008708E-1,1.1523775E-1,2.8930927E-2,6.3336976E-2,3.928707E-2,1.2846878E-1,2.7767146E-2,3.5873853E-2,-1.6684645E-7,1.0293961E-4,3.3322237E-2,3.142298E-2,-1.2041745E-5,9.816347E-2,1.6433538E-4,1.0755779E-1,1.0200285E-1,2.8880058E-2,9.3809776E-2,1.1962535E-1,1.4094332E-1,-2.9891204E-5,1.5235227E-5,-1.4778185E-5,-8.150617E-5,-2.1771652E-5,2.2503407E-5,1.0361771E-1,8.971168E-5,1.3493955E-4,8.444632E-3,3.1483225E-5,-2.1892523E-5,-5.8713904E-5,4.4357207E-6,1.5052809E-5,-6.0348033E-5,9.931475E-5,3.695361E-5,-7.874634E-5,-1.4645214E-5,-8.347294E-5,-1.8499411E-5,-5.7304474E-6,4.3724398E-5,1.9799681E-5,7.12486E-5],"split_indices":[3,4,1,0,6,6,3,7,4,4,6,3,10,7,1,6,1,1,0,0,1,10,0,6,0,1,4,1,9,6,6,0,0,0,0,0,0,1,0,0,11,0,0,0,0,0,0,0,0,0,0,0,0,0,0,0,0],"split_type":[0,0,0,0,0,0,0,0,0,0,0,0,0,0,0,0,0,0,0,0,0,0,0,0,0,0,0,0,0,0,0,0,0,0,0,0,0,0,0,0,0,0,0,0,0,0,0,0,0,0,0,0,0,0,0,0,0],"sum_hessian":[1.5E2,9E1,6E1,2.7E1,6.3E1,1.6E1,4.4E1,3.3E1,3E1,6E0,1E1,1.4E1,3E1,2.3E1,1E1,2.5E1,5E0,5E0,1E0,2E0,8E0,9E0,5E0,2.6E1,4E0,1.2E1,1.1E1,2E0,8E0,1.4E1,1.1E1,3E0,2E0,2E0,3E0,2E0,6E0,6E0,3E0,5E0,2.1E1,6E0,6E0,8E0,3E0,1E0,1E0,5E0,3E0,3E0,1.1E1,9E0,2E0,5E0,1E0,1E1,1.1E1],"tree_param":{"num_deleted":"0","num_feature":"12","num_nodes":"57","size_leaf_vector":"1"}},{"base_weights":[6.2918436E-5,-3.4384013E-4,1.3395048E-3,-9.765993E-4,1.6178955E-4,1.7893346E-3,1.9539152E-4,-1.5162465E-3,-7.3960883E-4,1.7781971E-3,-1.1197034E-5,1.4995148E-4,1.3369594E-3,4.3857537E-5,-2.5946647E-5,-8.129928E-5,-2.2409602E-6,-5.2727766E-5,-3.2557707E-4,3.76021E-5,1.2768358E-4,-5.939265E-4,3.1984397E-4,2.462751E-5,1.858853E-3,1.3923127E-4,-1.0094792E-3,4.609561E-5,-8.020102E-4,7.2960014E-4,-4.927521E-4,8.89489E-4,1.212093E-4,1.4013909E-5,-3.1780946E-5,-5.9562706E-5,2.029259E-6,-6.6733926E-5,-3.0935877E-5,5.3119957E-6,1.02048034E-4,-1.2893234E-5,-8.278503E-5,6.8170826E-5,-1.9455251E-6],"categories":[],"categories_nodes":[],"categories_segments":[],"categories_sizes":[],"default_left":[0,0,0,0,0,0,0,0,0,0,0,0,0,0,0,0,0,0,0,0,0,0,0,0,0,0,0,0,0,0,0,0,0,0,0,0,0,0,0,0,0,0,0,0,0],"id":29,"left_children":[1,3,5,7,9,11,13,15,17,19,21,-1,23,-1,-1,-1,-1,-1,25,-1,-1,27,29,-1,31,33,35,-1,37,39,41,43,-1,-1,-1,-1,-1,-1,-1,-1,-1,-1,-1,-1,-1],"loss_changes":[7.523438E-5,3.5351604E-5,1.766334E-5,5.1452407E-6,1.7356157E-5,9.671319E-6,5.8121523E-6,2.1877458E-6,4.3509845E-6,2.8540726E-6,1.11856825E-5,0E0,7.898256E-6,0E0,0E0,0E0,0E0,0E0,5.544569E-6,0E0,0E0,7.3632305E-6,1.2679264E-5,0E0,4.419875E-6,1.3803426E-6,1.3844742E-6,0E0,1.0292615E-6,2.0219417E-5,3.1241593E-6,2.6930152E-6,0E0,0E0,0E0,0E0,0E0,0E0,0E0,0E0,0E0,0E0,0E0,0E0,0E0],"parents":[2147483647,0,0,1,1,2,2,3,3,4,4,5,5,6,6,7,7,8,8,9,9,10,10,12,12,18,18,21,21,22,22,24,24,25,25,26,26,28,28,29,29,30,30,31,31],"right_children":[2,4,6,8,10,12,14,16,18,20,22,-1,24,-1,-1,-1,-1,-1,26,-1,-1,28,30,-1,32,34,36,-1,38,40,42,44,-1,-1,-1,-1,-1,-1,-1,-1,-1,-1,-1,-1,-1],"split_conditions":[1.0608038E-1,9.8317005E-2,1.5490113E-1,5.31127E-2,1.00065455E-1,1.1108975E-1,1.3405052E-2,9.290186E-2,8.2919225E-2,9.943184E-2,8.414489E-2,1.4995148E-4,2.0129398E-2,4.3857537E-5,-2.5946647E-5,-8.129928E-5,-2.2409602E-6,-5.2727766E-5,9.3842275E-2,3.76021E-5,1.2768358E-4,1.1728366E-1,4.7941063E-2,2.462751E-5,1.1302715E-1,1.07292585E-1,1.0575987E-1,4.609561E-5,1.0024688E-1,5.0042327E-2,1.5052728E-1,1.0891892E-1,1.212093E-4,1.4013909E-5,-3.1780946E-5,-5.9562706E-5,2.029259E-6,-6.6733926E-5,-3.0935877E-5,5.3119957E-6,1.02048034E-4,-1.2893234E-5,-8.278503E-5,6.8170826E-5,-1.9455251E-6],"split_indices":[2,4,0,2,4,5,10,4,5,4,2,0,10,0,0,0,0,0,4,0,0,5,0,0,2,1,1,0,8,1,0,2,0,0,0,0,0,0,0,0,0,0,0,0,0],"split_type":[0,0,0,0,0,0,0,0,0,0,0,0,0,0,0,0,0,0,0,0,0,0,0,0,0,0,0,0,0,0,0,0,0,0,0,0,0,0,0,0,0,0,0,0,0],"sum_hessian":[1.43E2,1.09E2,3.4E1,4.8E1,6.1E1,2.4E1,1E1,1.3E1,3.5E1,5E0,5.6E1,5E0,1.9E1,5E0,5E0,1.2E1,1E0,1.9E1,1.6E1,3E0,2E0,2E1,3.6E1,8E0,1.1E1,1E1,6E0,2E0,1.8E1,2.4E1,1.2E1,5E0,6E0,9E0,1E0,5E0,1E0,3E0,1.5E1,1.7E1,7E0,1.1E1,1E0,3E0,2E0],"tree_param":{"num_deleted":"0","num_feature":"12","num_nodes":"45","size_leaf_vector":"1"}},{"base_weights":[-5.862498E-5,-7.2941696E-4,1.0604473E-3,-1.1293645E-3,-3.394785E-4,3.2164584E-4,1.3912035E-3,-7.99796E-5,-9.627462E-4,2.4083832E-4,-6.1902823E-4,-1.3236746E-3,8.8628556E-4,1.9428092E-3,6.279728E-4,-5.6925794E-5,-4.0947035E-4,8.5542655E-5,-2.2999995E-4,4.7424004E-5,-7.5514475E-4,-1.9096885E-6,-8.177482E-5,1.7140759E-4,1.7696188E-4,3.610101E-5,2.1061618E-3,1.5333361E-3,1.2296012E-4,-3.8753955E-5,5.557707E-6,1.5410376E-5,-2.5172427E-5,-1.5196297E-3,-5.790844E-4,-2.2993047E-5,2.7642795E-5,1.1355779E-4,2.6206984E-5,-6.590807E-6,9.463649E-5,-1.257081E-5,2.131442E-5,2.1864776E-5,-1.0590925E-4,1.7259452E-5,-4.0779352E-5],"categories":[],"categories_nodes":[],"categories_segments":[],"categories_sizes":[],"default_left":[0,0,0,0,0,0,0,0,0,0,0,0,0,0,0,0,0,0,0,0,0,0,0,0,0,0,0,0,0,0,0,0,0,0,0,0,0,0,0,0,0,0,0,0,0,0,0],"id":30,"left_children":[1,3,5,7,9,11,13,-1,15,17,19,21,23,25,27,-1,29,-1,31,-1,33,-1,-1,-1,35,-1,37,39,41,-1,-1,-1,-1,43,45,-1,-1,-1,-1,-1,-1,-1,-1,-1,-1,-1,-1],"loss_changes":[1.0811856E-4,1.3652552E-5,1.274814E-5,1.9073341E-6,7.773773E-6,1.7895392E-5,1.4357058E-5,0E0,2.9375333E-6,1.1467723E-5,7.543882E-6,1.9417394E-6,2.463543E-5,2.6671041E-6,7.584201E-6,0E0,1.9896017E-6,0E0,2.0684035E-6,0E0,3.157871E-6,0E0,0E0,0E0,3.1267714E-6,0E0,3.5080375E-6,3.840165E-6,1.4698828E-6,0E0,0E0,0E0,0E0,6.7829124E-6,5.964953E-6,0E0,0E0,0E0,0E0,0E0,0E0,0E0,0E0,0E0,0E0,0E0,0E0],"parents":[2147483647,0,0,1,1,2,2,3,3,4,4,5,5,6,6,8,8,9,9,10,10,11,11,12,12,13,13,14,14,16,16,18,18,20,20,24,24,26,26,27,27,28,28,33,33,34,34],"right_children":[2,4,6,8,10,12,14,-1,16,18,20,22,24,26,28,-1,30,-1,32,-1,34,-1,-1,-1,36,-1,38,40,42,-1,-1,-1,-1,44,46,-1,-1,-1,-1,-1,-1,-1,-1,-1,-1,-1,-1],"split_conditions":[1.102222E-1,8.709495E-2,5.2373864E-2,1.1432342E-2,1.0002073E-1,1.2877965E-1,7.3891446E-2,-7.99796E-5,1.0735378E-1,5.471539E-2,8.836652E-2,3.489227E-2,1.2741835E-1,8.531402E-2,7.145639E-2,-5.6925794E-5,4.9404632E-2,8.5542655E-5,2.3540528E-2,4.7424004E-5,1.0200285E-1,-1.9096885E-6,-8.177482E-5,1.7140759E-4,1.1005018E-1,3.610101E-5,1.274433E-1,9.548905E-2,1.1624561E-1,-3.8753955E-5,5.557707E-6,1.5410376E-5,-2.5172427E-5,4.707456E-2,1.1728366E-1,-2.2993047E-5,2.7642795E-5,1.1355779E-4,2.6206984E-5,-6.590807E-6,9.463649E-5,-1.257081E-5,2.131442E-5,2.1864776E-5,-1.0590925E-4,1.7259452E-5,-4.0779352E-5],"split_indices":[3,3,1,1,4,5,1,0,9,1,3,1,4,7,7,0,2,0,9,0,4,0,0,0,7,0,6,1,3,0,0,0,0,1,5,0,0,0,0,0,0,0,0,0,0,0,0],"split_type":[0,0,0,0,0,0,0,0,0,0,0,0,0,0,0,0,0,0,0,0,0,0,0,0,0,0,0,0,0,0,0,0,0,0,0,0,0,0,0,0,0,0,0,0,0,0,0],"sum_hessian":[1.42E2,8.9E1,5.3E1,4.3E1,4.6E1,1.7E1,3.6E1,9E0,3.4E1,1.5E1,3.1E1,4E0,1.3E1,2E1,1.6E1,2.5E1,9E0,3E0,1.2E1,2E0,2.9E1,1E0,3E0,2E0,1.1E1,3E0,1.7E1,5E0,1.1E1,5E0,4E0,4E0,8E0,4E0,2.5E1,4E0,7E0,1.5E1,2E0,1E0,4E0,5E0,6E0,1E0,3E0,5E0,2E1],"tree_param":{"num_deleted":"0","num_feature":"12","num_nodes":"47","size_leaf_vector":"1"}},{"base_weights":[6.81863E-5,-5.569957E-4,9.7356376E-4,-6.28208E-5,-3.563293E-4,5.2094326E-4,1.0438919E-4,-7.5473665E-4,7.5994E-5,-1.8092433E-4,8.211111E-4,-9.011733E-4,1.2764211E-4,1.1072947E-3,-1.8454525E-4,1.0864914E-4,-5.2914664E-4,1.3564386E-4,2.481626E-3,-9.980767E-4,1.2218952E-7,-4.633871E-5,5.2388024E-4,6.931304E-5,-1.4162552E-5,1.9716704E-6,-6.520698E-5,-1.2188389E-3,-8.719024E-5,5.642756E-4,-3.0429152E-4,4.233059E-4,1.7201177E-4,-4.0426694E-5,-8.541335E-5,5.0955105E-6,5.5294007E-5,4.7544305E-5,-1.4140062E-5,-7.6317105E-5,2.7935022E-7,-2.0986537E-5,2.1670905E-5,-5.7779303E-6,4.5931876E-5,-2.3719345E-5,3.916895E-5,-3.2406067E-5,4.9824437E-5],"categories":[],"categories_nodes":[],"categories_segments":[],"categories_sizes":[],"default_left":[0,0,0,0,0,0,0,0,0,0,0,0,0,0,0,0,0,0,0,0,0,0,0,0,0,0,0,0,0,0,0,0,0,0,0,0,0,0,0,0,0,0,0,0,0,0,0,0,0],"id":31,"left_children":[1,3,5,-1,7,9,-1,11,13,15,17,19,21,23,25,-1,27,29,31,33,-1,-1,35,-1,-1,37,-1,39,41,43,45,47,-1,-1,-1,-1,-1,-1,-1,-1,-1,-1,-1,-1,-1,-1,-1,-1,-1],"loss_changes":[8.318203E-5,1.1762764E-5,2.9171508E-5,0E0,1.1941968E-5,9.418394E-6,0E0,4.7666817E-6,9.339953E-6,1.2625387E-5,3.4948473E-5,2.716908E-6,2.9923183E-6,3.1080654E-6,5.849624E-6,0E0,3.85631E-6,4.5088204E-6,1.6301856E-5,2.387931E-6,0E0,0E0,1.1152322E-6,0E0,0E0,7.0245396E-6,0E0,1.8911023E-6,1.7400291E-6,2.9970442E-6,2.5917177E-6,3.102341E-6,0E0,0E0,0E0,0E0,0E0,0E0,0E0,0E0,0E0,0E0,0E0,0E0,0E0,0E0,0E0,0E0,0E0],"parents":[2147483647,0,0,1,1,2,2,4,4,5,5,7,7,8,8,9,9,10,10,11,11,12,12,13,13,14,14,16,16,17,17,18,18,19,19,22,22,25,25,27,27,28,28,29,29,30,30,31,31],"right_children":[2,4,6,-1,8,10,-1,12,14,16,18,20,22,24,26,-1,28,30,32,34,-1,-1,36,-1,-1,38,-1,40,42,44,46,48,-1,-1,-1,-1,-1,-1,-1,-1,-1,-1,-1,-1,-1,-1,-1,-1,-1],"split_conditions":[1.102222E-1,1.6705828E-2,1.14778385E-1,-6.28208E-5,9.539947E-2,5.0042327E-2,1.0438919E-4,1.05368264E-1,1.110614E-1,1.10411376E-1,2.8930927E-2,1.06939375E-1,2.1313828E-1,5.471539E-2,4.4142872E-2,1.0864914E-4,1.10684186E-1,7.263952E-2,1.0064356E-1,9.49386E-2,1.2218952E-7,-4.633871E-5,3.013619E-1,6.931304E-5,-1.4162552E-5,1.168833E-1,-6.520698E-5,2.0321855E-2,3.7915207E-2,1.0463585E-1,1.0361771E-1,5.137465E-2,1.7201177E-4,-4.0426694E-5,-8.541335E-5,5.0955105E-6,5.5294007E-5,4.7544305E-5,-1.4140062E-5,-7.6317105E-5,2.7935022E-7,-2.0986537E-5,2.1670905E-5,-5.7779303E-6,4.5931876E-5,-2.3719345E-5,3.916895E-5,-3.2406067E-5,4.9824437E-5],"split_indices":[3,1,2,0,8,1,0,2,7,3,10,3,0,1,1,0,7,1,2,4,0,0,0,0,0,7,0,0,1,2,1,1,0,0,0,0,0,0,0,0,0,0,0,0,0,0,0,0,0],"split_type":[0,0,0,0,0,0,0,0,0,0,0,0,0,0,0,0,0,0,0,0,0,0,0,0,0,0,0,0,0,0,0,0,0,0,0,0,0,0,0,0,0,0,0,0,0,0,0,0,0],"sum_hessian":[1.45E2,8.6E1,5.9E1,1.8E1,6.8E1,4.3E1,1.6E1,3.5E1,3.3E1,1.3E1,3E1,3E1,5E0,6E0,2.7E1,1E0,1.2E1,2.2E1,8E0,2.7E1,3E0,1E0,4E0,5E0,1E0,2.4E1,3E0,4E0,8E0,1.1E1,1.1E1,3E0,5E0,2.3E1,4E0,3E0,1E0,5E0,1.9E1,3E0,1E0,5E0,3E0,4E0,7E0,1E1,1E0,1E0,2E0],"tree_param":{"num_deleted":"0","num_feature":"12","num_nodes":"49","size_leaf_vector":"1"}},{"base_weights":[6.476862E-5,-6.052251E-4,9.677004E-4,-1.056429E-3,-1.8067885E-4,5.789256E-4,9.9281235E-5,-7.1279144E-5,-8.735531E-4,8.961836E-5,-3.141314E-4,1.5953615E-4,1.0905727E-3,-9.3573227E-4,-1.01488936E-7,-9.623656E-4,-6.1226965E-5,-3.2819592E-4,3.821705E-4,1.8694956E-3,-1.5571289E-4,-1.007373E-5,-5.078921E-5,1.3916381E-5,-5.5022923E-5,-2.1948502E-4,3.3056942E-5,2.5983769E-5,-3.223421E-5,-4.62326E-7,6.1126763E-4,8.683496E-4,2.603571E-3,1.05932915E-4,-7.048416E-4,3.3130837E-5,-2.0085174E-5,4.2228843E-5,5.7859675E-6,7.3313895E-5,-2.0882371E-5,3.022231E-5,1.6411657E-4,-7.345521E-5,2.3768378E-6],"categories":[],"categories_nodes":[],"categories_segments":[],"categories_sizes":[],"default_left":[0,0,0,0,0,0,0,0,0,0,0,0,0,0,0,0,0,0,0,0,0,0,0,0,0,0,0,0,0,0,0,0,0,0,0,0,0,0,0,0,0,0,0,0,0],"id":32,"left_children":[1,3,5,7,9,11,-1,-1,13,-1,15,17,19,21,-1,23,25,27,29,31,33,-1,-1,-1,-1,35,-1,-1,-1,-1,37,39,41,-1,43,-1,-1,-1,-1,-1,-1,-1,-1,-1,-1],"loss_changes":[8.95146E-5,1.609146E-5,2.37823E-5,1.5225596E-6,1.24119E-5,9.911244E-6,0E0,0E0,1.6238191E-6,0E0,6.990553E-6,3.0572464E-6,2.0677071E-5,1.4411507E-6,0E0,2.3622579E-6,3.8033568E-6,2.7500985E-6,1.7094301E-6,7.293107E-6,1.2733621E-5,0E0,0E0,0E0,0E0,4.606026E-6,0E0,0E0,0E0,0E0,1.289658E-6,5.9949252E-6,7.5144962E-6,0E0,4.669953E-6,0E0,0E0,0E0,0E0,0E0,0E0,0E0,0E0,0E0,0E0],"parents":[2147483647,0,0,1,1,2,2,3,3,4,4,5,5,8,8,10,10,11,11,12,12,13,13,15,15,16,16,17,17,18,18,19,19,20,20,25,25,30,30,31,31,32,32,34,34],"right_children":[2,4,6,8,10,12,-1,-1,14,-1,16,18,20,22,-1,24,26,28,30,32,34,-1,-1,-1,-1,36,-1,-1,-1,-1,38,40,42,-1,44,-1,-1,-1,-1,-1,-1,-1,-1,-1,-1],"split_conditions":[1.102222E-1,8.612165E-2,1.1544769E-1,5.9640046E-2,8.7459594E-2,1.4081764E-2,9.9281235E-5,-7.1279144E-5,6.1487608E-2,8.961836E-5,7.650022E-2,1.1624561E-1,2.008742E-2,6.834445E-2,-1.01488936E-7,8.836652E-2,8.21113E-2,1.1129096E-1,1.0463585E-1,1.01972476E-1,1.10411376E-1,-1.007373E-5,-5.078921E-5,1.3916381E-5,-5.5022923E-5,7.493995E-2,3.3056942E-5,2.5983769E-5,-3.223421E-5,-4.62326E-7,1.1295859E-1,1.15744926E-1,1.5918104E-2,1.05932915E-4,1.10684186E-1,3.3130837E-5,-2.0085174E-5,4.2228843E-5,5.7859675E-6,7.3313895E-5,-2.0882371E-5,3.022231E-5,1.6411657E-4,-7.345521E-5,2.3768378E-6],"split_indices":[3,3,2,3,3,11,0,0,11,0,2,3,11,4,0,3,9,3,2,2,3,0,0,0,0,6,0,0,0,0,2,3,11,0,7,0,0,0,0,0,0,0,0,0,0],"split_type":[0,0,0,0,0,0,0,0,0,0,0,0,0,0,0,0,0,0,0,0,0,0,0,0,0,0,0,0,0,0,0,0,0,0,0,0,0,0,0,0,0,0,0,0,0],"sum_hessian":[1.46E2,8.4E1,6.2E1,4E1,4.4E1,4.6E1,1.6E1,1.1E1,2.9E1,2E0,4.2E1,2.6E1,2E1,2.7E1,2E0,1.1E1,3.1E1,8E0,1.8E1,1.2E1,8E0,3E0,2.4E1,1E0,1E1,2.6E1,5E0,2E0,6E0,7E0,1.1E1,6E0,6E0,1E0,7E0,4E0,2.2E1,7E0,4E0,4E0,2E0,2E0,4E0,3E0,4E0],"tree_param":{"num_deleted":"0","num_feature":"12","num_nodes":"45","size_leaf_vector":"1"}},{"base_weights":[1.01087935E-5,-4.0219512E-4,1.2592082E-3,-1.8708635E-4,-1.2532759E-3,9.373567E-4,1.4370529E-4,-3.7432663E-4,1.3524278E-3,-1.4311115E-3,1.15748035E-5,5.342305E-4,8.869169E-5,-7.3952874E-4,2.0527412E-4,2.8269109E-5,9.3449395E-5,-9.816346E-6,-7.460986E-5,6.226048E-5,3.9385326E-4,-8.946062E-4,8.953028E-5,6.822736E-4,-2.8541026E-4,4.555534E-4,-1.791874E-5,-2.8712338E-5,-5.1911164E-5,1.9413987E-5,-1.5314456E-5,-6.5838135E-6,7.0546965E-5,-5.028743E-5,3.4075598E-5,-1.7485547E-5,2.6174659E-5],"categories":[],"categories_nodes":[],"categories_segments":[],"categories_sizes":[],"default_left":[0,0,0,0,0,0,0,0,0,0,0,0,0,0,0,0,0,0,0,0,0,0,0,0,0,0,0,0,0,0,0,0,0,0,0,0,0],"id":33,"left_children":[1,3,5,7,9,11,-1,13,15,17,-1,19,-1,21,23,-1,-1,-1,-1,-1,25,27,29,31,33,35,-1,-1,-1,-1,-1,-1,-1,-1,-1,-1,-1],"loss_changes":[6.8487585E-5,1.8073024E-5,1.4457928E-5,2.3855233E-5,5.612197E-6,8.83133E-6,0E0,1.5603819E-5,2.6023117E-6,1.0647418E-6,0E0,1.6054814E-6,0E0,5.8656715E-6,6.982358E-6,0E0,0E0,0E0,0E0,0E0,1.0450979E-6,1.1521497E-6,1.0649325E-6,9.082247E-6,1.1133096E-5,1.1678412E-6,0E0,0E0,0E0,0E0,0E0,0E0,0E0,0E0,0E0,0E0,0E0],"parents":[2147483647,0,0,1,1,2,2,3,3,4,4,5,5,7,7,8,8,9,9,11,11,13,13,14,14,20,20,21,21,22,22,23,23,24,24,25,25],"right_children":[2,4,6,8,10,12,-1,14,16,18,-1,20,-1,22,24,-1,-1,-1,-1,-1,26,28,30,32,34,36,-1,-1,-1,-1,-1,-1,-1,-1,-1,-1,-1],"split_conditions":[1.0608038E-1,4.3041926E-2,2.8282078E-2,3.4742326E-2,7.509529E-2,1.19147465E-1,1.4370529E-4,1.0771651E-1,6.668908E-2,9.4482996E-2,1.15748035E-5,1.066609E-1,8.869169E-5,2.9493222E-2,1.1523775E-1,2.8269109E-5,9.3449395E-5,-9.816346E-6,-7.460986E-5,6.226048E-5,1.3000251E-1,5.21538E-2,3.3277124E-2,1.7046785E-2,1.2834802E-1,1.08097896E-1,-1.791874E-5,-2.8712338E-5,-5.1911164E-5,1.9413987E-5,-1.5314456E-5,-6.5838135E-6,7.0546965E-5,-5.028743E-5,3.4075598E-5,-1.7485547E-5,2.6174659E-5],"split_indices":[2,11,10,11,2,2,0,3,2,6,0,2,0,11,3,0,0,0,0,0,3,7,11,11,6,2,0,0,0,0,0,0,0,0,0,0,0],"split_type":[0,0,0,0,0,0,0,0,0,0,0,0,0,0,0,0,0,0,0,0,0,0,0,0,0,0,0,0,0,0,0,0,0,0,0,0,0],"sum_hessian":[1.31E2,9.9E1,3.2E1,8E1,1.9E1,2.8E1,4E0,7.2E1,8E0,1.7E1,2E0,2E1,8E0,4.4E1,2.8E1,4E0,4E0,1E0,1.6E1,2E0,1.8E1,3.7E1,7E0,1.4E1,1.4E1,1.7E1,1E0,1.3E1,2.4E1,4E0,3E0,7E0,7E0,8E0,6E0,1E0,1.6E1],"tree_param":{"num_deleted":"0","num_feature":"12","num_nodes":"37","size_leaf_vector":"1"}},{"base_weights":[5.056171E-5,-4.7736417E-4,7.869657E-4,-5.6414992E-5,-2.1551865E-4,4.585417E-4,1.4913223E-3,-4.4116823E-4,6.168697E-4,5.558614E-4,-4.7973066E-5,6.8497116E-4,1.1107828E-4,-5.662646E-4,2.540172E-5,-2.8592555E-4,1.717785E-3,9.227111E-5,4.3627914E-4,8.301576E-5,1.4889387E-6,-7.7391794E-4,-9.567808E-5,2.1040498E-4,-5.9163904E-5,1.2861751E-5,1.958448E-3,5.870641E-4,-4.4062035E-4,-6.0756196E-5,-2.739882E-5,3.6952824E-5,-1.9525996E-5,2.7492055E-5,-1.5615575E-5,1.1316823E-4,1.8469547E-5,3.4304692E-6,4.9324746E-5,1.0962051E-5,-5.8678103E-5],"categories":[],"categories_nodes":[],"categories_segments":[],"categories_sizes":[],"default_left":[0,0,0,0,0,0,0,0,0,0,0,0,0,0,0,0,0,0,0,0,0,0,0,0,0,0,0,0,0,0,0,0,0,0,0,0,0,0,0,0,0],"id":34,"left_children":[1,3,5,-1,7,9,11,13,15,17,-1,19,-1,21,-1,23,25,-1,27,-1,-1,29,31,33,-1,-1,35,37,39,-1,-1,-1,-1,-1,-1,-1,-1,-1,-1,-1,-1],"loss_changes":[5.4025477E-5,1.3562842E-5,1.2733173E-5,0E0,1.1354E-5,6.1913106E-6,9.077274E-6,5.8685464E-6,1.3411873E-5,5.2090163E-6,0E0,6.340937E-6,0E0,4.030144E-6,0E0,3.812035E-6,1.6052218E-6,0E0,5.150932E-6,0E0,0E0,2.225057E-6,3.7342215E-6,1.2362947E-6,0E0,0E0,1.5865826E-6,6.5590957E-6,3.159133E-6,0E0,0E0,0E0,0E0,0E0,0E0,0E0,0E0,0E0,0E0,0E0,0E0],"parents":[2147483647,0,0,1,1,2,2,4,4,5,5,6,6,7,7,8,8,9,9,11,11,13,13,15,15,16,16,18,18,21,21,22,22,23,23,26,26,27,27,28,28],"right_children":[2,4,6,-1,8,10,12,14,16,18,-1,20,-1,22,-1,24,26,-1,28,-1,-1,30,32,34,-1,-1,36,38,40,-1,-1,-1,-1,-1,-1,-1,-1,-1,-1,-1,-1],"split_conditions":[1.102222E-1,6.211913E-2,1.14778385E-1,-5.6414992E-5,6.3432164E-2,4.4730008E-2,2.0129398E-2,1.05368264E-1,8.2925245E-2,1.1072586E-1,-4.7973066E-5,1.1108975E-1,1.1107828E-4,8.11901E-2,2.540172E-5,8.118352E-2,7.5429594E-3,9.227111E-5,3.7786976E-2,8.301576E-5,1.4889387E-6,8.182619E-2,1.1446303E-1,7.987658E-2,-5.9163904E-5,1.2861751E-5,7.960118E-2,5.6252975E-2,9.9140644E-2,-6.0756196E-5,-2.739882E-5,3.6952824E-5,-1.9525996E-5,2.7492055E-5,-1.5615575E-5,1.1316823E-4,1.8469547E-5,3.4304692E-6,4.9324746E-5,1.0962051E-5,-5.8678103E-5],"split_indices":[3,2,2,0,10,10,10,2,3,3,0,5,0,9,0,3,0,0,10,0,0,2,7,0,0,0,2,9,2,0,0,0,0,0,0,0,0,0,0,0,0],"split_type":[0,0,0,0,0,0,0,0,0,0,0,0,0,0,0,0,0,0,0,0,0,0,0,0,0,0,0,0,0,0,0,0,0,0,0,0,0,0,0,0,0],"sum_hessian":[1.37E2,8E1,5.7E1,2.2E1,5.8E1,4E1,1.7E1,4.6E1,1.2E1,3.8E1,2E0,9E0,8E0,4.1E1,5E0,7E0,5E0,2E0,3.6E1,3E0,6E0,2.8E1,1.3E1,5E0,2E0,1E0,4E0,3.1E1,5E0,8E0,2E1,3E0,1E1,3E0,2E0,3E0,1E0,1.4E1,1.7E1,3E0,2E0],"tree_param":{"num_deleted":"0","num_feature":"12","num_nodes":"41","size_leaf_vector":"1"}},{"base_weights":[3.2949967E-5,-5.578899E-4,8.653972E-4,-6.887549E-5,-4.319201E-4,5.433635E-4,1.8167432E-3,-5.096055E-4,2.9210642E-4,8.515589E-4,-1.7089074E-4,1.1154051E-4,5.8779162E-5,-7.441122E-4,-2.6053865E-4,-4.596752E-5,2.9825373E-5,-3.502385E-5,1.0301118E-3,-3.866166E-5,1.0380191E-5,-9.718857E-4,-4.1288833E-4,9.2498725E-4,-5.8995537E-4,1.4871475E-3,2.206291E-4,-5.4939268E-5,5.6736794E-6,2.2332393E-5,-2.8379134E-5,-3.199884E-5,7.766524E-5,-3.4005003E-5,1.9397501E-5,1.4974791E-4,5.0862414E-5,-3.9462586E-5,2.507652E-5],"categories":[],"categories_nodes":[],"categories_segments":[],"categories_sizes":[],"default_left":[0,0,0,0,0,0,0,0,0,0,0,0,0,0,0,0,0,0,0,0,0,0,0,0,0,0,0,0,0,0,0,0,0,0,0,0,0,0,0],"id":35,"left_children":[1,3,5,-1,7,9,11,13,15,17,19,-1,-1,21,23,-1,-1,-1,25,-1,-1,27,29,31,33,35,37,-1,-1,-1,-1,-1,-1,-1,-1,-1,-1,-1,-1],"loss_changes":[7.2291885E-5,8.284302E-6,1.7701142E-5,0E0,4.423576E-6,1.0491629E-5,1.3597455E-6,3.8362705E-6,3.498549E-6,9.866542E-6,3.5802761E-6,0E0,0E0,2.2392614E-6,1.4214323E-5,0E0,0E0,0E0,1.0770767E-5,0E0,0E0,2.8793147E-6,2.380955E-6,8.860432E-6,2.7321275E-6,1.041525E-5,3.799956E-6,0E0,0E0,0E0,0E0,0E0,0E0,0E0,0E0,0E0,0E0,0E0,0E0],"parents":[2147483647,0,0,1,1,2,2,4,4,5,5,6,6,7,7,8,8,9,9,10,10,13,13,14,14,18,18,21,21,22,22,23,23,24,24,25,25,26,26],"right_children":[2,4,6,-1,8,10,12,14,16,18,20,-1,-1,22,24,-1,-1,-1,26,-1,-1,28,30,32,34,36,38,-1,-1,-1,-1,-1,-1,-1,-1,-1,-1,-1,-1],"split_conditions":[1.102222E-1,6.1249394E-2,1.2608646E-1,-6.887549E-5,1.05368264E-1,1.2741835E-1,1.2885326E-1,1.0024688E-1,2.1313828E-1,1.8935079E-2,1.2651068E-1,1.1154051E-4,5.8779162E-5,3.1445763E-1,1.168833E-1,-4.596752E-5,2.9825373E-5,-3.502385E-5,1.1165752E-1,-3.866166E-5,1.0380191E-5,8.323286E-2,3.274502E-1,1.0389656E-1,8.299337E-2,1.18027836E-1,1.0783851E-1,-5.4939268E-5,5.6736794E-6,2.2332393E-5,-2.8379134E-5,-3.199884E-5,7.766524E-5,-3.4005003E-5,1.9397501E-5,1.4974791E-4,5.0862414E-5,-3.9462586E-5,2.507652E-5],"split_indices":[3,3,3,0,2,4,3,8,0,0,6,0,0,0,7,0,0,0,0,0,0,9,0,5,2,5,2,0,0,0,0,0,0,0,0,0,0,0,0],"split_type":[0,0,0,0,0,0,0,0,0,0,0,0,0,0,0,0,0,0,0,0,0,0,0,0,0,0,0,0,0,0,0,0,0,0,0,0,0,0,0],"sum_hessian":[1.45E2,8.5E1,6E1,1E1,7.5E1,4.6E1,1.4E1,6.8E1,7E0,3.2E1,1.4E1,7E0,7E0,3.4E1,3.4E1,1E0,6E0,3E0,2.9E1,5E0,9E0,1.9E1,1.5E1,7E0,2.7E1,1.8E1,1.1E1,1.7E1,2E0,2E0,1.3E1,2E0,5E0,2.5E1,2E0,3E0,1.5E1,2E0,9E0],"tree_param":{"num_deleted":"0","num_feature":"12","num_nodes":"39","size_leaf_vector":"1"}},{"base_weights":[-3.540168E-5,-3.6682328E-4,9.687772E-4,