{"learner":{"attributes":{"scikit_learn":"{\"_estimator_type\": \"regressor\"}"},"feature_names":[],"feature_types":[],"gradient_booster":{"model":{"gbtree_model_param":{"num_parallel_tree":"1","num_trees":"300"},"iteration_indptr":[0,1,2,3,4,5,6,7,8,9,10,11,12,13,14,15,16,17,18,19,20,21,22,23,24,25,26,27,28,29,30,31,32,33,34,35,36,37,38,39,40,41,42,43,44,45,46,47,48,49,50,51,52,53,54,55,56,57,58,59,60,61,62,63,64,65,66,67,68,69,70,71,72,73,74,75,76,77,78,79,80,81,82,83,84,85,86,87,88,89,90,91,92,93,94,95,96,97,98,99,100,101,102,103,104,105,106,107,108,109,110,111,112,113,114,115,116,117,118,119,120,121,122,123,124,125,126,127,128,129,130,131,132,133,134,135,136,137,138,139,140,141,142,143,144,145,146,147,148,149,150,151,152,153,154,155,156,157,158,159,160,161,162,163,164,165,166,167,168,169,170,171,172,173,174,175,176,177,178,179,180,181,182,183,184,185,186,187,188,189,190,191,192,193,194,195,196,197,198,199,200,201,202,203,204,205,206,207,208,209,210,211,212,213,214,215,216,217,218,219,220,221,222,223,224,225,226,227,228,229,230,231,232,233,234,235,236,237,238,239,240,241,242,243,244,245,246,247,248,249,250,251,252,253,254,255,256,257,258,259,260,261,262,263,264,265,266,267,268,269,270,271,272,273,274,275,276,277,278,279,280,281,282,283,284,285,286,287,288,289,290,291,292,293,294,295,296,297,298,299,300],"tree_info":[0,0,0,0,0,0,0,0,0,0,0,0,0,0,0,0,0,0,0,0,0,0,0,0,0,0,0,0,0,0,0,0,0,0,0,0,0,0,0,0,0,0,0,0,0,0,0,0,0,0,0,0,0,0,0,0,0,0,0,0,0,0,0,0,0,0,0,0,0,0,0,0,0,0,0,0,0,0,0,0,0,0,0,0,0,0,0,0,0,0,0,0,0,0,0,0,0,0,0,0,0,0,0,0,0,0,0,0,0,0,0,0,0,0,0,0,0,0,0,0,0,0,0,0,0,0,0,0,0,0,0,0,0,0,0,0,0,0,0,0,0,0,0,0,0,0,0,0,0,0,0,0,0,0,0,0,0,0,0,0,0,0,0,0,0,0,0,0,0,0,0,0,0,0,0,0,0,0,0,0,0,0,0,0,0,0,0,0,0,0,0,0,0,0,0,0,0,0,0,0,0,0,0,0,0,0,0,0,0,0,0,0,0,0,0,0,0,0,0,0,0,0,0,0,0,0,0,0,0,0,0,0,0,0,0,0,0,0,0,0,0,0,0,0,0,0,0,0,0,0,0,0,0,0,0,0,0,0,0,0,0,0,0,0,0,0,0,0,0,0,0,0,0,0,0,0,0,0,0,0,0,0,0,0,0,0,0,0,0,0,0,0,0,0,0,0,0,0,0,0],"trees":[{"base_weights":[-8.6514294E-5,-2.142665E-3,2.2367006E-2,-4.1729603E-3,1.2298727E-3,3.8457446E-2,5.3799166E-3,-5.6151645E-3,-2.7343296E-3,2.718386E-3,-1.5673945E-3,6.7129405E-4,2.380838E-3,3.0869732E-4,1.5393505E-5,-2.8757405E-4,-1.00838624E-4,-2.836401E-3,3.8817096E-5,1.1465297E-3,5.048432E-3,-1.981169E-3,1.880543E-5,-2.18548E-4,-2.5108943E-3,2.065963E-3,-6.0579495E-4,5.392354E-3,2.303411E-5,-2.2463156E-3,-8.590519E-6,-1.6507681E-4,-9.72533E-5,1.4077425E-4,-8.103898E-5,-1.268653E-5,-7.6756136E-5,6.4714455E-5,2.8236216E-4,-5.941059E-5,-1.2922802E-4],"categories":[],"categories_nodes":[],"categories_segments":[],"categories_sizes":[],"default_left":[0,0,0,0,0,0,0,0,0,0,0,0,0,0,0,0,0,0,0,0,0,0,0,0,0,0,0,0,0,0,0,0,0,0,0,0,0,0,0,0,0],"id":0,"left_children":[1,3,5,7,9,11,13,15,17,19,21,-1,-1,-1,-1,-1,-1,23,-1,25,27,29,-1,-1,31,33,35,37,-1,39,-1,-1,-1,-1,-1,-1,-1,-1,-1,-1,-1],"loss_changes":[6.603756E-3,9.0212165E-4,3.0730586E-3,1.5477976E-4,2.1244925E-4,7.3633436E-4,2.6290712E-5,8.021365E-6,1.761064E-5,1.1507425E-4,1.5220234E-5,0E0,0E0,0E0,0E0,0E0,0E0,1.0004354E-5,0E0,3.5085606E-5,1.8027582E-5,6.8102345E-6,0E0,0E0,1.0130898E-5,4.3249413E-5,2.2279582E-6,5.2254763E-6,0E0,1.5816768E-6,0E0,0E0,0E0,0E0,0E0,0E0,0E0,0E0,0E0,0E0,0E0],"parents":[2147483647,0,0,1,1,2,2,3,3,4,4,5,5,6,6,7,7,8,8,9,9,10,10,17,17,19,19,20,20,21,21,24,24,25,25,26,26,27,27,29,29],"right_children":[2,4,6,8,10,12,14,16,18,20,22,-1,-1,-1,-1,-1,-1,24,-1,26,28,30,-1,-1,32,34,36,38,-1,40,-1,-1,-1,-1,-1,-1,-1,-1,-1,-1,-1],"split_conditions":[1.19086675E-1,1.102222E-1,1.2813342E-1,9.349356E-2,8.759705E-2,1.0729986E-1,1.1117957E-1,1.0391452E-1,7.158219E-2,1.0463585E-1,2.6296275E-2,6.7129405E-4,2.380838E-3,3.0869732E-4,1.5393505E-5,-2.8757405E-4,-1.00838624E-4,6.211913E-2,3.8817096E-5,7.082428E-2,7.3891446E-2,2.0987695E-1,1.880543E-5,-2.18548E-4,3.7170123E-2,4.352263E-2,4.680246E-2,4.6940446E-2,2.303411E-5,1.0765452E-1,-8.590519E-6,-1.6507681E-4,-9.72533E-5,1.4077425E-4,-8.103898E-5,-1.268653E-5,-7.6756136E-5,6.4714455E-5,2.8236216E-4,-5.941059E-5,-1.2922802E-4],"split_indices":[2,3,3,4,0,0,1,2,10,2,10,0,0,0,0,0,0,2,0,9,1,0,0,0,10,0,10,1,0,2,0,0,0,0,0,0,0,0,0,0,0],"split_type":[0,0,0,0,0,0,0,0,0,0,0,0,0,0,0,0,0,0,0,0,0,0,0,0,0,0,0,0,0,0,0,0,0,0,0,0,0,0,0,0,0],"sum_hessian":[1.41E2,1.3E2,1.1E1,8.1E1,4.9E1,5E0,6E0,3.9E1,4.2E1,3.2E1,1.7E1,2E0,3E0,5E0,1E0,3.7E1,2E0,4.1E1,1E0,2E1,1.2E1,1.4E1,3E0,5E0,3.6E1,1.3E1,7E0,1.1E1,1E0,1.2E1,2E0,1.3E1,2.3E1,1.1E1,2E0,6E0,1E0,1E0,1E1,4E0,8E0],"tree_param":{"num_deleted":"0","num_feature":"12","num_nodes":"41","size_leaf_vector":"1"}},{"base_weights":[3.0356552E-4,-1.3237477E-3,3.6053862E-2,-2.291837E-3,9.533583E-3,2.0962397E-3,2.6254307E-3,-4.149574E-3,3.7578857E-4,1.0575552E-3,6.2567205E-3,1.5008671E-5,1.4220932E-4,-2.9243494E-4,-2.8676365E-3,1.8889131E-3,-1.1517893E-3,3.316842E-4,7.160136E-5,-3.8030678E-3,-1.888867E-3,3.4684788E-3,2.8725102E-4,-1.5996378E-3,2.9231928E-4,-4.2076863E-5,-1.9545337E-4,-1.3343933E-4,-1.8956349E-5,2.1122687E-4,9.4116054E-5,-4.1667747E-5,6.159374E-5,-9.145628E-5,6.9015674E-5,4.0750627E-5,-1.5172688E-5],"categories":[],"categories_nodes":[],"categories_segments":[],"categories_sizes":[],"default_left":[0,0,0,0,0,0,0,0,0,0,0,0,0,0,0,0,0,0,0,0,0,0,0,0,0,0,0,0,0,0,0,0,0,0,0,0,0],"id":1,"left_children":[1,3,5,7,9,11,-1,13,15,-1,17,-1,-1,-1,19,21,23,-1,-1,25,27,29,31,33,35,-1,-1,-1,-1,-1,-1,-1,-1,-1,-1,-1,-1],"loss_changes":[8.017966E-3,1.4092836E-3,3.242515E-3,6.0616044E-4,2.8642267E-4,3.1763338E-6,0E0,1.4005648E-4,1.2005782E-4,0E0,8.687668E-6,0E0,0E0,0E0,3.218607E-5,6.478188E-5,1.7282895E-5,0E0,0E0,3.3027027E-6,2.6070134E-5,7.638024E-6,1.5846303E-5,1.6201997E-5,2.4271644E-6,0E0,0E0,0E0,0E0,0E0,0E0,0E0,0E0,0E0,0E0,0E0,0E0],"parents":[2147483647,0,0,1,1,2,2,3,3,4,4,5,5,7,7,8,8,10,10,14,14,15,15,16,16,19,19,20,20,21,21,22,22,23,23,24,24],"right_children":[2,4,6,8,10,12,-1,14,16,-1,18,-1,-1,-1,20,22,24,-1,-1,26,28,30,32,34,36,-1,-1,-1,-1,-1,-1,-1,-1,-1,-1,-1,-1],"split_conditions":[1.2831107E-1,1.14778385E-1,1.2960249E-1,1.06939375E-1,1.16386436E-1,1.1394229E-1,2.6254307E-3,8.038962E-2,4.9476568E-2,1.0575552E-3,8.759705E-2,1.5008671E-5,1.4220932E-4,-2.9243494E-4,4.7052722E-2,8.952957E-2,1.5620977E-2,3.316842E-4,7.160136E-5,4.194443E-3,7.53445E-2,1.0763224E-1,8.923236E-2,1.2475065E-1,1.1292658E-1,-4.2076863E-5,-1.9545337E-4,-1.3343933E-4,-1.8956349E-5,2.1122687E-4,9.4116054E-5,-4.1667747E-5,6.159374E-5,-9.145628E-5,6.9015674E-5,4.0750627E-5,-1.5172688E-5],"split_indices":[2,2,0,3,5,0,0,3,0,0,0,0,0,0,10,8,11,0,0,0,2,7,2,3,3,0,0,0,0,0,0,0,0,0,0,0,0],"split_type":[0,0,0,0,0,0,0,0,0,0,0,0,0,0,0,0,0,0,0,0,0,0,0,0,0,0,0,0,0,0,0,0,0,0,0,0,0],"sum_hessian":[1.36E2,1.31E2,5E0,1.21E2,1E1,2E0,3E0,7.1E1,5E1,1E0,9E0,1E0,1E0,2.9E1,4.2E1,2.5E1,2.5E1,8E0,1E0,2E1,2.2E1,1.2E1,1.3E1,1.9E1,6E0,1E0,1.9E1,1.4E1,8E0,7E0,5E0,6E0,7E0,1.8E1,1E0,3E0,3E0],"tree_param":{"num_deleted":"0","num_feature":"12","num_nodes":"37","size_leaf_vector":"1"}},{"base_weights":[-8.846105E-4,-2.203076E-3,9.1722505E-3,-4.849881E-3,-5.747236E-4,4.301643E-3,1.41139785E-2,-5.269461E-3,-1.4606908E-4,-1.42802E-3,2.0992314E-3,2.357283E-4,1.4633452E-5,2.2228473E-4,9.5129054E-4,-2.6754278E-4,-5.4411426E-5,-3.6650635E-3,-8.7365636E-4,4.639789E-3,3.74332E-4,-2.1301855E-4,-9.897795E-5,5.468867E-4,-1.5386728E-3,2.5962395E-4,9.939059E-5,-5.335624E-4,9.6683776E-5,-2.7640766E-5,1.3275715E-4,-1.2133728E-4,-5.1526255E-5,-8.276612E-5,1.5160232E-5],"categories":[],"categories_nodes":[],"categories_segments":[],"categories_sizes":[],"default_left":[0,0,0,0,0,0,0,0,0,0,0,0,0,0,0,0,0,0,0,0,0,0,0,0,0,0,0,0,0,0,0,0,0,0,0],"id":2,"left_children":[1,3,5,7,9,11,13,15,-1,17,19,-1,-1,-1,-1,-1,-1,21,23,25,27,-1,-1,29,31,-1,-1,33,-1,-1,-1,-1,-1,-1,-1],"loss_changes":[1.9428523E-3,5.531939E-4,3.4846342E-4,2.4254667E-5,1.8781351E-4,1.5174155E-5,2.953289E-4,7.4499985E-6,0E0,7.368639E-5,8.5907304E-5,0E0,0E0,0E0,0E0,0E0,0E0,3.607056E-6,4.902039E-5,1.4041143E-6,1.9436087E-5,0E0,0E0,4.0881518E-5,1.3293706E-5,0E0,0E0,8.949768E-6,0E0,0E0,0E0,0E0,0E0,0E0,0E0],"parents":[2147483647,0,0,1,1,2,2,3,3,4,4,5,5,6,6,7,7,9,9,10,10,17,17,18,18,19,19,20,20,23,23,24,24,27,27],"right_children":[2,4,6,8,10,12,14,16,-1,18,20,-1,-1,-1,-1,-1,-1,22,24,26,28,-1,-1,30,32,-1,-1,34,-1,-1,-1,-1,-1,-1,-1],"split_conditions":[1.14778385E-1,9.8038845E-2,9.219601E-3,9.290186E-2,1.2678203E-1,1.1117957E-1,6.681729E-2,1.0391452E-1,-1.4606908E-4,2.372087E-2,1.2549803E-1,2.357283E-4,1.4633452E-5,2.2228473E-4,9.5129054E-4,-2.6754278E-4,-5.4411426E-5,1.3398561E-1,3.832378E-2,6.0099978E-2,1.3310151E-1,-2.1301855E-4,-9.897795E-5,3.323966E-2,1.0200929E-1,2.5962395E-4,9.939059E-5,1.5200618E-2,9.6683776E-5,-2.7640766E-5,1.3275715E-4,-1.2133728E-4,-5.1526255E-5,-8.276612E-5,1.5160232E-5],"split_indices":[2,4,11,4,4,1,0,2,0,1,6,0,0,0,0,0,0,5,0,1,4,0,0,0,6,0,0,11,0,0,0,0,0,0,0],"split_type":[0,0,0,0,0,0,0,0,0,0,0,0,0,0,0,0,0,0,0,0,0,0,0,0,0,0,0,0,0,0,0,0,0,0,0],"sum_hessian":[1.44E2,1.28E2,1.6E1,4.8E1,8E1,9E0,7E0,3.8E1,1E1,6.1E1,1.9E1,8E0,1E0,3E0,4E0,3.7E1,1E0,1.1E1,5E1,7E0,1.2E1,7E0,4E0,1.6E1,3.4E1,5E0,2E0,8E0,4E0,1.1E1,5E0,1.1E1,2.3E1,3E0,5E0],"tree_param":{"num_deleted":"0","num_feature":"12","num_nodes":"35","size_leaf_vector":"1"}},{"base_weights":[4.0716396E-4,-1.878871E-3,2.242199E-2,-3.5275747E-3,1.3876987E-3,1.02233505E-2,2.5181375E-3,-2.6128313E-4,-2.5467884E-3,2.813662E-3,-9.867809E-4,9.6478296E-4,4.4092783E-3,-2.6947493E-3,5.5669923E-5,7.909195E-4,4.648827E-3,-1.1952224E-3,6.3918116E-5,2.478823E-4,1.4267617E-5,-1.9386002E-4,-2.3606704E-3,-8.4724306E-4,1.4636371E-3,5.2056387E-3,9.080924E-5,-1.5650695E-3,1.9902405E-5,-1.471528E-4,-5.7990535E-5,-1.5109661E-5,-7.568606E-5,-2.4158724E-5,9.7497395E-5,6.4805514E-5,2.7216112E-4,-9.099296E-5,-1.2110453E-6],"categories":[],"categories_nodes":[],"categories_segments":[],"categories_sizes":[],"default_left":[0,0,0,0,0,0,0,0,0,0,0,0,0,0,0,0,0,0,0,0,0,0,0,0,0,0,0,0,0,0,0,0,0,0,0,0,0,0,0],"id":3,"left_children":[1,3,5,7,9,11,-1,-1,13,15,17,-1,19,21,-1,23,25,27,-1,-1,-1,-1,29,31,33,35,-1,37,-1,-1,-1,-1,-1,-1,-1,-1,-1,-1,-1],"loss_changes":[7.490474E-3,7.3195185E-4,4.256873E-3,1.36583E-4,1.5852881E-4,4.9513765E-4,0E0,0E0,3.4952653E-5,1.03973056E-4,1.0026624E-5,0E0,1.6676742E-5,1.3364042E-5,0E0,1.777037E-5,1.4204357E-5,1.0640502E-5,0E0,0E0,0E0,0E0,2.9456656E-5,1.3588829E-6,1.13564765E-5,4.091038E-6,0E0,5.4522134E-6,0E0,0E0,0E0,0E0,0E0,0E0,0E0,0E0,0E0,0E0,0E0],"parents":[2147483647,0,0,1,1,2,2,3,3,4,4,5,5,8,8,9,9,10,10,12,12,13,13,15,15,16,16,17,17,22,22,23,23,24,24,25,25,27,27],"right_children":[2,4,6,8,10,12,-1,-1,14,16,18,-1,20,22,-1,24,26,28,-1,-1,-1,-1,30,32,34,36,-1,38,-1,-1,-1,-1,-1,-1,-1,-1,-1,-1,-1],"split_conditions":[1.19086675E-1,1.102222E-1,1.401543E-1,8.038962E-2,8.759705E-2,1.276437E-1,2.5181375E-3,-2.6128313E-4,7.158219E-2,1.02148145E-1,1.14778385E-1,9.6478296E-4,1.1117957E-1,8.709495E-2,5.5669923E-5,3.5873853E-2,1.2549803E-1,2.6296275E-2,6.3918116E-5,2.478823E-4,1.4267617E-5,-1.9386002E-4,2.7278792E-2,3.489227E-2,1.2459145E-1,4.6932403E-2,9.080924E-5,2.0987695E-1,1.9902405E-5,-1.471528E-4,-5.7990535E-5,-1.5109661E-5,-7.568606E-5,-2.4158724E-5,9.7497395E-5,6.4805514E-5,2.7216112E-4,-9.099296E-5,-1.2110453E-6],"split_indices":[2,3,0,3,0,3,0,0,10,2,2,0,1,3,0,1,6,10,0,0,0,0,11,1,6,9,0,0,0,0,0,0,0,0,0,0,0,0,0],"split_type":[0,0,0,0,0,0,0,0,0,0,0,0,0,0,0,0,0,0,0,0,0,0,0,0,0,0,0,0,0,0,0,0,0,0,0,0,0,0,0],"sum_hessian":[1.47E2,1.34E2,1.3E1,8.9E1,4.5E1,1E1,3E0,3.1E1,5.8E1,2.8E1,1.7E1,3E0,7E0,5.6E1,2E0,1.4E1,1.4E1,1.6E1,1E0,6E0,1E0,1E1,4.6E1,4E0,1E1,1.1E1,3E0,1.3E1,3E0,3E1,1.6E1,3E0,1E0,2E0,8E0,1E0,1E1,1.1E1,2E0],"tree_param":{"num_deleted":"0","num_feature":"12","num_nodes":"39","size_leaf_vector":"1"}},{"base_weights":[-3.1485333E-4,-2.170062E-3,1.3410569E-2,-4.3774433E-3,-6.529538E-4,2.1710617E-3,6.9454093E-3,-2.5371133E-4,-3.2176818E-3,-1.3282232E-3,1.746764E-3,9.832145E-4,4.7865314E-3,-6.623385E-5,-1.7176993E-4,-3.5794487E-3,-9.356913E-4,-1.1152447E-3,3.2707057E-3,5.088681E-3,1.39109325E-5,-1.8914531E-4,-4.8794656E-5,-2.0866387E-3,-3.6588227E-4,-1.0917755E-4,5.1850686E-5,9.100121E-4,2.4134568E-4,9.749317E-5,5.767462E-3,-1.9466039E-5,-1.13723545E-4,-4.920523E-5,3.2383286E-5,-1.954086E-5,6.241707E-5,1.7965454E-4,3.4902946E-4],"categories":[],"categories_nodes":[],"categories_segments":[],"categories_sizes":[],"default_left":[0,0,0,0,0,0,0,0,0,0,0,0,0,0,0,0,0,0,0,0,0,0,0,0,0,0,0,0,0,0,0,0,0,0,0,0,0,0,0],"id":4,"left_children":[1,3,5,7,9,-1,11,-1,13,15,17,-1,19,-1,-1,21,23,25,27,29,-1,-1,-1,31,33,-1,-1,35,-1,-1,37,-1,-1,-1,-1,-1,-1,-1,-1],"loss_changes":[3.8486302E-3,4.4253707E-4,3.1908497E-3,2.731022E-5,1.3195656E-4,0E0,3.452124E-4,0E0,4.928399E-6,5.232243E-5,8.215524E-5,0E0,1.9016996E-5,0E0,0E0,1.075714E-6,3.5306646E-5,1.8359271E-5,3.9692226E-5,1.8582185E-5,0E0,0E0,0E0,4.853093E-6,2.4448094E-5,0E0,0E0,3.1285253E-6,0E0,0E0,3.93379E-6,0E0,0E0,0E0,0E0,0E0,0E0,0E0,0E0],"parents":[2147483647,0,0,1,1,2,2,3,3,4,4,6,6,8,8,9,9,10,10,12,12,15,15,16,16,17,17,18,18,19,19,23,23,24,24,27,27,30,30],"right_children":[2,4,6,8,10,-1,12,-1,14,16,18,-1,20,-1,-1,22,24,26,28,30,-1,-1,-1,32,34,-1,-1,36,-1,-1,38,-1,-1,-1,-1,-1,-1,-1,-1],"split_conditions":[1.2475065E-1,9.8317005E-2,6.878624E-2,8.669253E-2,1.185883E-1,2.1710617E-3,1.2476093E-1,-2.5371133E-4,3.4145182E-3,1.891806E-2,2.2311317E-2,9.832145E-4,1.1117957E-1,-6.623385E-5,-1.7176993E-4,9.67568E-2,1.5200618E-2,7.263952E-2,5.0332088E-2,5.3117715E-2,1.39109325E-5,-1.8914531E-4,-4.8794656E-5,1.01843886E-1,1.085616E-1,-1.0917755E-4,5.1850686E-5,4.1141503E-2,2.4134568E-4,9.749317E-5,1.9433713E-2,-1.9466039E-5,-1.13723545E-4,-4.920523E-5,3.2383286E-5,-1.954086E-5,6.241707E-5,1.7965454E-4,3.4902946E-4],"split_indices":[3,4,7,4,3,0,3,0,11,1,10,0,1,0,0,3,11,1,1,1,0,0,0,4,3,0,0,1,0,0,10,0,0,0,0,0,0,0,0],"split_type":[0,0,0,0,0,0,0,0,0,0,0,0,0,0,0,0,0,0,0,0,0,0,0,0,0,0,0,0,0,0,0,0,0,0,0,0,0,0,0],"sum_hessian":[1.49E2,1.32E2,1.7E1,5.3E1,7.9E1,2E0,1.5E1,3.1E1,2.2E1,6.2E1,1.7E1,1E0,1.4E1,3E0,1.9E1,8E0,5.4E1,6E0,1.1E1,1.3E1,1E0,7E0,1E0,1.7E1,3.7E1,4E0,2E0,5E0,6E0,3E0,1E1,2E0,1.5E1,2.3E1,1.4E1,1E0,4E0,5E0,5E0],"tree_param":{"num_deleted":"0","num_feature":"12","num_nodes":"39","size_leaf_vector":"1"}},{"base_weights":[2.2431281E-4,-1.4420492E-3,1.8674465E-2,-3.259215E-3,1.4512131E-3,3.30881E-2,3.6521428E-3,-2.3558359E-4,-1.9602687E-3,2.4838897E-3,-8.209969E-4,5.710274E-4,2.053337E-3,2.085206E-4,1.3563165E-5,-2.1288223E-3,5.5454435E-5,1.2507654E-3,4.1268794E-3,-1.0248689E-3,6.102389E-5,-1.311665E-4,-1.7045931E-3,2.2864398E-3,4.9563445E-4,1.5511947E-3,4.6415343E-3,-1.3717875E-3,1.7941686E-5,-1.3074173E-4,-2.9660527E-5,-9.305915E-6,1.5097366E-4,-6.666269E-5,4.557768E-5,1.4159596E-5,9.397325E-5,1.5885015E-4,3.028239E-4,-8.177474E-5,2.6201053E-6],"categories":[],"categories_nodes":[],"categories_segments":[],"categories_sizes":[],"default_left":[0,0,0,0,0,0,0,0,0,0,0,0,0,0,0,0,0,0,0,0,0,0,0,0,0,0,0,0,0,0,0,0,0,0,0,0,0,0,0,0,0],"id":5,"left_children":[1,3,5,7,9,11,13,-1,15,17,19,-1,-1,-1,-1,21,-1,23,25,27,-1,-1,29,31,33,35,37,39,-1,-1,-1,-1,-1,-1,-1,-1,-1,-1,-1,-1,-1],"loss_changes":[4.454157E-3,7.039823E-4,2.4774722E-3,1.4547026E-4,1.240551E-4,5.6826044E-4,1.1134165E-5,0E0,2.5641843E-5,6.7774614E-5,8.326223E-6,0E0,0E0,0E0,0E0,4.549045E-6,0E0,1.6072296E-5,1.2683886E-5,8.172758E-6,0E0,0E0,2.4751142E-5,1.6874194E-5,1.1864706E-5,1.132742E-6,5.625334E-6,4.9681057E-6,0E0,0E0,0E0,0E0,0E0,0E0,0E0,0E0,0E0,0E0,0E0,0E0,0E0],"parents":[2147483647,0,0,1,1,2,2,3,3,4,4,5,5,6,6,8,8,9,9,10,10,15,15,17,17,18,18,19,19,22,22,23,23,24,24,25,25,26,26,27,27],"right_children":[2,4,6,8,10,12,14,-1,16,18,20,-1,-1,-1,-1,22,-1,24,26,28,-1,-1,30,32,34,36,38,40,-1,-1,-1,-1,-1,-1,-1,-1,-1,-1,-1,-1,-1],"split_conditions":[1.19086675E-1,1.09611124E-1,1.2813342E-1,9.349356E-2,8.759705E-2,1.0729986E-1,1.3639875E-1,-2.3558359E-4,7.158219E-2,1.0463585E-1,1.14778385E-1,5.710274E-4,2.053337E-3,2.085206E-4,1.3563165E-5,7.53445E-2,5.5454435E-5,1.2923032E-1,2.09407E-2,2.6019393E-2,6.102389E-5,-1.311665E-4,3.7170123E-2,1.8935079E-2,1.2651068E-1,1.1302715E-1,1.094793E-1,2.0987695E-1,1.7941686E-5,-1.3074173E-4,-2.9660527E-5,-9.305915E-6,1.5097366E-4,-6.666269E-5,4.557768E-5,1.4159596E-5,9.397325E-5,1.5885015E-4,3.028239E-4,-8.177474E-5,2.6201053E-6],"split_indices":[2,3,3,4,0,0,2,0,10,2,2,0,0,0,0,2,0,5,10,10,0,0,10,0,6,2,2,0,0,0,0,0,0,0,0,0,0,0,0,0,0],"split_type":[0,0,0,0,0,0,0,0,0,0,0,0,0,0,0,0,0,0,0,0,0,0,0,0,0,0,0,0,0,0,0,0,0,0,0,0,0,0,0,0,0],"sum_hessian":[1.43E2,1.32E2,1.1E1,8.1E1,5.1E1,5E0,6E0,3.7E1,4.4E1,3.5E1,1.6E1,2E0,3E0,5E0,1E0,4.2E1,2E0,2.1E1,1.4E1,1.5E1,1E0,1.7E1,2.5E1,8E0,1.3E1,3E0,1.1E1,1.2E1,3E0,1.3E1,1.2E1,2E0,6E0,2E0,1.1E1,1E0,2E0,7E0,4E0,1E1,2E0],"tree_param":{"num_deleted":"0","num_feature":"12","num_nodes":"41","size_leaf_vector":"1"}},{"base_weights":[-2.6468088E-5,-1.5979983E-3,2.1191837E-2,-2.9927194E-3,1.0770692E-3,3.2635417E-2,3.2211742E-3,-2.2548402E-4,-2.1041767E-3,-1.4328617E-3,1.8837942E-3,5.5199314E-4,2.0336614E-3,1.9471136E-4,1.3224082E-5,-2.236761E-3,5.3605956E-5,-1.7794792E-3,5.949829E-5,1.3066188E-3,2.600479E-4,-2.9806835E-3,-1.7406738E-3,-1.7474149E-5,-2.0584248E-3,-4.7152844E-5,1.6616817E-3,-1.5509101E-4,-1.3948756E-5,-1.2790352E-4,-3.3831904E-5,-1.1019203E-4,-2.2377459E-5,-1.2324071E-5,1.0966468E-4],"categories":[],"categories_nodes":[],"categories_segments":[],"categories_sizes":[],"default_left":[0,0,0,0,0,0,0,0,0,0,0,0,0,0,0,0,0,0,0,0,0,0,0,0,0,0,0,0,0,0,0,0,0,0,0],"id":6,"left_children":[1,3,5,7,9,11,13,-1,15,17,19,-1,-1,-1,-1,21,-1,23,-1,25,-1,27,29,-1,31,-1,33,-1,-1,-1,-1,-1,-1,-1,-1],"loss_changes":[4.8355744E-3,5.069047E-4,1.9513629E-3,1.1047255E-4,9.786594E-5,5.92459E-4,8.920102E-6,0E0,2.68234E-5,1.30269345E-5,6.21294E-5,0E0,0E0,0E0,0E0,1.5478436E-5,0E0,3.6684141E-6,0E0,2.7127902E-5,0E0,6.0074526E-6,2.9579722E-5,0E0,1.1218945E-6,0E0,2.8943861E-5,0E0,0E0,0E0,0E0,0E0,0E0,0E0,0E0],"parents":[2147483647,0,0,1,1,2,2,3,3,4,4,5,5,6,6,8,8,9,9,10,10,15,15,17,17,19,19,21,21,22,22,24,24,26,26],"right_children":[2,4,6,8,10,12,14,-1,16,18,20,-1,-1,-1,-1,22,-1,24,-1,26,-1,28,30,-1,32,-1,34,-1,-1,-1,-1,-1,-1,-1,-1],"split_conditions":[1.19086675E-1,1.102222E-1,1.2885326E-1,7.99353E-2,6.739064E-2,8.184713E-2,1.1117957E-1,-2.2548402E-4,7.158219E-2,1.14778385E-1,1.136631E-1,5.5199314E-4,2.0336614E-3,1.9471136E-4,1.3224082E-5,1.0389656E-1,5.3605956E-5,1.0765452E-1,5.949829E-5,3.7915207E-2,2.600479E-4,1.0906399E-1,7.53445E-2,-1.7474149E-5,9.9635415E-2,-4.7152844E-5,7.5778045E-2,-1.5509101E-4,-1.3948756E-5,-1.2790352E-4,-3.3831904E-5,-1.1019203E-4,-2.2377459E-5,-1.2324071E-5,1.0966468E-4],"split_indices":[2,3,3,3,8,1,1,0,10,2,2,0,0,0,0,5,0,2,0,1,0,2,2,0,1,0,8,0,0,0,0,0,0,0,0],"split_type":[0,0,0,0,0,0,0,0,0,0,0,0,0,0,0,0,0,0,0,0,0,0,0,0,0,0,0,0,0,0,0,0,0,0,0],"sum_hessian":[1.43E2,1.34E2,9E0,8.8E1,4.6E1,5E0,4E0,3.1E1,5.7E1,1.1E1,3.5E1,2E0,3E0,3E0,1E0,5.5E1,2E0,1E1,1E0,3.1E1,4E0,2E1,3.5E1,2E0,8E0,4E0,2.7E1,1.9E1,1E0,1.9E1,1.6E1,7E0,1E0,6E0,2.1E1],"tree_param":{"num_deleted":"0","num_feature":"12","num_nodes":"35","size_leaf_vector":"1"}},{"base_weights":[1.0318763E-4,-1.2626746E-3,3.6687657E-2,-2.937653E-3,2.0054942E-3,1.11991634E-4,2.2369828E-3,-2.1506252E-4,-1.974187E-3,1.0337249E-3,5.400491E-3,-2.1099087E-3,5.181909E-5,-9.1063435E-4,1.7875852E-3,1.20468976E-4,6.3381987E-3,-2.7067089E-3,-1.6842749E-3,-1.2337411E-3,5.8010828E-5,-4.526673E-5,2.2952815E-3,7.983884E-5,3.431153E-4,-1.5601395E-4,-8.481597E-5,-1.2136202E-4,-4.211173E-5,1.6973275E-6,-7.774532E-5,1.4301804E-4,4.3910633E-5],"categories":[],"categories_nodes":[],"categories_segments":[],"categories_sizes":[],"default_left":[0,0,0,0,0,0,0,0,0,0,0,0,0,0,0,0,0,0,0,0,0,0,0,0,0,0,0,0,0,0,0,0,0],"id":7,"left_children":[1,3,5,7,9,-1,-1,-1,11,13,15,17,-1,19,21,-1,23,25,27,29,-1,-1,31,-1,-1,-1,-1,-1,-1,-1,-1,-1,-1],"loss_changes":[6.9420943E-3,7.3942245E-4,1.2866599E-3,1.08434935E-4,1.4617843E-4,0E0,0E0,0E0,2.4251014E-5,5.5861514E-5,1.2776756E-5,8.650124E-6,0E0,8.791571E-6,3.8991995E-5,0E0,6.4375345E-6,3.0643423E-6,1.8600716E-5,4.1241565E-6,0E0,0E0,1.5905389E-5,0E0,0E0,0E0,0E0,0E0,0E0,0E0,0E0,0E0,0E0],"parents":[2147483647,0,0,1,1,2,2,3,3,4,4,8,8,9,9,10,10,11,11,13,13,14,14,16,16,17,17,18,18,19,19,22,22],"right_children":[2,4,6,8,10,-1,-1,-1,12,14,16,18,-1,20,22,-1,24,26,28,30,-1,-1,32,-1,-1,-1,-1,-1,-1,-1,-1,-1,-1],"split_conditions":[1.2831107E-1,1.102222E-1,1.2960249E-1,8.0633454E-2,1.2608646E-1,1.11991634E-4,2.2369828E-3,-2.1506252E-4,7.130139E-2,7.645845E-2,2.0108685E-2,1.5200618E-2,5.181909E-5,1.14778385E-1,3.7915207E-2,1.20468976E-4,5.3117715E-2,1.0425726E-1,7.6983705E-2,1.1323433E-1,5.8010828E-5,-4.526673E-5,1.3056225E-1,7.983884E-5,3.431153E-4,-1.5601395E-4,-8.481597E-5,-1.2136202E-4,-4.211173E-5,1.6973275E-6,-7.774532E-5,1.4301804E-4,4.3910633E-5],"split_indices":[2,3,0,3,3,0,0,0,10,8,10,11,0,2,1,0,1,2,2,3,0,0,5,0,0,0,0,0,0,0,0,0,0],"split_type":[0,0,0,0,0,0,0,0,0,0,0,0,0,0,0,0,0,0,0,0,0,0,0,0,0,0,0,0,0,0,0,0,0],"sum_hessian":[1.37E2,1.33E2,4E0,8.8E1,4.5E1,1E0,3E0,3.5E1,5.3E1,3.6E1,9E0,5.1E1,2E0,1E1,2.6E1,3E0,6E0,1.9E1,3.2E1,9E0,1E0,4E0,2.2E1,1E0,5E0,1.2E1,7E0,1.6E1,1.6E1,2E0,7E0,1.5E1,7E0],"tree_param":{"num_deleted":"0","num_feature":"12","num_nodes":"33","size_leaf_vector":"1"}},{"base_weights":[1.4450087E-4,-1.1643916E-3,2.9788647E-2,-1.827187E-3,6.533483E-3,1.0807007E-4,2.153096E-3,-1.9964487E-4,-7.7345077E-4,1.8049753E-4,9.319732E-3,-1.6881827E-3,2.2503472E-4,5.54203E-4,5.656056E-5,-1.8717617E-3,3.3072116E-5,-1.2327968E-3,1.3697748E-3,-1.3107865E-4,-7.0161426E-5,-6.971847E-5,4.685678E-6,2.7983207E-5,1.4600191E-4],"categories":[],"categories_nodes":[],"categories_segments":[],"categories_sizes":[],"default_left":[0,0,0,0,0,0,0,0,0,0,0,0,0,0,0,0,0,0,0,0,0,0,0,0,0],"id":8,"left_children":[1,3,5,7,9,-1,-1,-1,11,-1,13,15,17,-1,-1,19,-1,21,23,-1,-1,-1,-1,-1,-1],"loss_changes":[5.505626E-3,7.0582575E-4,2.1071495E-3,2.8445473E-4,5.5958837E-5,0E0,0E0,0E0,7.8927704E-5,0E0,5.969769E-5,2.0648455E-5,7.1779854E-5,0E0,0E0,1.1076423E-5,0E0,4.2028987E-6,2.8506995E-5,0E0,0E0,0E0,0E0,0E0,0E0],"parents":[2147483647,0,0,1,1,2,2,3,3,4,4,8,8,10,10,11,11,12,12,15,15,17,17,18,18],"right_children":[2,4,6,8,10,-1,-1,-1,12,-1,14,16,18,-1,-1,20,-1,22,24,-1,-1,-1,-1,-1,-1],"split_conditions":[1.2831107E-1,1.14778385E-1,1.401543E-1,8.709495E-2,7.54334E-2,1.0807007E-4,2.153096E-3,-1.9964487E-4,1.102222E-1,1.8049753E-4,1.0729986E-1,6.369388E-2,7.645845E-2,5.54203E-4,5.656056E-5,1.5200618E-2,3.3072116E-5,2.0987695E-1,1.02148145E-1,-1.3107865E-4,-7.0161426E-5,-6.971847E-5,4.685678E-6,2.7983207E-5,1.4600191E-4],"split_indices":[2,2,0,3,0,0,0,0,3,0,0,10,8,0,0,11,0,0,2,0,0,0,0,0,0],"split_type":[0,0,0,0,0,0,0,0,0,0,0,0,0,0,0,0,0,0,0,0,0,0,0,0,0],"sum_hessian":[1.4E2,1.35E2,5E0,1.25E2,1E1,2E0,3E0,4E1,8.5E1,6E0,4E0,4.4E1,4.1E1,3E0,1E0,4.1E1,3E0,1.8E1,2.3E1,1.4E1,2.7E1,1.6E1,2E0,1.6E1,7E0],"tree_param":{"num_deleted":"0","num_feature":"12","num_nodes":"25","size_leaf_vector":"1"}},{"base_weights":[-1.9040357E-4,-1.5527512E-3,9.75792E-3,-3.5780177E-3,-3.124912E-4,1.5160793E-3,4.9946597E-3,-2.0746716E-4,-2.599261E-3,-1.3409912E-3,6.4837444E-4,7.90882E-5,5.71607E-3,-1.3487138E-4,-1.8352259E-5,-5.6486623E-4,-2.2665064E-3,1.5226322E-3,-5.533233E-4,4.485644E-4,1.8170939E-4,-1.7771475E-3,2.5480503E-4,-3.18328E-3,-1.0978988E-3,-7.999924E-4,2.175954E-3,8.375448E-5,-9.663505E-4,-1.1133192E-4,-6.7976616E-6,4.2704556E-5,-8.651535E-6,-3.7192975E-5,-1.6976125E-4,-7.75536E-5,1.6273581E-5,-1.8346744E-5,-7.413201E-5,1.4692108E-4,3.801291E-5,3.646066E-5,-1.26466975E-5,-7.598308E-5,-1.2599044E-5],"categories":[],"categories_nodes":[],"categories_segments":[],"categories_sizes":[],"default_left":[0,0,0,0,0,0,0,0,0,0,0,0,0,0,0,0,0,0,0,0,0,0,0,0,0,0,0,0,0,0,0,0,0,0,0,0,0,0,0,0,0,0,0,0,0],"id":9,"left_children":[1,3,5,7,9,-1,11,-1,13,15,17,-1,19,-1,-1,21,23,25,27,-1,-1,29,31,33,35,37,39,41,43,-1,-1,-1,-1,-1,-1,-1,-1,-1,-1,-1,-1,-1,-1,-1,-1],"loss_changes":[1.9125823E-3,3.103522E-4,1.5137055E-3,1.5496684E-5,7.795299E-5,0E0,2.7889997E-5,0E0,3.392517E-6,2.601571E-5,4.3916843E-5,0E0,4.8720423E-5,0E0,0E0,2.2313614E-5,1.4718018E-5,3.815886E-5,4.817284E-6,0E0,0E0,6.336595E-6,3.7373275E-6,2.1276282E-6,6.3101297E-6,1.2297228E-6,1.8275066E-5,1.9229904E-6,3.9650295E-6,0E0,0E0,0E0,0E0,0E0,0E0,0E0,0E0,0E0,0E0,0E0,0E0,0E0,0E0,0E0,0E0],"parents":[2147483647,0,0,1,1,2,2,3,3,4,4,6,6,8,8,9,9,10,10,12,12,15,15,16,16,17,17,18,18,21,21,22,22,23,23,24,24,25,25,26,26,27,27,28,28],"right_children":[2,4,6,8,10,-1,12,-1,14,16,18,-1,20,-1,-1,22,24,26,28,-1,-1,30,32,34,36,38,40,42,44,-1,-1,-1,-1,-1,-1,-1,-1,-1,-1,-1,-1,-1,-1,-1,-1],"split_conditions":[1.2475065E-1,9.8317005E-2,1.234097E-1,8.384467E-2,1.102222E-1,1.5160793E-3,5.3117715E-2,-2.0746716E-4,3.067554E-1,1.2794466E-1,4.9476568E-2,7.90882E-5,1.276437E-1,-1.3487138E-4,-1.8352259E-5,9.382226E-2,1.3184191E-1,3.7915207E-2,1.1323433E-1,4.485644E-4,1.8170939E-4,2.1313828E-1,3.832378E-2,1.2846878E-1,2.7767146E-2,1.1179153E-1,1.3056225E-1,9.0251036E-2,7.481955E-2,-1.1133192E-4,-6.7976616E-6,4.2704556E-5,-8.651535E-6,-3.7192975E-5,-1.6976125E-4,-7.75536E-5,1.6273581E-5,-1.8346744E-5,-7.413201E-5,1.4692108E-4,3.801291E-5,3.646066E-5,-1.26466975E-5,-7.598308E-5,-1.2599044E-5],"split_indices":[3,4,4,4,3,0,1,0,0,6,0,0,3,0,0,8,5,1,3,0,0,0,0,6,1,3,5,0,1,0,0,0,0,0,0,0,0,0,0,0,0,0,0,0,0],"split_type":[0,0,0,0,0,0,0,0,0,0,0,0,0,0,0,0,0,0,0,0,0,0,0,0,0,0,0,0,0,0,0,0,0,0,0,0,0,0,0,0,0,0,0,0,0],"sum_hessian":[1.39E2,1.23E2,1.6E1,4.6E1,7.7E1,2E0,1.4E1,2.7E1,1.9E1,3.7E1,4E1,3E0,1.1E1,1.8E1,1E0,2.1E1,1.6E1,2.3E1,1.7E1,3E0,8E0,8E0,1.3E1,8E0,8E0,5E0,1.8E1,7E0,1E1,6E0,2E0,5E0,8E0,1E0,7E0,6E0,2E0,4E0,1E0,1.1E1,7E0,2E0,5E0,5E0,5E0],"tree_param":{"num_deleted":"0","num_feature":"12","num_nodes":"45","size_leaf_vector":"1"}},{"base_weights":[3.5142415E-4,-1.2721398E-3,2.1130616E-2,-2.819261E-3,-5.721918E-5,2.0155017E-3,8.899579E-3,-3.6178678E-3,-2.1419933E-3,-1.6114132E-3,1.1265636E-3,1.3087016E-2,1.4403885E-3,-1.8837374E-4,-5.8259357E-5,-1.4076415E-4,-1.4625972E-3,-1.6712587E-4,-1.0592616E-3,-1.1620653E-3,1.7146644E-3,8.708807E-5,7.7439443E-4,1.16365925E-4,-3.0510046E-5,3.66912E-6,-1.7379689E-3,-1.5455381E-3,1.3904848E-4,-1.5376793E-3,5.5461518E-5,1.324199E-3,2.8492694E-4,-1.0718566E-4,-3.1840944E-5,-1.253626E-4,-5.2890835E-5,3.7659014E-5,-1.4677372E-5,-9.5951815E-5,-2.9061206E-5,8.403038E-5,-3.392713E-5],"categories":[],"categories_nodes":[],"categories_segments":[],"categories_sizes":[],"default_left":[0,0,0,0,0,0,0,0,0,0,0,0,0,0,0,0,0,0,0,0,0,0,0,0,0,0,0,0,0,0,0,0,0,0,0,0,0,0,0,0,0,0,0],"id":10,"left_children":[1,3,5,7,9,-1,11,13,15,17,19,21,23,-1,-1,-1,25,-1,27,29,31,-1,-1,-1,-1,-1,33,35,37,39,-1,41,-1,-1,-1,-1,-1,-1,-1,-1,-1,-1,-1],"loss_changes":[5.12107E-3,2.6486645E-4,2.2216835E-3,2.5784539E-5,1.4900163E-4,0E0,2.3102877E-4,5.5175333E-6,1.234989E-5,2.991352E-5,6.3905994E-5,1.09216315E-4,8.69505E-6,0E0,0E0,0E0,8.586845E-6,0E0,1.6530787E-5,1.0236945E-5,5.0009898E-5,0E0,0E0,0E0,0E0,0E0,6.230199E-6,6.7287583E-6,2.6121324E-6,2.1673677E-6,0E0,2.6123147E-5,0E0,0E0,0E0,0E0,0E0,0E0,0E0,0E0,0E0,0E0,0E0],"parents":[2147483647,0,0,1,1,2,2,3,3,4,4,6,6,7,7,8,8,9,9,10,10,11,11,12,12,16,16,18,18,19,19,20,20,26,26,27,27,28,28,29,29,31,31],"right_children":[2,4,6,8,10,-1,12,14,16,18,20,22,24,-1,-1,-1,26,-1,28,30,32,-1,-1,-1,-1,-1,34,36,38,40,-1,42,-1,-1,-1,-1,-1,-1,-1,-1,-1,-1,-1],"split_conditions":[1.1846312E-1,1.0919241E-1,4.8142165E-2,8.5151434E-2,8.923236E-2,2.0155017E-3,1.24616876E-1,1.03345014E-1,7.509529E-2,6.211913E-2,8.444632E-3,7.591647E-2,1.031398E-1,-1.8837374E-4,-5.8259357E-5,-1.4076415E-4,5.471539E-2,-1.6712587E-4,3.201891E-2,1.14153065E-1,1.1302715E-1,8.708807E-5,7.7439443E-4,1.16365925E-4,-3.0510046E-5,3.66912E-6,1.0906399E-1,3.7170123E-2,2.7959531E-2,7.814797E-2,5.5461518E-5,2.383087E-2,2.8492694E-4,-1.0718566E-4,-3.1840944E-5,-1.253626E-4,-5.2890835E-5,3.7659014E-5,-1.4677372E-5,-9.5951815E-5,-2.9061206E-5,8.403038E-5,-3.392713E-5],"split_indices":[2,5,8,5,2,0,2,2,2,2,11,1,1,0,0,0,1,0,11,2,2,0,0,0,0,0,2,10,1,1,0,11,0,0,0,0,0,0,0,0,0,0,0],"split_type":[0,0,0,0,0,0,0,0,0,0,0,0,0,0,0,0,0,0,0,0,0,0,0,0,0,0,0,0,0,0,0,0,0,0,0,0,0,0,0,0,0,0,0],"sum_hessian":[1.5E2,1.4E2,1E1,6.1E1,7.9E1,3E0,7E0,2.6E1,3.5E1,3.4E1,4.5E1,4E0,3E0,2.4E1,2E0,1.6E1,1.9E1,7E0,2.7E1,9E0,3.6E1,1E0,3E0,2E0,1E0,3E0,1.6E1,1.9E1,8E0,8E0,1E0,3.4E1,2E0,1.1E1,5E0,5E0,1.4E1,3E0,5E0,5E0,3E0,2.9E1,5E0],"tree_param":{"num_deleted":"0","num_feature":"12","num_nodes":"43","size_leaf_vector":"1"}},{"base_weights":[5.1595614E-4,-1.2860394E-3,1.5124922E-2,-2.2060135E-3,6.940499E-4,4.5793164E-3,1.8704695E-3,-3.2753053E-3,-1.3064599E-3,-7.493591E-4,1.8078298E-3,1.1906358E-3,6.124827E-3,-1.861389E-4,-2.4509141E-3,-9.144376E-4,-2.160216E-3,-3.8405105E-5,-1.000528E-3,6.400752E-4,3.3786788E-3,8.928839E-5,-2.9747293E-5,3.5372612E-3,4.6291747E-4,-3.8275255E-5,-1.3123009E-4,-4.227847E-4,-1.4390623E-3,-1.4915329E-4,-1.2801976E-3,5.4074975E-5,-4.7868592E-4,6.7802926E-6,-6.0059207E-5,1.1847967E-4,3.4728152E-4,2.3936746E-3,3.0609293E-4,3.808041E-5,1.9700351E-4,-8.940886E-5,-8.586564E-6,-1.4967013E-5,-7.8553465E-5,-7.396081E-5,7.798744E-6,-4.590292E-5,6.012425E-6,4.197222E-5,-3.532503E-5,4.1965846E-5,1.3589373E-4],"categories":[],"categories_nodes":[],"categories_segments":[],"categories_sizes":[],"default_left":[0,0,0,0,0,0,0,0,0,0,0,0,0,0,0,0,0,0,0,0,0,0,0,0,0,0,0,0,0,0,0,0,0,0,0,0,0,0,0,0,0,0,0,0,0,0,0,0,0,0,0,0,0],"id":11,"left_children":[1,3,5,7,9,11,-1,13,15,17,19,21,23,-1,25,27,29,31,33,35,37,-1,-1,39,-1,-1,-1,41,43,-1,45,-1,47,-1,-1,-1,49,51,-1,-1,-1,-1,-1,-1,-1,-1,-1,-1,-1,-1,-1,-1,-1],"loss_changes":[3.836618E-3,2.383431E-4,3.5887419E-3,8.132876E-5,6.88756E-5,5.555447E-5,0E0,5.631475E-6,1.4759185E-5,3.3543956E-6,4.186218E-5,6.3757184E-6,3.2116368E-5,0E0,2.9673465E-6,8.677183E-6,7.0429305E-6,3.476134E-6,3.3544984E-6,6.7729648E-6,1.2366698E-5,0E0,0E0,3.7075588E-6,0E0,0E0,0E0,6.548644E-6,2.087385E-6,0E0,2.8031445E-6,0E0,1.4261714E-6,0E0,0E0,0E0,7.8539215E-6,2.2541462E-6,0E0,0E0,0E0,0E0,0E0,0E0,0E0,0E0,0E0,0E0,0E0,0E0,0E0,0E0,0E0],"parents":[2147483647,0,0,1,1,2,2,3,3,4,4,5,5,7,7,8,8,9,9,10,10,11,11,12,12,14,14,15,15,16,16,17,17,18,18,19,19,20,20,23,23,27,27,28,28,30,30,32,32,36,36,37,37],"right_children":[2,4,6,8,10,12,-1,14,16,18,20,22,24,-1,26,28,30,32,34,36,38,-1,-1,40,-1,-1,-1,42,44,-1,46,-1,48,-1,-1,-1,50,52,-1,-1,-1,-1,-1,-1,-1,-1,-1,-1,-1,-1,-1,-1,-1],"split_conditions":[1.2475065E-1,1.102222E-1,1.1394229E-1,9.290186E-2,1.1425946E-2,8.176317E-3,1.8704695E-3,8.326257E-2,1.343138E-1,5.2805208E-3,1.2043715E-1,1.13556676E-1,6.681729E-2,-1.861389E-4,3.492469E-2,5.903437E-2,1.3398561E-1,1.5256831E-1,4.352263E-2,1.10411376E-1,6.613173E-2,8.928839E-5,-2.9747293E-5,2.0351397E-2,4.6291747E-4,-3.8275255E-5,-1.3123009E-4,8.0633454E-2,3.7011756E-3,-1.4915329E-4,1.085616E-1,5.4074975E-5,2.0987695E-1,6.7802926E-6,-6.0059207E-5,1.1847967E-4,1.8721027E-2,1.8840108E-2,3.0609293E-4,3.808041E-5,1.9700351E-4,-8.940886E-5,-8.586564E-6,-1.4967013E-5,-7.8553465E-5,-7.396081E-5,7.798744E-6,-4.590292E-5,6.012425E-6,4.197222E-5,-3.532503E-5,4.1965846E-5,1.3589373E-4],"split_indices":[3,3,0,4,11,11,0,4,6,11,3,0,0,0,8,0,5,0,0,3,0,0,0,0,0,0,0,3,11,0,3,0,0,0,0,0,11,0,0,0,0,0,0,0,0,0,0,0,0,0,0,0,0],"split_type":[0,0,0,0,0,0,0,0,0,0,0,0,0,0,0,0,0,0,0,0,0,0,0,0,0,0,0,0,0,0,0,0,0,0,0,0,0,0,0,0,0,0,0,0,0,0,0,0,0,0,0,0,0],"sum_hessian":[1.44E2,1.29E2,1.5E1,8.8E1,4.1E1,1.1E1,4E0,3.9E1,4.9E1,1.8E1,2.3E1,4E0,7E0,2.3E1,1.6E1,3.5E1,1.4E1,5E0,1.3E1,1.4E1,9E0,3E0,1E0,5E0,2E0,2E0,1.4E1,1.9E1,1.6E1,6E0,8E0,1E0,4E0,2E0,1.1E1,1E0,1.3E1,8E0,1E0,1E0,4E0,2E0,1.7E1,2E0,1.4E1,7E0,1E0,2E0,2E0,9E0,4E0,2E0,6E0],"tree_param":{"num_deleted":"0","num_feature":"12","num_nodes":"53","size_leaf_vector":"1"}},{"base_weights":[-2.131371E-4,-1.3130668E-3,8.663541E-3,-2.459056E-3,6.074741E-4,1.5637135E-2,2.2183107E-3,-1.7380336E-4,-1.7602363E-3,-1.1079082E-3,1.4723144E-3,1.356696E-3,7.2825532E-3,1.5876546E-4,-5.3656095E-5,-2.4263023E-3,-9.752333E-4,-1.4293763E-3,-2.2674266E-4,1.8591267E-3,-7.0713315E-4,8.180803E-5,4.8483544E-4,-2.5687192E-3,-1.9162739E-5,-1.276736E-4,-5.722139E-4,-3.5774253E-6,-9.147849E-5,-2.7648237E-5,1.419005E-5,2.6711454E-3,7.4030936E-4,-1.4209026E-5,-7.054741E-5,-1.3157101E-4,-2.5029784E-5,-3.912806E-5,5.1041945E-5,5.3743057E-5,1.7220656E-4,-1.0579666E-5,5.711149E-5],"categories":[],"categories_nodes":[],"categories_segments":[],"categories_sizes":[],"default_left":[0,0,0,0,0,0,0,0,0,0,0,0,0,0,0,0,0,0,0,0,0,0,0,0,0,0,0,0,0,0,0,0,0,0,0,0,0,0,0,0,0,0,0],"id":12,"left_children":[1,3,5,7,9,11,13,-1,15,17,19,-1,21,-1,-1,23,25,27,29,31,33,-1,-1,35,-1,-1,37,-1,-1,-1,-1,39,41,-1,-1,-1,-1,-1,-1,-1,-1,-1,-1],"loss_changes":[1.5052253E-3,3.0301977E-4,7.2940113E-4,5.5002107E-5,7.877484E-5,5.7080225E-4,3.490645E-5,0E0,2.534558E-5,4.774698E-6,3.082095E-5,0E0,6.592227E-5,0E0,0E0,7.1625254E-6,1.507645E-5,6.933218E-6,1.1562356E-6,2.5277543E-5,1.3851184E-6,0E0,0E0,2.0542357E-6,0E0,0E0,8.170942E-6,0E0,0E0,0E0,0E0,1.7274426E-5,5.5979353E-6,0E0,0E0,0E0,0E0,0E0,0E0,0E0,0E0,0E0,0E0],"parents":[2147483647,0,0,1,1,2,2,3,3,4,4,5,5,6,6,8,8,9,9,10,10,12,12,15,15,16,16,17,17,18,18,19,19,20,20,23,23,26,26,31,31,32,32],"right_children":[2,4,6,8,10,12,14,-1,16,18,20,-1,22,-1,-1,24,26,28,30,32,34,-1,-1,36,-1,-1,38,-1,-1,-1,-1,40,42,-1,-1,-1,-1,-1,-1,-1,-1,-1,-1],"split_conditions":[1.14778385E-1,1.0771651E-1,1.2885326E-1,8.038962E-2,7.5778045E-2,1.16386436E-1,1.3375136E-1,-1.7380336E-4,2.7278792E-2,8.444632E-3,2.383087E-2,1.356696E-3,1.23938374E-1,1.5876546E-4,-5.3656095E-5,1.06474616E-1,6.211913E-2,5.024861E-3,1.14481516E-1,1.3084315E-1,1.1321747E-1,8.180803E-5,4.8483544E-4,1.2780377E-1,-1.9162739E-5,-1.276736E-4,7.130139E-2,-3.5774253E-6,-9.147849E-5,-2.7648237E-5,1.419005E-5,1.243296E-1,8.923236E-2,-1.4209026E-5,-7.054741E-5,-1.3157101E-4,-2.5029784E-5,-3.912806E-5,5.1041945E-5,5.3743057E-5,1.7220656E-4,-1.0579666E-5,5.711149E-5],"split_indices":[2,3,3,3,8,5,2,0,11,11,11,0,3,0,0,2,2,11,3,5,7,0,0,4,0,0,10,0,0,0,0,5,2,0,0,0,0,0,0,0,0,0,0],"split_type":[0,0,0,0,0,0,0,0,0,0,0,0,0,0,0,0,0,0,0,0,0,0,0,0,0,0,0,0,0,0,0,0,0,0,0,0,0,0,0,0,0,0,0],"sum_hessian":[1.52E2,1.36E2,1.6E1,8.5E1,5.1E1,7E0,9E0,3.3E1,5.2E1,1.7E1,3.4E1,2E0,5E0,7E0,2E0,2.7E1,2.5E1,1.2E1,5E0,2.9E1,5E0,2E0,3E0,2.5E1,2E0,4E0,2.1E1,3E0,9E0,3E0,2E0,1.6E1,1.3E1,4E0,1E0,2.4E1,1E0,1.9E1,2E0,6E0,1E1,4E0,9E0],"tree_param":{"num_deleted":"0","num_feature":"12","num_nodes":"43","size_leaf_vector":"1"}},{"base_weights":[-3.355763E-4,-1.2865367E-3,7.1742106E-3,-2.8123576E-3,-2.7903562E-4,1.3162772E-2,2.2647963E-3,-1.7002689E-4,-2.088156E-3,-1.0856881E-3,4.942601E-4,7.0128664E-3,1.2515553E-3,1.610001E-4,-5.1867566E-5,-2.2608617E-3,-4.725806E-5,-1.163248E-4,-7.8033365E-4,-8.811262E-4,1.5491599E-3,7.9081095E-5,4.6665416E-4,-2.2529764E-5,-2.3288452E-3,-1.6074226E-3,-2.0370912E-4,-1.0286819E-5,-6.461082E-5,-4.081727E-5,2.0901265E-3,-2.6527152E-5,-1.1977848E-4,-9.4080715E-5,-3.3122722E-6,-2.543038E-5,4.063539E-5,1.3682057E-4,5.3399337E-5],"categories":[],"categories_nodes":[],"categories_segments":[],"categories_sizes":[],"default_left":[0,0,0,0,0,0,0,0,0,0,0,0,0,0,0,0,0,0,0,0,0,0,0,0,0,0,0,0,0,0,0,0,0,0,0,0,0,0,0],"id":13,"left_children":[1,3,5,7,9,11,13,-1,15,17,19,21,-1,-1,-1,23,-1,-1,25,27,29,-1,-1,-1,31,33,35,-1,-1,-1,37,-1,-1,-1,-1,-1,-1,-1,-1],"loss_changes":[1.0161828E-3,1.9291083E-4,4.4059433E-4,1.4197227E-5,4.8567745E-5,3.3538416E-4,3.4882578E-5,0E0,2.7981587E-6,1.2582237E-5,5.940079E-5,6.08486E-5,0E0,0E0,0E0,1.535067E-6,0E0,0E0,1.4933983E-5,4.7317735E-6,3.1138432E-5,0E0,0E0,0E0,1.1288575E-6,5.368871E-6,6.6114294E-6,0E0,0E0,0E0,9.62882E-6,0E0,0E0,0E0,0E0,0E0,0E0,0E0,0E0],"parents":[2147483647,0,0,1,1,2,2,3,3,4,4,5,5,6,6,8,8,9,9,10,10,11,11,15,15,18,18,19,19,20,20,24,24,25,25,26,26,30,30],"right_children":[2,4,6,8,10,12,14,-1,16,18,20,22,-1,-1,-1,24,-1,-1,26,28,30,-1,-1,-1,32,34,36,-1,-1,-1,38,-1,-1,-1,-1,-1,-1,-1,-1],"split_conditions":[1.14778385E-1,9.8317005E-2,1.2885326E-1,8.384467E-2,1.102222E-1,8.184713E-2,1.0616442E-1,-1.7002689E-4,1.0391452E-1,1.54933045E-2,1.02250956E-1,1.23938374E-1,1.2515553E-3,1.610001E-4,-5.1867566E-5,8.2687795E-2,-4.725806E-5,-1.163248E-4,7.715474E-2,1.17109835E-1,3.7915207E-2,7.9081095E-5,4.6665416E-4,-2.2529764E-5,8.385062E-2,1.05665155E-1,9.3411624E-2,-1.0286819E-5,-6.461082E-5,-4.081727E-5,1.3056225E-1,-2.6527152E-5,-1.1977848E-4,-9.4080715E-5,-3.3122722E-6,-2.543038E-5,4.063539E-5,1.3682057E-4,5.3399337E-5],"split_indices":[2,4,3,4,3,1,1,0,2,1,7,3,0,0,0,5,0,0,9,4,1,0,0,0,4,1,9,0,0,0,5,0,0,0,0,0,0,0,0],"split_type":[0,0,0,0,0,0,0,0,0,0,0,0,0,0,0,0,0,0,0,0,0,0,0,0,0,0,0,0,0,0,0,0,0,0,0,0,0,0,0],"sum_hessian":[1.4E2,1.25E2,1.5E1,4.9E1,7.6E1,6E0,9E0,2.5E1,2.4E1,3.7E1,3.9E1,5E0,1E0,7E0,2E0,2E1,4E0,6E0,3.1E1,1.7E1,2.2E1,2E0,3E0,1E0,1.9E1,1.2E1,1.9E1,7E0,1E1,4E0,1.8E1,1E0,1.8E1,1E1,2E0,1.5E1,4E0,1E1,8E0],"tree_param":{"num_deleted":"0","num_feature":"12","num_nodes":"39","size_leaf_vector":"1"}},{"base_weights":[4.1070665E-4,-9.94764E-4,1.826118E-2,-1.9701945E-3,7.4608874E-4,1.7719684E-3,7.389437E-3,-2.907131E-3,-1.0511432E-3,-8.031568E-4,1.2972296E-3,6.540104E-4,1.3589327E-3,-1.4874939E-4,-4.940479E-5,-1.4465753E-4,-6.5646303E-4,-3.5040706E-4,-1.3484219E-3,6.65141E-4,1.962598E-3,9.8116056E-5,-2.6365522E-5,-7.6678116E-4,4.7986025E-5,-4.0886953E-5,9.774386E-7,-2.0208117E-5,-8.597556E-5,-8.6105405E-4,1.1958928E-3,2.3268266E-3,-3.1707707E-5,-4.1888223E-5,1.70306E-5,-7.11436E-5,4.8700884E-5,1.1789059E-5,9.582242E-5,6.0722483E-5,1.6436986E-4],"categories":[],"categories_nodes":[],"categories_segments":[],"categories_sizes":[],"default_left":[0,0,0,0,0,0,0,0,0,0,0,0,0,0,0,0,0,0,0,0,0,0,0,0,0,0,0,0,0,0,0,0,0,0,0,0,0,0,0,0,0],"id":14,"left_children":[1,3,5,7,9,-1,11,13,15,17,19,-1,21,-1,-1,-1,23,25,27,29,31,-1,-1,33,-1,-1,-1,-1,-1,35,37,39,-1,-1,-1,-1,-1,-1,-1,-1,-1],"loss_changes":[3.781413E-3,2.3920124E-4,1.7924483E-3,7.444256E-5,4.458835E-5,0E0,2.567706E-4,2.790097E-6,3.226992E-5,2.9836647E-6,1.4676327E-5,0E0,6.7254387E-6,0E0,0E0,0E0,7.867668E-6,1.5720155E-6,1.4074649E-6,1.8040375E-5,1.8500177E-5,0E0,0E0,3.2723947E-6,0E0,0E0,0E0,0E0,0E0,7.5717585E-6,1.0617159E-5,1.3103883E-5,0E0,0E0,0E0,0E0,0E0,0E0,0E0,0E0,0E0],"parents":[2147483647,0,0,1,1,2,2,3,3,4,4,6,6,7,7,8,8,9,9,10,10,12,12,16,16,17,17,18,18,19,19,20,20,23,23,29,29,30,30,31,31],"right_children":[2,4,6,8,10,-1,12,14,16,18,20,-1,22,-1,-1,-1,24,26,28,30,32,-1,-1,34,-1,-1,-1,-1,-1,36,38,40,-1,-1,-1,-1,-1,-1,-1,-1,-1],"split_conditions":[1.19086675E-1,1.17486626E-1,4.8142165E-2,9.349356E-2,3.7915207E-2,1.7719684E-3,1.24616876E-1,1.0391452E-1,6.211913E-2,1.26471E-1,1.426434E-2,6.540104E-4,1.0616442E-1,-1.4874939E-4,-4.940479E-5,-1.4465753E-4,7.130139E-2,1.8978702E-2,2.4478532E-2,1.2670031E-1,2.383087E-2,9.8116056E-5,-2.6365522E-5,1.00803174E-1,4.7986025E-5,-4.0886953E-5,9.774386E-7,-2.0208117E-5,-8.597556E-5,7.481955E-2,1.0463585E-1,1.2622234E-1,-3.1707707E-5,-4.1888223E-5,1.70306E-5,-7.11436E-5,4.8700884E-5,1.1789059E-5,9.582242E-5,6.0722483E-5,1.6436986E-4],"split_indices":[2,4,8,4,1,0,2,2,2,4,11,0,1,0,0,0,10,1,1,4,11,0,0,9,0,0,0,0,0,1,2,5,0,0,0,0,0,0,0,0,0],"split_type":[0,0,0,0,0,0,0,0,0,0,0,0,0,0,0,0,0,0,0,0,0,0,0,0,0,0,0,0,0,0,0,0,0,0,0,0,0,0,0,0,0],"sum_hessian":[1.49E2,1.39E2,1E1,8.9E1,5E1,3E0,7E0,4.3E1,4.6E1,1.3E1,3.7E1,3E0,4E0,4.1E1,2E0,7E0,3.9E1,8E0,5E0,2E1,1.7E1,3E0,1E0,3.7E1,2E0,3E0,5E0,2E0,3E0,5E0,1.5E1,1.5E1,2E0,3.5E1,2E0,4E0,1E0,7E0,8E0,8E0,7E0],"tree_param":{"num_deleted":"0","num_feature":"12","num_nodes":"41","size_leaf_vector":"1"}},{"base_weights":[3.31146E-4,-1.1804202E-3,1.0735569E-2,-2.1168068E-3,2.3759784E-4,1.7055197E-3,4.2208894E-3,-1.4927372E-4,-1.3579692E-3,-9.4134465E-4,1.1728319E-3,6.680147E-4,2.7209094E-3,-2.060447E-3,-7.923906E-4,-3.171113E-4,-1.2336419E-3,2.4173778E-4,3.0108462E-3,2.9887068E-3,-2.5706378E-5,-1.231936E-5,-1.0737699E-4,-8.9452585E-4,4.402476E-5,4.7483365E-5,-5.9416704E-4,-8.47986E-5,-3.9693568E-4,-5.247141E-4,7.5376313E-4,3.9476533E-3,3.093614E-5,4.3805176E-5,3.2677988E-3,-1.2070522E-5,-6.2340754E-5,-4.9360006E-5,2.2833003E-6,-4.478058E-5,1.0048709E-5,-5.76361E-5,-9.2949097E-7,1.0049255E-4,1.713349E-5,2.1447641E-4,4.741005E-5,9.375529E-5,1.9973535E-4],"categories":[],"categories_nodes":[],"categories_segments":[],"categories_sizes":[],"default_left":[0,0,0,0,0,0,0,0,0,0,0,0,0,0,0,0,0,0,0,0,0,0,0,0,0,0,0,0,0,0,0,0,0,0,0,0,0,0,0,0,0,0,0,0,0,0,0,0,0],"id":15,"left_children":[1,3,5,7,9,-1,11,-1,13,15,17,-1,19,21,23,25,27,29,31,33,-1,-1,-1,35,-1,-1,37,-1,39,41,43,45,-1,-1,47,-1,-1,-1,-1,-1,-1,-1,-1,-1,-1,-1,-1,-1,-1],"loss_changes":[2.3559914E-3,1.7444644E-4,2.749334E-3,4.8020855E-5,5.954116E-5,0E0,1.829906E-4,0E0,1.5848796E-5,3.987878E-6,5.0613096E-5,0E0,1.45315935E-5,2.4727196E-6,5.23E-6,3.7229754E-6,5.51616E-6,8.636809E-6,1.9967069E-5,5.3916156E-6,0E0,0E0,0E0,5.451144E-6,0E0,0E0,2.0568855E-6,0E0,2.2671375E-6,2.839222E-6,6.024087E-6,3.1107338E-6,0E0,0E0,4.6578352E-6,0E0,0E0,0E0,0E0,0E0,0E0,0E0,0E0,0E0,0E0,0E0,0E0,0E0,0E0],"parents":[2147483647,0,0,1,1,2,2,3,3,4,4,6,6,8,8,9,9,10,10,12,12,13,13,14,14,15,15,16,16,17,17,18,18,19,19,23,23,26,26,28,28,29,29,30,30,31,31,34,34],"right_children":[2,4,6,8,10,-1,12,-1,14,16,18,-1,20,22,24,26,28,30,32,34,-1,-1,-1,36,-1,-1,38,-1,40,42,44,46,-1,-1,48,-1,-1,-1,-1,-1,-1,-1,-1,-1,-1,-1,-1,-1,-1],"split_conditions":[1.2475065E-1,1.0562448E-1,4.8142165E-2,8.038962E-2,1.1425946E-2,1.7055197E-3,1.2476093E-1,-1.4927372E-4,2.2410028E-2,5.2805208E-3,1.1853448E-1,6.680147E-4,1.0616442E-1,1.8978702E-2,1.2507747E-1,7.7631265E-2,8.444632E-3,3.5873853E-2,1.3056225E-1,4.6940446E-2,-2.5706378E-5,-1.231936E-5,-1.0737699E-4,1.0258317E-1,4.402476E-5,4.7483365E-5,1.0284414E-1,-8.47986E-5,1.14481516E-1,7.6619945E-2,3.954927E-2,1.2423356E-1,3.093614E-5,4.3805176E-5,2.0108685E-2,-1.2070522E-5,-6.2340754E-5,-4.9360006E-5,2.2833003E-6,-4.478058E-5,1.0048709E-5,-5.76361E-5,-9.2949097E-7,1.0049255E-4,1.713349E-5,2.1447641E-4,4.741005E-5,9.375529E-5,1.9973535E-4],"split_indices":[3,3,8,3,11,0,3,0,11,11,3,0,1,1,8,1,11,1,5,1,0,0,0,8,0,0,1,0,3,9,1,3,0,0,10,0,0,0,0,0,0,0,0,0,0,0,0,0,0],"split_type":[0,0,0,0,0,0,0,0,0,0,0,0,0,0,0,0,0,0,0,0,0,0,0,0,0,0,0,0,0,0,0,0,0,0,0,0,0,0,0,0,0,0,0,0,0,0,0,0,0],"sum_hessian":[1.48E2,1.3E2,1.8E1,7.8E1,5.2E1,3E0,1.5E1,3.5E1,4.3E1,2.3E1,2.9E1,1E0,1.4E1,1.8E1,2.5E1,8E0,1.5E1,2E1,9E0,1.3E1,1E0,1E0,1.7E1,2.4E1,1E0,1E0,7E0,9E0,6E0,8E0,1.2E1,6E0,3E0,2E0,1.1E1,9E0,1.5E1,4E0,3E0,3E0,3E0,3E0,5E0,2E0,1E1,5E0,1E0,5E0,6E0],"tree_param":{"num_deleted":"0","num_feature":"12","num_nodes":"49","size_leaf_vector":"1"}},{"base_weights":[3.758654E-4,-1.1665802E-3,1.1876731E-2,-1.8979396E-3,5.9628644E-4,3.4251427E-3,1.5737759E-3,-1.3272409E-4,-1.1493058E-3,1.4122683E-3,-7.490369E-4,2.2290659E-3,5.559049E-3,-1.7139366E-3,-5.8387336E-4,2.4654765E-3,-5.656665E-5,-1.3266837E-3,-4.1837594E-4,4.234502E-5,1.2343725E-4,3.873124E-4,-2.5063719E-5,-1.954461E-3,-1.1226251E-3,-1.6422392E-3,1.1409732E-4,1.3674811E-3,4.1683717E-3,9.617596E-5,-4.4692715E-4,-8.6526685E-5,7.217913E-6,4.290504E-4,-5.9803646E-5,-1.19470635E-4,-6.376009E-5,-1.7749508E-5,-8.328675E-5,-9.382715E-5,-2.3500808E-5,3.065582E-5,-8.423371E-6,1.02431855E-4,-4.5238077E-5,2.5245835E-4,1.612974E-5,-5.7770347E-5,1.0898027E-5,4.456856E-5,-1.2476405E-6],"categories":[],"categories_nodes":[],"categories_segments":[],"categories_sizes":[],"default_left":[0,0,0,0,0,0,0,0,0,0,0,0,0,0,0,0,0,0,0,0,0,0,0,0,0,0,0,0,0,0,0,0,0,0,0,0,0,0,0,0,0,0,0,0,0,0,0,0,0,0,0],"id":16,"left_children":[1,3,5,7,9,11,-1,-1,13,15,17,19,21,23,25,27,29,31,33,-1,-1,-1,-1,35,37,39,41,43,45,-1,47,-1,-1,49,-1,-1,-1,-1,-1,-1,-1,-1,-1,-1,-1,-1,-1,-1,-1,-1,-1],"loss_changes":[2.550598E-3,1.6487145E-4,2.7080867E-3,4.7922746E-5,4.277269E-5,2.0788633E-5,0E0,0E0,1.4004523E-5,3.726721E-5,2.3100265E-6,1.2219716E-6,5.6903533E-5,1.0770455E-6,1.8655082E-5,2.0476618E-5,9.362094E-6,3.2202188E-6,7.7626255E-6,0E0,0E0,0E0,0E0,1.3846911E-6,3.1608715E-6,1.8645551E-6,2.3593734E-6,1.7331044E-5,1.530788E-5,0E0,4.9624277E-6,0E0,0E0,1.2816129E-6,0E0,0E0,0E0,0E0,0E0,0E0,0E0,0E0,0E0,0E0,0E0,0E0,0E0,0E0,0E0,0E0,0E0],"parents":[2147483647,0,0,1,1,2,2,3,3,4,4,5,5,8,8,9,9,10,10,11,11,12,12,13,13,14,14,15,15,16,16,17,17,18,18,23,23,24,24,25,25,26,26,27,27,28,28,30,30,33,33],"right_children":[2,4,6,8,10,12,-1,-1,14,16,18,20,22,24,26,28,30,32,34,-1,-1,-1,-1,36,38,40,42,44,46,-1,48,-1,-1,50,-1,-1,-1,-1,-1,-1,-1,-1,-1,-1,-1,-1,-1,-1,-1,-1,-1],"split_conditions":[1.2475065E-1,1.102222E-1,1.1394229E-1,8.709495E-2,8.759705E-2,8.705676E-2,1.5737759E-3,-1.3272409E-4,7.715474E-2,1.2923032E-1,1.0189075E-1,2.0351397E-2,1.0729986E-1,1.06939375E-1,2.372087E-2,1.2520549E-1,1.2535089E-1,2.0987695E-1,1.18027836E-1,4.234502E-5,1.2343725E-4,3.873124E-4,-2.5063719E-5,2.774456E-1,1.0800381E-1,9.8664805E-2,1.1446303E-1,1.2290773E-1,7.2292775E-2,9.617596E-5,1.2834802E-1,-8.6526685E-5,7.217913E-6,7.7631265E-2,-5.9803646E-5,-1.19470635E-4,-6.376009E-5,-1.7749508E-5,-8.328675E-5,-9.382715E-5,-2.3500808E-5,3.065582E-5,-8.423371E-6,1.02431855E-4,-4.5238077E-5,2.5245835E-4,1.612974E-5,-5.7770347E-5,1.0898027E-5,4.456856E-5,-1.2476405E-6],"split_indices":[3,3,0,3,0,0,0,0,9,5,6,0,0,3,1,4,6,0,5,0,0,0,0,0,3,3,7,4,1,0,6,0,0,1,0,0,0,0,0,0,0,0,0,0,0,0,0,0,0,0,0],"split_type":[0,0,0,0,0,0,0,0,0,0,0,0,0,0,0,0,0,0,0,0,0,0,0,0,0,0,0,0,0,0,0,0,0,0,0,0,0,0,0,0,0,0,0,0,0,0,0,0,0,0,0],"sum_hessian":[1.42E2,1.26E2,1.6E1,8.9E1,3.7E1,1.2E1,4E0,4.3E1,4.6E1,2.3E1,1.4E1,9E0,3E0,2.2E1,2.4E1,1.3E1,1E1,4E0,1E1,2E0,7E0,2E0,1E0,1.4E1,8E0,9E0,1.5E1,9E0,4E0,1E0,9E0,3E0,1E0,5E0,5E0,7E0,7E0,4E0,4E0,7E0,2E0,5E0,1E1,7E0,2E0,3E0,1E0,4E0,5E0,2E0,3E0],"tree_param":{"num_deleted":"0","num_feature":"12","num_nodes":"51","size_leaf_vector":"1"}},{"base_weights":[-2.8872435E-4,-9.954871E-4,6.648077E-3,-1.795594E-3,4.3261077E-4,3.8001698E-3,1.0917719E-3,-1.342837E-4,-1.3354621E-3,-6.8024994E-4,1.1366303E-3,1.1872844E-3,5.870174E-3,-1.4315742E-3,4.8392903E-5,-8.011333E-4,4.0413324E-5,1.4778652E-3,-4.6668203E-5,9.1359536E-5,-1.3749372E-5,1.00459416E-4,4.131808E-4,-1.7679456E-3,-9.798905E-4,-9.2437636E-4,8.214436E-6,2.169898E-3,5.656836E-4,-9.379851E-5,-2.7139058E-5,-7.7227574E-5,-7.2675866E-6,-6.056219E-5,-1.7076552E-5,3.1394575E-5,1.7203337E-4,-1.5803671E-5,4.3090906E-5],"categories":[],"categories_nodes":[],"categories_segments":[],"categories_sizes":[],"default_left":[0,0,0,0,0,0,0,0,0,0,0,0,0,0,0,0,0,0,0,0,0,0,0,0,0,0,0,0,0,0,0,0,0,0,0,0,0,0,0],"id":17,"left_children":[1,3,5,7,9,11,-1,-1,13,15,17,19,21,23,-1,25,-1,27,-1,-1,-1,-1,-1,29,31,33,-1,35,37,-1,-1,-1,-1,-1,-1,-1,-1,-1,-1],"loss_changes":[7.4201904E-4,1.5731726E-4,5.225523E-4,3.2454147E-5,3.994697E-5,6.334332E-5,0E0,0E0,1.4668178E-5,4.2462643E-6,2.3276367E-5,7.052471E-6,4.808417E-5,7.0797396E-6,0E0,2.4125147E-6,0E0,1.5816531E-5,0E0,0E0,0E0,0E0,0E0,3.21689E-6,1.2498747E-5,2.4287128E-6,0E0,2.7232658E-5,3.6669398E-6,0E0,0E0,0E0,0E0,0E0,0E0,0E0,0E0,0E0,0E0],"parents":[2147483647,0,0,1,1,2,2,3,3,4,4,5,5,8,8,9,9,10,10,11,11,12,12,13,13,15,15,17,17,23,23,24,24,25,25,27,27,28,28],"right_children":[2,4,6,8,10,12,-1,-1,14,16,18,20,22,24,-1,26,-1,28,-1,-1,-1,-1,-1,30,32,34,-1,36,38,-1,-1,-1,-1,-1,-1,-1,-1,-1,-1],"split_conditions":[1.14778385E-1,1.102222E-1,1.5256831E-1,7.99353E-2,7.645845E-2,9.219601E-3,1.0917719E-3,-1.342837E-4,7.130139E-2,1.2475065E-1,2.4243735E-2,1.2916048E-1,6.681729E-2,2.2410028E-2,4.8392903E-5,2.0987695E-1,4.0413324E-5,1.3084315E-1,-4.6668203E-5,9.1359536E-5,-1.3749372E-5,1.00459416E-4,4.131808E-4,1.0906399E-1,7.650022E-2,8.444632E-3,8.214436E-6,1.2318971E-1,8.923236E-2,-9.379851E-5,-2.7139058E-5,-7.7227574E-5,-7.2675866E-6,-6.056219E-5,-1.7076552E-5,3.1394575E-5,1.7203337E-4,-1.5803671E-5,4.3090906E-5],"split_indices":[2,3,0,3,8,11,0,0,10,3,11,2,0,11,0,0,0,5,0,0,0,0,0,2,2,11,0,6,2,0,0,0,0,0,0,0,0,0,0],"split_type":[0,0,0,0,0,0,0,0,0,0,0,0,0,0,0,0,0,0,0,0,0,0,0,0,0,0,0,0,0,0,0,0,0,0,0,0,0,0,0],"sum_hessian":[1.49E2,1.36E2,1.3E1,8.7E1,4.9E1,1.2E1,1E0,2.8E1,5.9E1,1.9E1,3E1,6E0,6E0,5.7E1,2E0,1.8E1,1E0,2.6E1,4E0,4E0,2E0,3E0,3E0,3.1E1,2.6E1,1.6E1,2E0,1.4E1,1.2E1,2.8E1,3E0,1.5E1,1.1E1,1E1,6E0,7E0,7E0,3E0,9E0],"tree_param":{"num_deleted":"0","num_feature":"12","num_nodes":"39","size_leaf_vector":"1"}},{"base_weights":[-1.9517084E-4,-1.0810974E-3,6.538929E-3,-1.982671E-3,2.491339E-4,1.2792017E-2,8.82565E-4,-1.3708114E-4,-1.5650667E-3,9.1924606E-4,-6.6489266E-4,5.9485706E-3,1.1107454E-3,2.0975745E-3,-2.651649E-3,-1.2560914E-3,-2.3139932E-3,-6.6575274E-4,1.5979161E-3,-7.667569E-4,3.9403003E-5,6.4608364E-5,3.9768653E-4,1.1867376E-4,4.1567955E-6,-2.4093397E-5,-1.7478029E-4,-5.5034173E-4,-8.88214E-5,-1.4808158E-4,-4.784351E-5,-6.73499E-5,6.4552296E-7,2.0710246E-3,6.844236E-4,7.128487E-6,-9.7675E-4,-6.456272E-5,-3.614042E-6,3.3202097E-5,1.5216281E-4,4.385165E-5,3.4302164E-7,-5.4600223E-5,-1.823809E-6],"categories":[],"categories_nodes":[],"categories_segments":[],"categories_sizes":[],"default_left":[0,0,0,0,0,0,0,0,0,0,0,0,0,0,0,0,0,0,0,0,0,0,0,0,0,0,0,0,0,0,0,0,0,0,0,0,0,0,0,0,0,0,0,0,0],"id":18,"left_children":[1,3,5,7,9,11,13,-1,15,17,19,21,-1,23,25,27,29,31,33,35,-1,-1,-1,-1,-1,-1,-1,37,-1,-1,-1,-1,-1,39,41,-1,43,-1,-1,-1,-1,-1,-1,-1,-1],"loss_changes":[8.7212736E-4,1.5520382E-4,5.899959E-4,2.0113657E-5,3.3073717E-5,3.837333E-4,4.8503076E-5,0E0,9.1262045E-6,3.4410245E-5,4.0083405E-6,4.5743436E-5,0E0,4.2489555E-6,3.809182E-6,1.3344215E-5,9.4710485E-6,4.6407517E-6,8.090519E-6,4.340207E-6,0E0,0E0,0E0,0E0,0E0,0E0,0E0,6.2822924E-6,0E0,0E0,0E0,0E0,0E0,1.7129936E-5,1.1685279E-6,0E0,1.9108393E-6,0E0,0E0,0E0,0E0,0E0,0E0,0E0,0E0],"parents":[2147483647,0,0,1,1,2,2,3,3,4,4,5,5,6,6,8,8,9,9,10,10,11,11,13,13,14,14,15,15,16,16,17,17,18,18,19,19,27,27,33,33,34,34,36,36],"right_children":[2,4,6,8,10,12,14,-1,16,18,20,22,-1,24,26,28,30,32,34,36,-1,-1,-1,-1,-1,-1,-1,38,-1,-1,-1,-1,-1,40,42,-1,44,-1,-1,-1,-1,-1,-1,-1,-1],"split_conditions":[1.14778385E-1,1.0562448E-1,1.2801372E-1,8.384467E-2,4.9476568E-2,8.184713E-2,1.0616442E-1,-1.3708114E-4,1.2846878E-1,3.7915207E-2,1.2443297E-1,1.23938374E-1,1.1107454E-3,1.13556676E-1,1.1394229E-1,5.903437E-2,1.4057335E-1,7.715474E-2,3.358169E-2,1.0800381E-1,3.9403003E-5,6.4608364E-5,3.9768653E-4,1.1867376E-4,4.1567955E-6,-2.4093397E-5,-1.7478029E-4,9.8317005E-2,-8.88214E-5,-1.4808158E-4,-4.784351E-5,-6.73499E-5,6.4552296E-7,1.8935079E-2,1.315318E-1,7.128487E-6,9.9635415E-2,-6.456272E-5,-3.614042E-6,3.3202097E-5,1.5216281E-4,4.385165E-5,3.4302164E-7,-5.4600223E-5,-1.823809E-6],"split_indices":[2,3,3,4,0,1,1,0,6,1,3,3,0,0,0,0,6,9,0,3,0,0,0,0,0,0,0,4,0,0,0,0,0,0,4,0,1,0,0,0,0,0,0,0,0],"split_type":[0,0,0,0,0,0,0,0,0,0,0,0,0,0,0,0,0,0,0,0,0,0,0,0,0,0,0,0,0,0,0,0,0,0,0,0,0,0,0,0,0,0,0,0,0],"sum_hessian":[1.44E2,1.28E2,1.6E1,7.6E1,5.2E1,7E0,9E0,2.5E1,5.1E1,3E1,2.2E1,5E0,2E0,7E0,2E0,3.8E1,1.3E1,9E0,2.1E1,2.1E1,1E0,2E0,3E0,6E0,1E0,1E0,1E0,1.7E1,2.1E1,8E0,5E0,4E0,5E0,1.3E1,8E0,4E0,1.7E1,6E0,1.1E1,6E0,7E0,6E0,2E0,1.5E1,2E0],"tree_param":{"num_deleted":"0","num_feature":"12","num_nodes":"45","size_leaf_vector":"1"}},{"base_weights":[-9.343178E-5,-8.6284854E-4,1.2325092E-2,-2.0574674E-3,-1.054262E-4,3.1758144E-3,1.3257642E-3,-1.27502E-4,-1.4175952E-3,6.345259E-4,-1.2954965E-3,5.1742634E-3,-1.704108E-4,-1.7675324E-3,3.869872E-5,-4.0656113E-4,1.1364069E-3,-1.8494808E-3,-6.605437E-4,3.473731E-4,8.3815525E-5,-1.2008157E-4,-5.4591113E-5,-7.9524114E-5,8.0067126E-5,1.3136306E-3,-2.6058948E-5,-2.9997147E-5,-9.925666E-5,-7.334196E-4,1.0814879E-5,1.4765522E-5,-2.3902894E-5,1.2824034E-4,3.8346283E-5,-5.1824267E-5,-1.6933824E-5],"categories":[],"categories_nodes":[],"categories_segments":[],"categories_sizes":[],"default_left":[0,0,0,0,0,0,0,0,0,0,0,0,0,0,0,0,0,0,0,0,0,0,0,0,0,0,0,0,0,0,0,0,0,0,0,0,0],"id":19,"left_children":[1,3,5,7,9,11,-1,-1,13,15,17,19,-1,21,-1,23,25,27,29,-1,-1,-1,-1,-1,31,33,-1,-1,-1,35,-1,-1,-1,-1,-1,-1,-1],"loss_changes":[1.3101174E-3,1.1650627E-4,9.5443253E-4,1.2144257E-5,7.126963E-5,9.658211E-5,0E0,0E0,1.977391E-5,2.658711E-5,9.6827025E-6,1.9366737E-5,0E0,6.3756524E-6,0E0,9.921547E-6,1.06725965E-5,1.521079E-6,1.1810471E-6,0E0,0E0,0E0,0E0,0E0,1.7029001E-6,1.9237737E-5,0E0,0E0,0E0,1.4434636E-6,0E0,0E0,0E0,0E0,0E0,0E0,0E0],"parents":[2147483647,0,0,1,1,2,2,3,3,4,4,5,5,8,8,9,9,10,10,11,11,13,13,15,15,16,16,17,17,18,18,24,24,25,25,29,29],"right_children":[2,4,6,8,10,12,-1,-1,14,16,18,20,-1,22,-1,24,26,28,30,-1,-1,-1,-1,-1,32,34,-1,-1,-1,36,-1,-1,-1,-1,-1,-1,-1],"split_conditions":[1.191986E-1,7.823024E-2,1.401543E-1,6.1657235E-2,7.7631265E-2,1.13556676E-1,1.3257642E-3,-1.27502E-4,1.01468444E-1,8.923236E-2,1.05368264E-1,1.24616876E-1,-1.704108E-4,8.670254E-2,3.869872E-5,3.7170123E-2,2.383087E-2,1.5052728E-1,1.11285284E-1,3.473731E-4,8.3815525E-5,-1.2008157E-4,-5.4591113E-5,-7.9524114E-5,1.0317482E-1,3.358169E-2,-2.6058948E-5,-2.9997147E-5,-9.925666E-5,1.0930396E-1,1.0814879E-5,1.4765522E-5,-2.3902894E-5,1.2824034E-4,3.8346283E-5,-5.1824267E-5,-1.6933824E-5],"split_indices":[2,2,0,2,1,0,0,0,9,2,2,2,0,9,0,10,11,0,5,0,0,0,0,0,8,0,0,0,0,2,0,0,0,0,0,0,0],"split_type":[0,0,0,0,0,0,0,0,0,0,0,0,0,0,0,0,0,0,0,0,0,0,0,0,0,0,0,0,0,0,0,0,0,0,0,0,0],"sum_hessian":[1.35E2,1.28E2,7E0,4.9E1,7.9E1,5E0,2E0,2.6E1,2.3E1,4.9E1,3E1,4E0,1E0,2E1,3E0,1.6E1,3.3E1,1.5E1,1.5E1,2E0,2E0,9E0,1.1E1,4E0,1.2E1,3E1,3E0,2E0,1.3E1,1.4E1,1E0,9E0,3E0,8E0,2.2E1,7E0,7E0],"tree_param":{"num_deleted":"0","num_feature":"12","num_nodes":"37","size_leaf_vector":"1"}},{"base_weights":[3.4126296E-4,-4.4754104E-4,2.2517283E-2,-9.5502025E-4,5.636761E-3,1.4904054E-3,-1.6615051E-4,-1.604761E-3,3.6616618E-4,3.111467E-3,5.666861E-4,-1.2052162E-4,-1.2280209E-3,-7.409841E-4,9.6438127E-4,7.2836316E-5,3.6960496E-3,-9.640434E-4,-1.8700763E-3,-8.9027436E-4,3.745926E-5,1.3986642E-3,-3.0015846E-5,2.0118673E-4,5.1440602E-5,-6.7071865E-5,-3.2439348E-5,-1.1341281E-4,-2.303966E-5,2.534676E-6,-5.6487042E-5,5.099366E-5,1.2791685E-4],"categories":[],"categories_nodes":[],"categories_segments":[],"categories_sizes":[],"default_left":[0,0,0,0,0,0,0,0,0,0,0,0,0,0,0,0,0,0,0,0,0,0,0,0,0,0,0,0,0,0,0,0,0],"id":20,"left_children":[1,3,5,7,9,-1,-1,11,13,15,-1,-1,17,19,21,-1,23,25,27,29,-1,31,-1,-1,-1,-1,-1,-1,-1,-1,-1,-1,-1],"loss_changes":[2.5464948E-3,4.4074282E-4,1.041038E-3,1.1304176E-4,1.22987E-4,0E0,0E0,2.3750472E-5,2.9856406E-5,3.321853E-6,0E0,0E0,8.705436E-6,4.2264655E-6,2.0545764E-5,0E0,1.1044249E-6,4.6025816E-6,8.494317E-6,3.4372242E-6,0E0,7.4941163E-6,0E0,0E0,0E0,0E0,0E0,0E0,0E0,0E0,0E0,0E0,0E0],"parents":[2147483647,0,0,1,1,2,2,3,3,4,4,7,7,8,8,9,9,12,12,13,13,14,14,16,16,17,17,18,18,19,19,21,21],"right_children":[2,4,6,8,10,-1,-1,12,14,16,-1,-1,18,20,22,-1,24,26,28,30,-1,32,-1,-1,-1,-1,-1,-1,-1,-1,-1,-1,-1],"split_conditions":[1.2831107E-1,1.14778385E-1,1.0341655E-1,1.102222E-1,8.101225E-2,1.4904054E-3,-1.6615051E-4,8.435903E-2,7.5778045E-2,4.7240112E-2,5.666861E-4,-1.2052162E-4,1.2846878E-1,1.2443297E-1,7.247007E-2,7.2836316E-5,7.2292775E-2,1.0200929E-1,1.2256974E-1,9.512269E-2,3.745926E-5,3.6789037E-2,-3.0015846E-5,2.0118673E-4,5.1440602E-5,-6.7071865E-5,-3.2439348E-5,-1.1341281E-4,-2.303966E-5,2.534676E-6,-5.6487042E-5,5.099366E-5,1.2791685E-4],"split_indices":[2,2,1,3,1,0,0,4,8,9,0,0,6,3,9,0,1,6,4,6,0,10,0,0,0,0,0,0,0,0,0,0,0],"split_type":[0,0,0,0,0,0,0,0,0,0,0,0,0,0,0,0,0,0,0,0,0,0,0,0,0,0,0,0,0,0,0,0,0],"sum_hessian":[1.44E2,1.4E2,4E0,1.3E2,1E1,3E0,1E0,8.7E1,4.3E1,8E0,2E0,2.6E1,6.1E1,1.5E1,2.8E1,3E0,5E0,4.5E1,1.6E1,1.4E1,1E0,2.2E1,6E0,4E0,1E0,1.9E1,2.6E1,1.2E1,4E0,3E0,1.1E1,1.8E1,4E0],"tree_param":{"num_deleted":"0","num_feature":"12","num_nodes":"33","size_leaf_vector":"1"}},{"base_weights":[1.12825204E-4,-8.276272E-4,1.0213287E-2,-1.7223727E-3,3.411243E-7,1.3249982E-3,4.3059546E-3,-1.9978092E-3,-1.089482E-3,-1.5717441E-3,5.5518805E-4,5.5943424E-4,2.2980196E-3,-1.0711581E-4,-3.8685706E-5,-5.219885E-4,-9.7320524E-5,-8.0094865E-4,-1.8903961E-3,-1.483275E-4,9.113084E-4,3.3722043E-3,5.6118997E-6,-2.0452811E-4,-6.322537E-5,-5.911213E-6,-5.2519677E-5,-1.1822261E-4,-3.769136E-5,-1.1442808E-3,5.8948644E-4,3.259708E-4,1.6310046E-3,3.983907E-5,1.8639663E-4,-2.2525912E-5,3.0080913E-5,-7.2816445E-5,-6.93788E-6,8.039228E-6,8.395484E-5,4.851581E-6,6.087348E-5,1.5839383E-4,1.2721856E-5],"categories":[],"categories_nodes":[],"categories_segments":[],"categories_sizes":[],"default_left":[0,0,0,0,0,0,0,0,0,0,0,0,0,0,0,0,0,0,0,0,0,0,0,0,0,0,0,0,0,0,0,0,0,0,0,0,0,0,0,0,0,0,0,0,0],"id":21,"left_children":[1,3,5,7,9,-1,11,13,15,17,19,-1,21,-1,-1,23,-1,25,27,29,31,33,-1,35,-1,-1,-1,-1,-1,37,39,41,43,-1,-1,-1,-1,-1,-1,-1,-1,-1,-1,-1,-1],"loss_changes":[1.3383133E-3,9.55665E-5,1.040422E-3,8.631338E-6,6.0186743E-5,0E0,1.1248894E-4,5.771857E-6,9.196327E-6,2.9069706E-6,1.2912518E-5,0E0,2.0752897E-5,0E0,0E0,3.0414571E-6,0E0,1.0679323E-6,4.6831774E-6,1.39014455E-5,1.3791359E-5,2.5265617E-6,0E0,2.4523843E-6,0E0,0E0,0E0,0E0,0E0,2.3080966E-6,4.868325E-6,3.963847E-6,3.0928095E-5,0E0,0E0,0E0,0E0,0E0,0E0,0E0,0E0,0E0,0E0,0E0,0E0],"parents":[2147483647,0,0,1,1,2,2,3,3,4,4,6,6,7,7,8,8,9,9,10,10,12,12,15,15,17,17,18,18,19,19,20,20,21,21,23,23,29,29,30,30,31,31,32,32],"right_children":[2,4,6,8,10,-1,12,14,16,18,20,-1,22,-1,-1,24,-1,26,28,30,32,34,-1,36,-1,-1,-1,-1,-1,38,40,42,44,-1,-1,-1,-1,-1,-1,-1,-1,-1,-1,-1,-1],"split_conditions":[1.19086675E-1,1.1027584E-1,4.8142165E-2,9.590724E-2,8.182619E-2,1.3249982E-3,1.1910883E-1,1.05368264E-1,5.391956E-2,1.2846878E-1,9.524585E-2,5.5943424E-4,8.101225E-2,-1.0711581E-4,-3.8685706E-5,1.05997816E-1,-9.7320524E-5,2.3905586E-2,1.3398561E-1,9.5581904E-2,1.2346925E-1,1.19147465E-1,5.6118997E-6,1.05821915E-1,-6.322537E-5,-5.911213E-6,-5.2519677E-5,-1.1822261E-4,-3.769136E-5,4.7010407E-2,8.829088E-2,1.14153065E-1,1.2549803E-1,3.983907E-5,1.8639663E-4,-2.2525912E-5,3.0080913E-5,-7.2816445E-5,-6.93788E-6,8.039228E-6,8.395484E-5,4.851581E-6,6.087348E-5,1.5839383E-4,1.2721856E-5],"split_indices":[2,5,8,5,2,0,2,2,11,6,2,0,1,0,0,5,0,1,5,8,6,2,0,5,0,0,0,0,0,10,2,2,6,0,0,0,0,0,0,0,0,0,0,0,0],"split_type":[0,0,0,0,0,0,0,0,0,0,0,0,0,0,0,0,0,0,0,0,0,0,0,0,0,0,0,0,0,0,0,0,0,0,0,0,0,0,0,0,0,0,0,0,0],"sum_hessian":[1.39E2,1.28E2,1.1E1,6.1E1,6.7E1,2E0,9E0,4.1E1,2E1,1.7E1,5E1,1E0,8E0,3.6E1,5E0,1.3E1,7E0,6E0,1.1E1,1.7E1,3.3E1,5E0,3E0,1E1,3E0,2E0,4E0,7E0,4E0,7E0,1E1,1.9E1,1.4E1,1E0,4E0,8E0,2E0,5E0,2E0,8E0,2E0,1.6E1,3E0,6E0,8E0],"tree_param":{"num_deleted":"0","num_feature":"12","num_nodes":"45","size_leaf_vector":"1"}},{"base_weights":[2.854858E-4,-8.7162456E-4,1.6067607E-2,-1.489114E-3,3.996741E-4,2.1702895E-2,-2.4372682E-3,-1.10096466E-4,-1.0655294E-3,1.0920431E-3,-4.5949226E-4,3.2193513E-4,1.3260416E-3,1.2326614E-5,-1.9512173E-4,-1.5139511E-3,-6.5632694E-4,-7.833847E-5,1.5097271E-3,-7.076067E-4,6.478386E-4,-1.5767841E-3,-1.4896504E-7,-1.0760684E-3,1.6650536E-4,-2.4290794E-5,3.1345167E-5,1.8468023E-3,3.3138608E-4,-2.219054E-4,-7.400623E-5,4.8921975E-5,-8.5991E-6,-8.197858E-5,-3.3168471E-6,-6.150668E-5,4.627928E-5,-5.2338E-6,3.336209E-5,4.8347432E-5,1.1379211E-4,-1.3989762E-5,4.1605268E-5,1.1076579E-5,-3.9916806E-5],"categories":[],"categories_nodes":[],"categories_segments":[],"categories_sizes":[],"default_left":[0,0,0,0,0,0,0,0,0,0,0,0,0,0,0,0,0,0,0,0,0,0,0,0,0,0,0,0,0,0,0,0,0,0,0,0,0,0,0,0,0,0,0,0,0],"id":22,"left_children":[1,3,5,7,9,11,13,-1,15,17,19,-1,-1,-1,-1,21,23,25,27,29,31,33,-1,35,37,-1,-1,39,41,43,-1,-1,-1,-1,-1,-1,-1,-1,-1,-1,-1,-1,-1,-1,-1],"loss_changes":[2.406282E-3,9.715183E-5,9.914185E-4,2.271458E-5,2.4891055E-5,3.440336E-4,1.2758717E-5,0E0,8.9151E-6,1.1361812E-5,5.678565E-6,0E0,0E0,0E0,0E0,2.3687717E-6,1.0540475E-5,2.3161501E-6,6.140217E-6,5.6749604E-6,1.2524075E-6,2.1673332E-6,0E0,7.306302E-6,1.5635384E-6,0E0,0E0,2.70678E-6,1.7629703E-6,2.9885741E-6,0E0,0E0,0E0,0E0,0E0,0E0,0E0,0E0,0E0,0E0,0E0,0E0,0E0,0E0,0E0],"parents":[2147483647,0,0,1,1,2,2,3,3,4,4,5,5,6,6,8,8,9,9,10,10,15,15,16,16,17,17,18,18,19,19,20,20,21,21,23,23,24,24,27,27,28,28,29,29],"right_children":[2,4,6,8,10,12,14,-1,16,18,20,-1,-1,-1,-1,22,24,26,28,30,32,34,-1,36,38,-1,-1,40,42,44,-1,-1,-1,-1,-1,-1,-1,-1,-1,-1,-1,-1,-1,-1,-1],"split_conditions":[1.1846312E-1,1.102222E-1,1.3055718E-1,7.99353E-2,4.9476568E-2,1.0729986E-1,1.2960249E-1,-1.10096466E-4,9.8261155E-2,1.8935079E-2,1.1351239E-1,3.2193513E-4,1.3260416E-3,1.2326614E-5,-1.9512173E-4,1.0906399E-1,7.85769E-2,1.2043715E-1,1.3008708E-1,1.16535045E-1,1.5256831E-1,8.11901E-2,-1.4896504E-7,1.2507747E-1,8.403064E-2,-2.4290794E-5,3.1345167E-5,1.2346925E-1,1.02148145E-1,1.077484E-1,-7.400623E-5,4.8921975E-5,-8.5991E-6,-8.197858E-5,-3.3168471E-6,-6.150668E-5,4.627928E-5,-5.2338E-6,3.336209E-5,4.8347432E-5,1.1379211E-4,-1.3989762E-5,4.1605268E-5,1.1076579E-5,-3.9916806E-5],"split_indices":[2,3,2,3,0,0,0,0,8,0,2,0,0,0,0,2,2,3,6,3,0,9,0,8,2,0,0,6,2,2,0,0,0,0,0,0,0,0,0,0,0,0,0,0,0],"split_type":[0,0,0,0,0,0,0,0,0,0,0,0,0,0,0,0,0,0,0,0,0,0,0,0,0,0,0,0,0,0,0,0,0,0,0,0,0,0,0,0,0,0,0,0,0],"sum_hessian":[1.3E2,1.22E2,8E0,8.2E1,4E1,6E0,2E0,2.9E1,5.3E1,2.2E1,1.8E1,2E0,4E0,1E0,1E0,2.4E1,2.9E1,6E0,1.6E1,1.5E1,3E0,2.3E1,1E0,1.9E1,1E1,4E0,2E0,1.2E1,4E0,1E1,5E0,2E0,1E0,2.2E1,1E0,1.8E1,1E0,7E0,3E0,5E0,7E0,2E0,2E0,6E0,4E0],"tree_param":{"num_deleted":"0","num_feature":"12","num_nodes":"45","size_leaf_vector":"1"}},{"base_weights":[-3.4471278E-4,-8.6324185E-4,5.128568E-3,-1.6233738E-3,-1.6964237E-4,2.6302307E-3,8.1525696E-4,-1.7678159E-3,-4.635237E-4,-1.3569334E-3,4.409651E-4,5.3469086E-4,4.287399E-3,-1.1592556E-4,-1.5500877E-3,2.7089613E-6,-4.9738574E-5,-1.13367525E-4,-8.169165E-4,-7.3091907E-4,8.416017E-4,5.759328E-5,-2.3321954E-5,9.7311095E-5,2.9899177E-4,1.5008423E-5,-1.7040597E-3,-6.282873E-5,4.081005E-5,-5.7196507E-5,-3.8142226E-4,1.0862972E-3,-2.5740924E-4,-9.091107E-5,-4.693705E-5,1.9700803E-5,-2.742436E-5,8.400603E-5,2.2982116E-5,-3.8444134E-5,3.404248E-5],"categories":[],"categories_nodes":[],"categories_segments":[],"categories_sizes":[],"default_left":[0,0,0,0,0,0,0,0,0,0,0,0,0,0,0,0,0,0,0,0,0,0,0,0,0,0,0,0,0,0,0,0,0,0,0,0,0,0,0,0,0],"id":23,"left_children":[1,3,5,7,9,11,-1,13,15,17,19,21,23,-1,25,-1,-1,-1,27,29,31,-1,-1,-1,-1,-1,33,-1,-1,-1,35,37,39,-1,-1,-1,-1,-1,-1,-1,-1],"loss_changes":[3.9324074E-4,6.615522E-5,2.9218782E-4,9.232448E-6,4.9171267E-5,3.590685E-5,0E0,2.7609058E-6,2.2541237E-6,9.455496E-6,2.1742628E-5,4.2445076E-6,1.2135679E-5,0E0,1.21919E-5,0E0,0E0,0E0,1.2513826E-5,1.2958321E-6,9.423007E-6,0E0,0E0,0E0,0E0,0E0,1.6132253E-6,0E0,0E0,0E0,1.2525011E-6,9.64717E-6,3.8827543E-6,0E0,0E0,0E0,0E0,0E0,0E0,0E0,0E0],"parents":[2147483647,0,0,1,1,2,2,3,3,4,4,5,5,7,7,8,8,9,9,10,10,11,11,12,12,14,14,18,18,19,19,20,20,26,26,30,30,31,31,32,32],"right_children":[2,4,6,8,10,12,-1,14,16,18,20,22,24,-1,26,-1,-1,-1,28,30,32,-1,-1,-1,-1,-1,34,-1,-1,-1,36,38,40,-1,-1,-1,-1,-1,-1,-1,-1],"split_conditions":[1.14778385E-1,1.1027584E-1,1.5256831E-1,1.0906399E-1,8.182619E-2,2.0108685E-2,8.1525696E-4,5.31127E-2,5.024861E-3,6.1657235E-2,7.645845E-2,8.101225E-2,4.500686E-2,-1.1592556E-4,4.7371782E-2,2.7089613E-6,-4.9738574E-5,-1.13367525E-4,9.865309E-2,7.481955E-2,2.749673E-2,5.759328E-5,-2.3321954E-5,9.7311095E-5,2.9899177E-4,1.5008423E-5,9.382226E-2,-6.282873E-5,4.081005E-5,-5.7196507E-5,8.1093E-2,1.3056225E-1,3.9759673E-2,-9.091107E-5,-4.693705E-5,1.9700803E-5,-2.742436E-5,8.400603E-5,2.2982116E-5,-3.8444134E-5,3.404248E-5],"split_indices":[2,5,0,2,2,10,0,2,11,2,8,1,0,0,0,0,0,0,9,1,11,0,0,0,0,0,8,0,0,0,0,5,0,0,0,0,0,0,0,0,0],"split_type":[0,0,0,0,0,0,0,0,0,0,0,0,0,0,0,0,0,0,0,0,0,0,0,0,0,0,0,0,0,0,0,0,0,0,0,0,0,0,0,0,0],"sum_hessian":[1.36E2,1.25E2,1.1E1,5.9E1,6.6E1,1E1,1E0,5.2E1,7E0,2.2E1,4.4E1,5E0,5E0,1.2E1,4E1,4E0,3E0,7E0,1.5E1,1.1E1,3.3E1,3E0,2E0,3E0,2E0,3E0,3.7E1,1.2E1,3E0,4E0,7E0,2.7E1,6E0,3.1E1,6E0,1E0,6E0,1.3E1,1.4E1,4E0,2E0],"tree_param":{"num_deleted":"0","num_feature":"12","num_nodes":"41","size_leaf_vector":"1"}},{"base_weights":[3.535256E-4,-7.1752974E-4,7.8886775E-3,-1.225376E-3,4.2407113E-4,2.079935E-2,1.7920551E-3,-9.462787E-5,-8.776301E-4,-5.622761E-4,1.0526801E-3,1.2539381E-3,-1.4942454E-5,2.7858475E-3,-2.7804666E-3,-9.5213717E-4,4.6494566E-5,9.703823E-6,-7.390164E-4,7.29541E-4,2.282789E-4,3.0123754E-4,7.6779594E-5,-1.887437E-5,-1.8966063E-4,-6.3219544E-5,-6.66983E-4,3.4318586E-5,-1.6552804E-5,-5.4207958E-5,-7.78283E-6,1.1230526E-3,-3.518771E-5,-2.0976147E-5,-8.759382E-5,-1.1979335E-5,6.888058E-5],"categories":[],"categories_nodes":[],"categories_segments":[],"categories_sizes":[],"default_left":[0,0,0,0,0,0,0,0,0,0,0,0,0,0,0,0,0,0,0,0,0,0,0,0,0,0,0,0,0,0,0,0,0,0,0,0,0],"id":24,"left_children":[1,3,5,7,9,11,13,-1,15,17,19,-1,-1,21,23,25,-1,27,29,31,-1,-1,-1,-1,-1,-1,33,-1,-1,-1,-1,35,-1,-1,-1,-1,-1],"loss_changes":[1.2323862E-3,7.820719E-5,1.4582449E-3,1.9915926E-5,2.6633019E-5,5.492219E-4,7.136389E-5,0E0,9.369796E-6,1.7257335E-6,2.6183236E-5,0E0,0E0,3.9341925E-5,5.868931E-6,4.588146E-6,0E0,1.380134E-6,2.4486944E-6,1.4890807E-5,0E0,0E0,0E0,0E0,0E0,0E0,8.392953E-6,0E0,0E0,0E0,0E0,7.2675048E-6,0E0,0E0,0E0,0E0,0E0],"parents":[2147483647,0,0,1,1,2,2,3,3,4,4,5,5,6,6,8,8,9,9,10,10,13,13,14,14,15,15,17,17,18,18,19,19,26,26,31,31],"right_children":[2,4,6,8,10,12,14,-1,16,18,20,-1,-1,22,24,26,-1,28,30,32,-1,-1,-1,-1,-1,-1,34,-1,-1,-1,-1,36,-1,-1,-1,-1,-1],"split_conditions":[1.2475065E-1,1.102222E-1,1.234097E-1,7.99353E-2,1.1310666E-2,1.0341655E-1,8.184713E-2,-9.462787E-5,7.158219E-2,5.2805208E-3,1.2350222E-1,1.2539381E-3,-1.4942454E-5,1.2602468E-1,1.031398E-1,3.7170123E-2,4.6494566E-5,7.7631265E-2,8.444632E-3,2.383087E-2,2.282789E-4,3.0123754E-4,7.6779594E-5,-1.887437E-5,-1.8966063E-4,-6.3219544E-5,4.3041926E-2,3.4318586E-5,-1.6552804E-5,-5.4207958E-5,-7.78283E-6,3.7915207E-2,-3.518771E-5,-2.0976147E-5,-8.759382E-5,-1.1979335E-5,6.888058E-5],"split_indices":[3,3,4,3,11,1,1,0,10,11,3,0,0,4,1,10,0,1,11,11,0,0,0,0,0,0,11,0,0,0,0,1,0,0,0,0,0],"split_type":[0,0,0,0,0,0,0,0,0,0,0,0,0,0,0,0,0,0,0,0,0,0,0,0,0,0,0,0,0,0,0,0,0,0,0,0,0],"sum_hessian":[1.51E2,1.33E2,1.8E1,9.2E1,4.1E1,5E0,1.3E1,3E1,6.2E1,1.6E1,2.5E1,4E0,1E0,1.1E1,2E0,6E1,2E0,4E0,1.2E1,2.4E1,1E0,2E0,9E0,1E0,1E0,2.7E1,3.3E1,1E0,3E0,7E0,5E0,1.9E1,5E0,2.8E1,5E0,3E0,1.6E1],"tree_param":{"num_deleted":"0","num_feature":"12","num_nodes":"37","size_leaf_vector":"1"}},{"base_weights":[2.4154005E-4,-7.683744E-4,9.313517E-3,-1.2650699E-3,4.1515927E-4,2.1656783E-2,4.9837814E-5,-9.732567E-5,-9.032638E-4,-2.4798178E-4,1.0243852E-3,2.3906618E-4,1.2037805E-3,9.806631E-4,-1.8491913E-4,-9.809054E-4,4.494475E-5,1.16822775E-4,-8.226022E-5,1.3544675E-3,-2.3675481E-4,2.3088185E-6,9.5180294E-5,-8.7049375E-5,-8.424434E-4,1.0037873E-3,-2.6248101E-4,1.9835145E-3,4.8974616E-5,2.6396034E-5,-4.6125602E-5,-5.5573357E-5,-1.6542623E-5,4.2340253E-7,6.2525E-5,-3.481211E-5,2.4201656E-5,1.6601873E-5,1.15668714E-4],"categories":[],"categories_nodes":[],"categories_segments":[],"categories_sizes":[],"default_left":[0,0,0,0,0,0,0,0,0,0,0,0,0,0,0,0,0,0,0,0,0,0,0,0,0,0,0,0,0,0,0,0,0,0,0,0,0,0,0],"id":25,"left_children":[1,3,5,7,9,11,13,-1,15,17,19,-1,-1,21,-1,23,-1,25,-1,27,29,-1,-1,-1,31,33,35,37,-1,-1,-1,-1,-1,-1,-1,-1,-1,-1,-1],"loss_changes":[1.2806633E-3,7.459506E-5,1.5997374E-3,2.0184758E-5,1.5606132E-5,1.2979982E-4,3.5027315E-5,0E0,9.277082E-6,9.876748E-6,8.646275E-6,0E0,0E0,6.8119207E-6,0E0,4.6373825E-6,0E0,5.646339E-6,0E0,1.831193E-6,3.1089219E-6,0E0,0E0,0E0,6.651404E-6,1.2172004E-6,4.222711E-6,1.9556537E-6,0E0,0E0,0E0,0E0,0E0,0E0,0E0,0E0,0E0,0E0,0E0],"parents":[2147483647,0,0,1,1,2,2,3,3,4,4,5,5,6,6,8,8,9,9,10,10,13,13,15,15,17,17,19,19,20,20,24,24,25,25,26,26,27,27],"right_children":[2,4,6,8,10,12,14,-1,16,18,20,-1,-1,22,-1,24,-1,26,-1,28,30,-1,-1,-1,32,34,36,38,-1,-1,-1,-1,-1,-1,-1,-1,-1,-1,-1],"split_conditions":[1.19086675E-1,1.2005412E-1,1.2885326E-1,7.99353E-2,1.02083445E-1,1.0729986E-1,1.2960249E-1,-9.732567E-5,7.158219E-2,3.4491975E-2,8.705676E-2,2.3906618E-4,1.2037805E-3,1.3159089E-1,-1.8491913E-4,6.624879E-2,4.494475E-5,1.2290773E-1,-8.226022E-5,3.0138655E-2,1.2350619E-1,2.3088185E-6,9.5180294E-5,-8.7049375E-5,9.382226E-2,8.80407E-3,1.2905906E-1,2.0351397E-2,4.8974616E-5,2.6396034E-5,-4.6125602E-5,-5.5573357E-5,-1.6542623E-5,4.2340253E-7,6.2525E-5,-3.481211E-5,2.4201656E-5,1.6601873E-5,1.15668714E-4],"split_indices":[2,4,3,3,2,0,0,0,10,0,0,0,0,3,0,2,0,4,0,0,4,0,0,0,8,0,4,0,0,0,0,0,0,0,0,0,0,0,0],"split_type":[0,0,0,0,0,0,0,0,0,0,0,0,0,0,0,0,0,0,0,0,0,0,0,0,0,0,0,0,0,0,0,0,0,0,0,0,0,0,0],"sum_hessian":[1.38E2,1.25E2,1.3E1,8.8E1,3.7E1,5E0,8E0,2.9E1,5.9E1,1.8E1,1.9E1,1E0,4E0,7E0,1E0,5.7E1,2E0,1.5E1,3E0,1.5E1,4E0,4E0,3E0,7E0,5E1,4E0,1.1E1,4E0,1.1E1,2E0,2E0,3.2E1,1.8E1,1E0,3E0,7E0,4E0,1E0,3E0],"tree_param":{"num_deleted":"0","num_feature":"12","num_nodes":"39","size_leaf_vector":"1"}},{"base_weights":[3.650661E-4,-9.982692E-4,2.497798E-3,-1.5262841E-3,-5.3477124E-4,8.468982E-4,1.9827956E-2,-9.1633905E-5,-1.097617E-3,-7.843631E-5,-3.5812453E-4,-4.087606E-4,1.5975434E-3,3.2800715E-5,1.2228469E-3,-1.2151642E-3,-1.3230524E-6,2.545107E-4,-6.232461E-4,-8.5408107E-4,1.6650002E-4,-1.4360521E-3,2.437218E-3,-1.1942001E-6,-6.419173E-5,-4.9896305E-5,4.062113E-5,-7.14453E-5,-4.8589302E-4,-1.3481626E-5,-8.462168E-5,-1.9218727E-5,5.4445274E-5,-1.8029613E-4,-6.109388E-4,7.2722137E-3,1.2801662E-3,1.1024108E-5,-2.5529229E-5,-3.6961686E-5,-6.83564E-6,-3.35766E-5,1.9202247E-5,1.7285302E-5,-4.1399864E-5,5.0170464E-5,4.2942815E-4,1.08274515E-4,1.4408072E-5],"categories":[],"categories_nodes":[],"categories_segments":[],"categories_sizes":[],"default_left":[0,0,0,0,0,0,0,0,0,0,0,0,0,0,0,0,0,0,0,0,0,0,0,0,0,0,0,0,0,0,0,0,0,0,0,0,0,0,0,0,0,0,0,0,0,0,0,0,0],"id":26,"left_children":[1,3,5,7,9,11,13,-1,15,-1,17,19,21,-1,-1,23,-1,25,27,29,31,33,35,-1,-1,37,-1,-1,39,41,-1,-1,-1,-1,43,45,47,-1,-1,-1,-1,-1,-1,-1,-1,-1,-1,-1,-1],"loss_changes":[4.328225E-4,2.1454573E-5,1.6426083E-3,3.5047342E-6,8.57044E-6,5.155093E-5,4.276887E-4,0E0,2.4860747E-6,0E0,7.3052265E-6,5.5218857E-6,9.01059E-5,0E0,0E0,1.4418365E-6,0E0,2.4181886E-6,2.7361584E-6,8.433806E-6,5.4998445E-6,1.2120116E-5,1.4173759E-4,0E0,0E0,1.3581767E-6,0E0,0E0,2.3758607E-6,2.0890457E-6,0E0,0E0,0E0,0E0,1.7397786E-6,3.2641838E-5,1.957564E-5,0E0,0E0,0E0,0E0,0E0,0E0,0E0,0E0,0E0,0E0,0E0,0E0],"parents":[2147483647,0,0,1,1,2,2,3,3,4,4,5,5,6,6,8,8,10,10,11,11,12,12,15,15,17,17,18,18,19,19,20,20,21,21,22,22,25,25,28,28,29,29,34,34,35,35,36,36],"right_children":[2,4,6,8,10,12,14,-1,16,-1,18,20,22,-1,-1,24,-1,26,28,30,32,34,36,-1,-1,38,-1,-1,40,42,-1,-1,-1,-1,44,46,48,-1,-1,-1,-1,-1,-1,-1,-1,-1,-1,-1,-1],"split_conditions":[1.19234115E-1,9.349356E-2,1.4882839E-1,8.384467E-2,1.6705828E-2,4.8949257E-2,7.7631265E-2,-9.1633905E-5,3.274502E-1,-7.843631E-5,5.903437E-2,7.715474E-2,5.9393935E-2,3.2800715E-5,1.2228469E-3,8.385062E-2,-1.3230524E-6,6.369388E-2,7.308551E-2,9.342242E-2,8.80407E-3,4.6193786E-2,9.151464E-2,-1.1942001E-6,-6.419173E-5,5.395348E-2,4.062113E-5,-7.14453E-5,1.0200929E-1,1.3025486E-1,-8.462168E-5,-1.9218727E-5,5.4445274E-5,-1.8029613E-4,3.1763464E-2,7.54334E-2,3.804988E-2,1.1024108E-5,-2.5529229E-5,-3.6961686E-5,-6.83564E-6,-3.35766E-5,1.9202247E-5,1.7285302E-5,-4.1399864E-5,5.0170464E-5,4.2942815E-4,1.08274515E-4,1.4408072E-5],"split_indices":[4,4,0,4,1,1,1,0,0,0,0,9,8,0,0,4,0,10,0,8,0,8,7,0,0,10,0,0,6,5,0,0,0,0,9,0,0,0,0,0,0,0,0,0,0,0,0,0,0],"split_type":[0,0,0,0,0,0,0,0,0,0,0,0,0,0,0,0,0,0,0,0,0,0,0,0,0,0,0,0,0,0,0,0,0,0,0,0,0,0,0,0,0,0,0,0,0,0,0,0,0],"sum_hessian":[1.47E2,9E1,5.7E1,4.1E1,4.9E1,5.3E1,4E0,2.2E1,1.9E1,6E0,4.3E1,2E1,3.3E1,1E0,3E0,1.7E1,2E0,1.3E1,3E1,1.1E1,9E0,7E0,2.6E1,1E0,1.6E1,9E0,4E0,3E0,2.7E1,6E0,5E0,6E0,3E0,1E0,6E0,4E0,2.2E1,6E0,3E0,1.5E1,1.2E1,2E0,4E0,1E0,5E0,1E0,3E0,1.1E1,1.1E1],"tree_param":{"num_deleted":"0","num_feature":"12","num_nodes":"49","size_leaf_vector":"1"}},{"base_weights":[-1.1461887E-4,-6.463461E-4,7.341024E-3,-1.155379E-3,3.5337068E-4,1.3445443E-3,1.0442314E-3,-8.307383E-5,-8.355689E-4,7.800655E-4,-2.830053E-4,4.5886124E-3,-1.5196193E-3,-9.0919505E-4,4.209256E-5,1.0632998E-3,-3.9605955E-5,-4.7261876E-4,2.9680163E-5,5.5491575E-5,2.6891314E-4,-7.081841E-6,-1.7578872E-4,-2.1592663E-4,-1.0346844E-3,1.504025E-3,4.605121E-4,-6.480987E-4,1.2985792E-5,-3.736937E-5,2.325058E-5,-9.0070636E-5,-4.1815172E-5,1.2193924E-4,4.4312128E-5,-2.9571238E-6,3.2015083E-5,9.706256E-6,-4.4772194E-5],"categories":[],"categories_nodes":[],"categories_segments":[],"categories_sizes":[],"default_left":[0,0,0,0,0,0,0,0,0,0,0,0,0,0,0,0,0,0,0,0,0,0,0,0,0,0,0,0,0,0,0,0,0,0,0,0,0,0,0],"id":27,"left_children":[1,3,5,7,9,11,-1,-1,13,15,17,19,21,23,-1,25,-1,27,-1,-1,-1,-1,-1,29,31,33,35,37,-1,-1,-1,-1,-1,-1,-1,-1,-1,-1,-1],"loss_changes":[5.9543573E-4,7.16527E-5,7.840592E-4,1.3664248E-5,1.3254601E-5,8.130528E-5,0E0,0E0,8.052026E-6,1.375586E-5,3.6048837E-6,5.0191084E-6,1.3255371E-5,4.735455E-6,0E0,5.948972E-6,0E0,2.3529924E-6,0E0,0E0,0E0,0E0,0E0,3.9664633E-6,5.7944817E-6,5.923339E-6,1.1590107E-6,3.090307E-6,0E0,0E0,0E0,0E0,0E0,0E0,0E0,0E0,0E0,0E0,0E0],"parents":[2147483647,0,0,1,1,2,2,3,3,4,4,5,5,8,8,9,9,10,10,11,11,12,12,13,13,15,15,17,17,23,23,24,24,25,25,26,26,27,27],"right_children":[2,4,6,8,10,12,-1,-1,14,16,18,20,22,24,-1,26,-1,28,-1,-1,-1,-1,-1,30,32,34,36,38,-1,-1,-1,-1,-1,-1,-1,-1,-1,-1,-1],"split_conditions":[1.191986E-1,1.102222E-1,1.401543E-1,7.99353E-2,6.681729E-2,1.0729986E-1,1.0442314E-3,-8.307383E-5,7.158219E-2,4.1348565E-2,1.1351239E-1,3.46024E-2,1.2960249E-1,1.4507454E-2,4.209256E-5,1.274433E-1,-3.9605955E-5,2.6296275E-2,2.9680163E-5,5.5491575E-5,2.6891314E-4,-7.081841E-6,-1.7578872E-4,3.5195746E-3,3.982874E-2,3.358169E-2,1.303355E-1,1.1129096E-1,1.2985792E-5,-3.736937E-5,2.325058E-5,-9.0070636E-5,-4.1815172E-5,1.2193924E-4,4.4312128E-5,-2.9571238E-6,3.2015083E-5,9.706256E-6,-4.4772194E-5],"split_indices":[2,3,0,3,0,0,0,0,10,10,2,0,0,0,0,6,0,10,0,0,0,0,0,0,1,0,6,3,0,0,0,0,0,0,0,0,0,0,0],"split_type":[0,0,0,0,0,0,0,0,0,0,0,0,0,0,0,0,0,0,0,0,0,0,0,0,0,0,0,0,0,0,0,0,0,0,0,0,0,0,0],"sum_hessian":[1.48E2,1.39E2,9E0,9.2E1,4.7E1,7E0,2E0,3.4E1,5.8E1,2.8E1,1.9E1,3E0,4E0,5.6E1,2E0,2.4E1,4E0,1.6E1,3E0,1E0,2E0,3E0,1E0,9E0,4.7E1,1.3E1,1.1E1,1.3E1,3E0,5E0,4E0,8E0,3.9E1,4E0,9E0,3E0,8E0,3E0,1E1],"tree_param":{"num_deleted":"0","num_feature":"12","num_nodes":"39","size_leaf_vector":"1"}},{"base_weights":[1.2965906E-4,-4.956609E-4,7.4142534E-3,-8.937079E-4,1.1284456E-3,1.1378315E-3,-2.2838663E-4,-1.7207982E-3,-6.1403075E-4,1.9296238E-3,5.5576515E-5,-1.71394E-4,6.00035E-4,-9.1440736E-5,-4.2908006E-5,-1.2607396E-3,-4.5964523E-4,-4.4217953E-4,2.7570731E-3,-5.8733225E-5,3.8604438E-4,5.345582E-5,-6.8162744E-6,-1.5917525E-3,-2.2187969E-5,-9.181294E-4,-1.743404E-4,-4.325556E-5,3.123868E-5,2.5769358E-4,1.7623265E-3,-8.2090503E-7,3.091842E-5,-1.0346737E-4,-3.0238456E-5,-2.1847176E-5,-7.0135924E-5,-5.5313878E-5,1.3222403E-6,3.062446E-5,1.08380766E-4],"categories":[],"categories_nodes":[],"categories_segments":[],"categories_sizes":[],"default_left":[0,0,0,0,0,0,0,0,0,0,0,0,0,0,0,0,0,0,0,0,0,0,0,0,0,0,0,0,0,0,0,0,0,0,0,0,0,0,0,0,0],"id":28,"left_children":[1,3,5,7,9,-1,11,13,15,17,19,-1,21,-1,-1,23,25,27,29,-1,31,-1,-1,33,-1,35,37,-1,-1,-1,39,-1,-1,-1,-1,-1,-1,-1,-1,-1,-1],"loss_changes":[6.9151045E-4,9.151442E-5,1.4122722E-3,2.5082343E-5,2.396042E-5,0E0,2.5911613E-5,1.0395961E-6,8.0069585E-6,3.261987E-5,5.738689E-6,0E0,2.9090515E-6,0E0,0E0,3.620542E-6,9.127284E-6,2.7967399E-6,1.952768E-5,0E0,1.038671E-6,0E0,0E0,3.933679E-6,0E0,5.6828812E-6,8.44962E-6,0E0,0E0,0E0,3.3325232E-6,0E0,0E0,0E0,0E0,0E0,0E0,0E0,0E0,0E0,0E0],"parents":[2147483647,0,0,1,1,2,2,3,3,4,4,6,6,7,7,8,8,9,9,10,10,12,12,15,15,16,16,17,17,18,18,20,20,23,23,25,25,26,26,30,30],"right_children":[2,4,6,8,10,-1,12,14,16,18,20,-1,22,-1,-1,24,26,28,30,-1,32,-1,-1,34,-1,36,38,-1,-1,-1,40,-1,-1,-1,-1,-1,-1,-1,-1,-1,-1],"split_conditions":[1.2727098E-1,1.1827508E-1,1.2885326E-1,8.435903E-2,1.2549803E-1,1.1378315E-3,4.6193786E-2,1.1389888E-1,2.372087E-2,8.531402E-2,1.2651068E-1,-1.71394E-4,8.101225E-2,-9.1440736E-5,-4.2908006E-5,1.4057335E-1,1.0200929E-1,7.263952E-2,9.151464E-2,-5.8733225E-5,1.303355E-1,5.345582E-5,-6.8162744E-6,1.1577898E-1,-2.2187969E-5,1.3882073E-2,1.5620977E-2,-4.325556E-5,3.123868E-5,2.5769358E-4,5.6985382E-2,-8.2090503E-7,3.091842E-5,-1.0346737E-4,-3.0238456E-5,-2.1847176E-5,-7.0135924E-5,-5.5313878E-5,1.3222403E-6,3.062446E-5,1.08380766E-4],"split_indices":[3,3,3,4,6,0,8,1,1,7,6,0,1,0,0,6,6,1,7,0,6,0,0,9,0,10,11,0,0,0,9,0,0,0,0,0,0,0,0,0,0],"split_type":[0,0,0,0,0,0,0,0,0,0,0,0,0,0,0,0,0,0,0,0,0,0,0,0,0,0,0,0,0,0,0,0,0,0,0,0,0,0,0,0,0],"sum_hessian":[1.5E2,1.39E2,1.1E1,1.12E2,2.7E1,3E0,8E0,2.7E1,8.5E1,1.5E1,1.2E1,1E0,7E0,2.3E1,4E0,1.5E1,7E1,4E0,1.1E1,2E0,1E1,4E0,3E0,1E1,5E0,2.6E1,4.4E1,3E0,1E0,2E0,9E0,4E0,6E0,6E0,4E0,1.4E1,1.2E1,7E0,3.7E1,3E0,6E0],"tree_param":{"num_deleted":"0","num_feature":"12","num_nodes":"41","size_leaf_vector":"1"}},{"base_weights":[1.7581065E-4,-5.6821504E-4,6.1635296E-3,-1.267557E-3,-1.09548506E-4,1.5000966E-2,1.9676369E-3,-8.130977E-5,-8.601665E-4,-8.034072E-4,1.2356354E-4,-1.3244164E-5,9.4418245E-4,3.097912E-3,-2.455826E-3,-6.1767106E-4,-7.150648E-5,-9.308817E-4,1.1462113E-5,-3.2466985E-4,9.125426E-4,6.1059814E-5,4.7303885E-3,-1.7077778E-5,-1.6710917E-4,7.4605255E-6,-7.617802E-4,-1.2392176E-3,-3.9055976E-4,-7.713978E-5,-1.413756E-4,1.0857571E-4,1.3641968E-3,2.8042044E-4,3.0457717E-5,-4.4595483E-5,-5.7940983E-6,-6.697287E-5,-5.920476E-6,1.0496737E-5,-5.2176892E-5,-5.645295E-5,3.0436802E-6,-3.0180332E-5,1.9914294E-5,1.01937134E-4,3.0172236E-5],"categories":[],"categories_nodes":[],"categories_segments":[],"categories_sizes":[],"default_left":[0,0,0,0,0,0,0,0,0,0,0,0,0,0,0,0,0,0,0,0,0,0,0,0,0,0,0,0,0,0,0,0,0,0,0,0,0,0,0,0,0,0,0,0,0,0,0],"id":29,"left_children":[1,3,5,7,9,11,13,-1,15,17,19,-1,-1,21,23,25,-1,27,-1,29,31,-1,33,-1,-1,-1,35,37,39,-1,41,43,45,-1,-1,-1,-1,-1,-1,-1,-1,-1,-1,-1,-1,-1,-1],"loss_changes":[6.4502464E-4,4.1239797E-5,5.6377857E-4,6.0526E-6,1.2877271E-5,3.013641E-4,6.760469E-5,0E0,2.7101996E-6,2.8461263E-6,2.151508E-5,0E0,0E0,2.4860215E-5,4.4804565E-6,2.323959E-6,0E0,2.5148238E-6,0E0,8.489629E-6,7.840414E-6,0E0,1.46762395E-5,0E0,0E0,0E0,1.3255003E-6,1.0772401E-6,3.3559531E-6,0E0,7.0602664E-6,2.0973462E-6,5.954E-6,0E0,0E0,0E0,0E0,0E0,0E0,0E0,0E0,0E0,0E0,0E0,0E0,0E0,0E0],"parents":[2147483647,0,0,1,1,2,2,3,3,4,4,5,5,6,6,8,8,9,9,10,10,13,13,14,14,15,15,17,17,19,19,20,20,22,22,26,26,27,27,28,28,30,30,31,31,32,32],"right_children":[2,4,6,8,10,12,14,-1,16,18,20,-1,-1,22,24,26,-1,28,-1,30,32,-1,34,-1,-1,-1,36,38,40,-1,42,44,46,-1,-1,-1,-1,-1,-1,-1,-1,-1,-1,-1,-1,-1,-1],"split_conditions":[1.14778385E-1,9.8317005E-2,1.234097E-1,8.384467E-2,7.645845E-2,1.1394229E-1,8.184713E-2,-8.130977E-5,1.0823448E-1,2.1313828E-1,9.524585E-2,-1.3244164E-5,9.4418245E-4,7.54334E-2,1.13556676E-1,8.831975E-2,-7.150648E-5,6.0362488E-2,1.1462113E-5,3.658463E-2,4.8949257E-2,6.1059814E-5,1.0729986E-1,-1.7077778E-5,-1.6710917E-4,7.4605255E-6,1.0425726E-1,1.14153065E-1,7.3439114E-2,-7.713978E-5,1.54933045E-2,1.3025486E-1,6.0099978E-2,2.8042044E-4,3.0457717E-5,-4.4595483E-5,-5.7940983E-6,-6.697287E-5,-5.920476E-6,1.0496737E-5,-5.2176892E-5,-5.645295E-5,3.0436802E-6,-3.0180332E-5,1.9914294E-5,1.01937134E-4,3.0172236E-5],"split_indices":[2,4,4,4,8,0,1,0,5,0,2,0,0,0,0,4,0,8,0,10,1,0,0,0,0,0,2,2,8,0,1,5,1,0,0,0,0,0,0,0,0,0,0,0,0,0,0],"split_type":[0,0,0,0,0,0,0,0,0,0,0,0,0,0,0,0,0,0,0,0,0,0,0,0,0,0,0,0,0,0,0,0,0,0,0,0,0,0,0,0,0,0,0,0,0,0,0],"sum_hessian":[1.43E2,1.28E2,1.5E1,5E1,7.8E1,4E0,1.1E1,2.5E1,2.5E1,1.9E1,5.9E1,1E0,3E0,9E0,2E0,1.9E1,6E0,1.7E1,2E0,3.8E1,2.1E1,5E0,4E0,1E0,1E0,3E0,1.6E1,1E1,7E0,4E0,3.4E1,8E0,1.3E1,3E0,1E0,1.3E1,3E0,9E0,1E0,4E0,3E0,5E0,2.9E1,2E0,6E0,6E0,7E0],"tree_param":{"num_deleted":"0","num_feature":"12","num_nodes":"47","size_leaf_vector":"1"}},{"base_weights":[-1.06619824E-4,-5.715173E-4,4.217901E-3,-1.0106113E-3,4.0628703E-4,9.730234E-3,7.435633E-5,-7.780349E-5,-7.6470524E-4,-4.7423338E-4,7.869932E-4,2.6668925E-3,7.9523056E-4,-1.6293144E-4,8.9830806E-4,-5.123657E-4,-1.3353848E-3,-5.1636423E-5,7.6004667E-6,3.8666907E-4,1.2499561E-3,1.9879451E-4,4.526316E-5,-6.2760373E-6,7.688547E-5,-7.605232E-4,5.1194536E-5,-9.3983275E-5,-2.6088837E-5,-3.3297105E-4,1.0633459E-3,2.7937256E-5,1.7626018E-3,-2.9665845E-5,-6.9309885E-5,3.9882216E-5,-2.008974E-5,1.6846689E-5,-3.6203954E-5,1.1158438E-4,2.0536076E-5,1.1223314E-4,1.8581655E-5],"categories":[],"categories_nodes":[],"categories_segments":[],"categories_sizes":[],"default_left":[0,0,0,0,0,0,0,0,0,0,0,0,0,0,0,0,0,0,0,0,0,0,0,0,0,0,0,0,0,0,0,0,0,0,0,0,0,0,0,0,0,0,0],"id":30,"left_children":[1,3,5,7,9,11,13,-1,15,17,19,21,-1,-1,23,25,27,-1,-1,29,31,-1,-1,-1,-1,33,35,-1,-1,37,39,-1,41,-1,-1,-1,-1,-1,-1,-1,-1,-1,-1],"loss_changes":[2.899062E-4,5.622584E-5,3.190449E-4,1.08819E-5,1.411722E-5,2.1925458E-4,2.7643222E-5,0E0,8.532115E-6,4.7037793E-6,4.891399E-6,5.624648E-6,0E0,0E0,5.4301154E-6,6.4721135E-6,7.4330273E-6,0E0,0E0,8.632448E-6,3.6216588E-6,0E0,0E0,0E0,0E0,2.5252775E-6,5.3924964E-6,0E0,0E0,2.6020134E-6,5.9457934E-6,0E0,3.859528E-6,0E0,0E0,0E0,0E0,0E0,0E0,0E0,0E0,0E0,0E0],"parents":[2147483647,0,0,1,1,2,2,3,3,4,4,5,5,6,6,8,8,9,9,10,10,11,11,14,14,15,15,16,16,19,19,20,20,25,25,26,26,29,29,30,30,32,32],"right_children":[2,4,6,8,10,12,14,-1,16,18,20,22,-1,-1,24,26,28,-1,-1,30,32,-1,-1,-1,-1,34,36,-1,-1,38,40,-1,42,-1,-1,-1,-1,-1,-1,-1,-1,-1,-1],"split_conditions":[1.14778385E-1,1.102222E-1,1.2885326E-1,8.435903E-2,7.5778045E-2,7.7631265E-2,4.6193786E-2,-7.780349E-5,1.2846878E-1,7.814797E-2,1.02148145E-1,7.2292775E-2,7.9523056E-4,-1.6293144E-4,1.3078924E-1,1.1288198E-1,1.3398561E-1,-5.1636423E-5,7.6004667E-6,1.10966705E-1,6.049752E-2,1.9879451E-4,4.526316E-5,-6.2760373E-6,7.688547E-5,1.0002073E-1,1.1653882E-1,-9.3983275E-5,-2.6088837E-5,1.13927074E-1,1.2290773E-1,2.7937256E-5,5.610644E-2,-2.9665845E-5,-6.9309885E-5,3.9882216E-5,-2.008974E-5,1.6846689E-5,-3.6203954E-5,1.1158438E-4,2.0536076E-5,1.1223314E-4,1.8581655E-5],"split_indices":[2,3,3,4,8,1,8,0,6,1,2,1,0,0,3,5,5,0,0,7,9,0,0,0,0,4,5,0,0,3,4,0,1,0,0,0,0,0,0,0,0,0,0],"split_type":[0,0,0,0,0,0,0,0,0,0,0,0,0,0,0,0,0,0,0,0,0,0,0,0,0,0,0,0,0,0,0,0,0,0,0,0,0,0,0,0,0,0,0],"sum_hessian":[1.42E2,1.29E2,1.3E1,8.9E1,4E1,5E0,8E0,2.6E1,6.3E1,1.2E1,2.8E1,3E0,2E0,1E0,7E0,4.5E1,1.8E1,6E0,6E0,1.6E1,1.2E1,1E0,2E0,3E0,4E0,3.1E1,1.4E1,1E1,8E0,8E0,8E0,6E0,6E0,2.6E1,5E0,5E0,9E0,3E0,5E0,2E0,6E0,4E0,2E0],"tree_param":{"num_deleted":"0","num_feature":"12","num_nodes":"43","size_leaf_vector":"1"}},{"base_weights":[1.6777524E-4,-5.224229E-4,5.435892E-3,-8.6164434E-4,1.6018352E-4,2.7088881E-3,8.629474E-4,-7.296437E-5,-6.24065E-4,6.86669E-4,-2.674122E-4,5.419115E-3,2.9994635E-4,-6.0155635E-5,-4.9455406E-4,-4.7669388E-7,1.7174472E-3,-6.988904E-5,-1.08346205E-4,4.375439E-5,3.5308543E-4,1.1317304E-3,-1.5885817E-4,8.023646E-6,-8.1461936E-4,7.4450414E-5,-2.4868446E-4,1.07538035E-4,1.3916893E-5,4.439259E-4,-3.7771062E-4,1.1934392E-5,8.099092E-5,2.2673845E-5,-1.3945612E-5,-2.7808303E-5,-6.1028277E-5,4.2118277E-6,-3.6581063E-5,-1.0487437E-5,3.483878E-5,-3.1067375E-5,1.4128001E-5],"categories":[],"categories_nodes":[],"categories_segments":[],"categories_sizes":[],"default_left":[0,0,0,0,0,0,0,0,0,0,0,0,0,0,0,0,0,0,0,0,0,0,0,0,0,0,0,0,0,0,0,0,0,0,0,0,0,0,0,0,0,0,0],"id":31,"left_children":[1,3,5,7,9,11,-1,-1,13,15,17,19,21,-1,23,25,27,-1,29,-1,-1,31,-1,33,35,-1,37,-1,-1,39,41,-1,-1,-1,-1,-1,-1,-1,-1,-1,-1,-1,-1],"loss_changes":[5.337023E-4,3.0240139E-5,5.013533E-4,1.1442229E-5,1.0089033E-5,9.630624E-5,0E0,0E0,4.2045485E-6,1.4166715E-5,4.343636E-6,4.6068308E-5,2.9625533E-5,0E0,8.692852E-6,5.1764164E-6,4.3900454E-6,0E0,3.589212E-6,0E0,0E0,3.1004365E-6,0E0,2.9384437E-6,2.7834612E-6,0E0,1.9909867E-6,0E0,0E0,1.4683991E-6,2.7494286E-6,0E0,0E0,0E0,0E0,0E0,0E0,0E0,0E0,0E0,0E0,0E0,0E0],"parents":[2147483647,0,0,1,1,2,2,3,3,4,4,5,5,8,8,9,9,10,10,11,11,12,12,14,14,15,15,16,16,18,18,21,21,23,23,24,24,26,26,29,29,30,30],"right_children":[2,4,6,8,10,12,-1,-1,14,16,18,20,22,-1,24,26,28,-1,30,-1,-1,32,-1,34,36,-1,38,-1,-1,40,42,-1,-1,-1,-1,-1,-1,-1,-1,-1,-1,-1,-1],"split_conditions":[1.14778385E-1,1.102222E-1,1.5256831E-1,8.435903E-2,3.911682E-2,1.276437E-1,8.629474E-4,-7.296437E-5,1.6705828E-2,4.8949257E-2,5.137465E-2,1.23938374E-1,1.2960249E-1,-6.0155635E-5,4.7941063E-2,1.10411376E-1,3.358169E-2,-6.988904E-5,8.705676E-2,4.375439E-5,3.5308543E-4,1.3159089E-1,-1.5885817E-4,1.2568463E-1,1.00065455E-1,7.4450414E-5,4.241132E-2,1.07538035E-4,1.3916893E-5,4.352263E-2,1.7537566E-1,1.1934392E-5,8.099092E-5,2.2673845E-5,-1.3945612E-5,-2.7808303E-5,-6.1028277E-5,4.2118277E-6,-3.6581063E-5,-1.0487437E-5,3.483878E-5,-3.1067375E-5,1.4128001E-5],"split_indices":[2,3,0,4,0,3,0,0,1,1,1,3,0,0,0,3,0,0,0,0,0,3,0,7,4,0,10,0,0,0,0,0,0,0,0,0,0,0,0,0,0,0,0],"split_type":[0,0,0,0,0,0,0,0,0,0,0,0,0,0,0,0,0,0,0,0,0,0,0,0,0,0,0,0,0,0,0,0,0,0,0,0,0,0,0,0,0,0,0],"sum_hessian":[1.45E2,1.29E2,1.6E1,8.6E1,4.3E1,1.4E1,2E0,2.3E1,6.3E1,1.9E1,2.4E1,6E0,8E0,1E1,5.3E1,1.2E1,7E0,2E0,2.2E1,2E0,4E0,7E0,1E0,2.1E1,3.2E1,1E0,1.1E1,5E0,2E0,7E0,1.5E1,3E0,4E0,8E0,1.3E1,2.1E1,1.1E1,7E0,4E0,2E0,5E0,1.1E1,4E0],"tree_param":{"num_deleted":"0","num_feature":"12","num_nodes":"43","size_leaf_vector":"1"}},{"base_weights":[3.194625E-4,-4.5273305E-4,7.1449657E-3,-9.299023E-4,3.8424897E-4,1.5332007E-2,-1.6618365E-5,-1.2803036E-3,-5.8998336E-4,-4.22638E-4,6.873648E-4,9.5980096E-4,1.8906604E-4,-1.5488673E-4,7.5573794E-4,-7.32699E-5,-9.32794E-4,-6.5142626E-4,2.436797E-5,-7.303004E-4,2.6454654E-5,8.154867E-4,-1.3504434E-5,-6.4882042E-6,6.56496E-5,-7.347977E-5,-2.9234882E-4,-1.1117199E-3,-4.7825483E-4,6.2175563E-6,-4.670199E-5,2.3499341E-4,1.1083644E-3,-4.9892402E-5,2.358101E-5,-7.236853E-5,-2.0973244E-5,-4.2735825E-5,1.5240086E-6,-5.2025705E-5,2.2277041E-5,1.027033E-4,2.4439736E-5],"categories":[],"categories_nodes":[],"categories_segments":[],"categories_sizes":[],"default_left":[0,0,0,0,0,0,0,0,0,0,0,0,0,0,0,0,0,0,0,0,0,0,0,0,0,0,0,0,0,0,0,0,0,0,0,0,0,0,0,0,0,0,0],"id":32,"left_children":[1,3,5,7,9,11,13,15,17,19,21,-1,-1,-1,23,-1,25,27,-1,29,-1,31,-1,-1,-1,-1,33,35,37,-1,-1,39,41,-1,-1,-1,-1,-1,-1,-1,-1,-1,-1],"loss_changes":[7.7801634E-4,5.347513E-5,8.7973766E-4,9.368829E-6,1.2274937E-5,2.3983745E-4,2.3758552E-5,1.2702876E-6,3.2962562E-6,4.4857634E-6,4.636404E-6,0E0,0E0,0E0,4.1179755E-6,0E0,5.4148286E-6,2.895833E-6,0E0,2.0315365E-6,0E0,5.179978E-6,0E0,0E0,0E0,0E0,5.3214208E-6,1.9487925E-6,6.346185E-6,0E0,0E0,3.6862489E-6,1.13004735E-5,0E0,0E0,0E0,0E0,0E0,0E0,0E0,0E0,0E0,0E0],"parents":[2147483647,0,0,1,1,2,2,3,3,4,4,5,5,6,6,7,7,8,8,9,9,10,10,14,14,16,16,17,17,19,19,21,21,26,26,27,27,28,28,31,31,32,32],"right_children":[2,4,6,8,10,12,14,16,18,20,22,-1,-1,-1,24,-1,26,28,-1,30,-1,32,-1,-1,-1,-1,34,36,38,-1,-1,40,42,-1,-1,-1,-1,-1,-1,-1,-1,-1,-1],"split_conditions":[1.1846312E-1,1.102222E-1,1.2885326E-1,8.612165E-2,8.444632E-3,1.234097E-1,4.6193786E-2,8.435903E-2,9.897632E-2,1.1351239E-1,2.383087E-2,9.5980096E-4,1.8906604E-4,-1.5488673E-4,1.3078924E-1,-7.32699E-5,1.09482095E-1,7.53445E-2,2.436797E-5,1.1129096E-1,2.6454654E-5,1.2318971E-1,-1.3504434E-5,-6.4882042E-6,6.56496E-5,-7.347977E-5,4.9727667E-2,1.4057335E-1,1.5620977E-2,6.2175563E-6,-4.670199E-5,1.0064356E-1,1.2549803E-1,-4.9892402E-5,2.358101E-5,-7.236853E-5,-2.0973244E-5,-4.2735825E-5,1.5240086E-6,-5.2025705E-5,2.2277041E-5,1.027033E-4,2.4439736E-5],"split_indices":[2,3,3,3,11,4,8,4,9,2,11,0,0,0,3,0,9,2,0,3,0,6,0,0,0,0,2,6,11,0,0,2,6,0,0,0,0,0,0,0,0,0,0],"split_type":[0,0,0,0,0,0,0,0,0,0,0,0,0,0,0,0,0,0,0,0,0,0,0,0,0,0,0,0,0,0,0,0,0,0,0,0,0,0,0,0,0,0,0],"sum_hessian":[1.46E2,1.32E2,1.4E1,8.4E1,4.8E1,6E0,8E0,4E1,4.4E1,1.3E1,3.5E1,4E0,2E0,1E0,7E0,2.4E1,1.6E1,4.2E1,2E0,1E1,3E0,3.1E1,4E0,3E0,4E0,8E0,8E0,1E1,3.2E1,2E0,8E0,1.1E1,2E1,4E0,4E0,6E0,4E0,1.8E1,1.4E1,1E0,1E1,7E0,1.3E1],"tree_param":{"num_deleted":"0","num_feature":"12","num_nodes":"43","size_leaf_vector":"1"}},{"base_weights":[3.895538E-5,-4.942556E-4,5.949209E-3,-9.205828E-4,1.3806719E-4,8.297471E-4,-1.1730968E-4,-7.2392846E-5,-6.3277804E-4,5.012472E-4,-2.7626308E-4,7.2887214E-4,-1.5101457E-4,-1.0226851E-3,-1.8401306E-4,7.387581E-4,-3.457764E-5,-6.913991E-5,-6.4729706E-5,6.282999E-5,-1.968157E-5,-1.5092217E-3,-6.242732E-4,9.0332025E-5,-1.0221036E-3,-9.24964E-6,9.429685E-4,2.511162E-5,-5.3952186E-4,-1.9135343E-5,-8.5851774E-5,-4.2260424E-5,1.541304E-6,-1.6157284E-5,1.5301264E-5,-7.0248076E-5,2.230464E-5,2.346555E-5,5.900797E-5,-3.4302917E-5,2.6809472E-5],"categories":[],"categories_nodes":[],"categories_segments":[],"categories_sizes":[],"default_left":[0,0,0,0,0,0,0,0,0,0,0,0,0,0,0,0,0,0,0,0,0,0,0,0,0,0,0,0,0,0,0,0,0,0,0,0,0,0,0,0,0],"id":33,"left_children":[1,3,5,7,9,-1,11,-1,13,15,17,19,-1,21,23,25,-1,27,-1,-1,-1,29,31,33,35,-1,37,-1,39,-1,-1,-1,-1,-1,-1,-1,-1,-1,-1,-1,-1],"loss_changes":[4.1892685E-4,3.3015425E-5,7.123548E-4,1.0161726E-5,7.662299E-6,0E0,2.1853008E-5,0E0,8.385667E-6,8.160073E-6,4.97257E-6,4.6412715E-6,0E0,4.0977266E-6,5.610553E-6,4.513151E-6,0E0,5.914993E-6,0E0,0E0,0E0,1.9180352E-6,2.341807E-6,1.7933934E-6,3.999406E-6,0E0,1.5807364E-6,0E0,2.259428E-6,0E0,0E0,0E0,0E0,0E0,0E0,0E0,0E0,0E0,0E0,0E0,0E0],"parents":[2147483647,0,0,1,1,2,2,3,3,4,4,6,6,8,8,9,9,10,10,11,11,13,13,14,14,15,15,17,17,21,21,22,22,23,23,24,24,26,26,28,28],"right_children":[2,4,6,8,10,-1,12,-1,14,16,18,20,-1,22,24,26,-1,28,-1,-1,-1,30,32,34,36,-1,38,-1,40,-1,-1,-1,-1,-1,-1,-1,-1,-1,-1,-1,-1],"split_conditions":[1.19086675E-1,1.0771651E-1,1.2885326E-1,7.99353E-2,4.9476568E-2,8.297471E-4,1.1394229E-1,-7.2392846E-5,2.6678203E-2,2.4243735E-2,1.22235894E-1,7.54334E-2,-1.5101457E-4,2.3322974E-1,4.3041926E-2,8.829088E-2,-3.457764E-5,1.14299655E-1,-6.4729706E-5,6.282999E-5,-1.968157E-5,3.5195746E-3,1.0425726E-1,3.201891E-2,7.509529E-2,-9.24964E-6,1.4081764E-2,2.511162E-5,1.14778385E-1,-1.9135343E-5,-8.5851774E-5,-4.2260424E-5,1.541304E-6,-1.6157284E-5,1.5301264E-5,-7.0248076E-5,2.230464E-5,2.346555E-5,5.900797E-5,-3.4302917E-5,2.6809472E-5],"split_indices":[2,3,3,3,0,0,0,0,11,11,6,0,0,0,11,2,0,0,0,0,0,0,2,11,2,0,11,0,2,0,0,0,0,0,0,0,0,0,0,0,0],"split_type":[0,0,0,0,0,0,0,0,0,0,0,0,0,0,0,0,0,0,0,0,0,0,0,0,0,0,0,0,0,0,0,0,0,0,0,0,0,0,0,0,0],"sum_hessian":[1.31E2,1.21E2,1E1,7.2E1,4.9E1,3E0,7E0,2.4E1,4.8E1,2.6E1,2.3E1,6E0,1E0,2.5E1,2.3E1,2.2E1,4E0,2E1,3E0,4E0,2E0,1E1,1.5E1,1.8E1,5E0,4E0,1.8E1,9E0,1.1E1,2E0,8E0,1.1E1,4E0,6E0,1.2E1,4E0,1E0,7E0,1.1E1,1E1,1E0],"tree_param":{"num_deleted":"0","num_feature":"12","num_nodes":"41","size_leaf_vector":"1"}},{"base_weights":[7.982623E-6,-5.1527773E-4,3.5250115E-3,-9.0335234E-4,5.385527E-5,7.676512E-3,1.8528277E-4,-6.655535E-5,-7.011179E-4,-4.7944346E-4,3.431135E-4,7.0583407E-4,3.1770088E-3,7.927679E-4,-1.4723922E-4,-1.1840187E-3,-1.5154034E-4,-4.236263E-5,-1.0047092E-4,-2.4894896E-4,6.932896E-4,4.0053437E-5,2.0823558E-4,5.5346445E-6,7.2635215E-5,-6.4489795E-5,-1.2667561E-5,-3.0807013E-4,3.7362926E-5,3.1739863E-5,-3.636376E-4,-5.871255E-4,2.047793E-5,1.1630354E-3,6.026579E-5,-2.7539614E-5,2.154938E-5,2.6274008E-6,-3.9648014E-5,2.023325E-5,-3.808412E-5,6.99097E-5,-4.2526517E-7,2.7799424E-5,-4.1115767E-5],"categories":[],"categories_nodes":[],"categories_segments":[],"categories_sizes":[],"default_left":[0,0,0,0,0,0,0,0,0,0,0,0,0,0,0,0,0,0,0,0,0,0,0,0,0,0,0,0,0,0,0,0,0,0,0,0,0,0,0,0,0,0,0,0,0],"id":34,"left_children":[1,3,5,7,9,11,13,-1,15,17,19,-1,21,23,-1,25,27,-1,29,31,33,-1,-1,-1,-1,-1,-1,35,-1,-1,37,39,-1,41,43,-1,-1,-1,-1,-1,-1,-1,-1,-1,-1],"loss_changes":[2.5578076E-4,2.6773443E-5,2.481456E-4,5.2952237E-6,7.877556E-6,1.8697165E-4,2.3250692E-5,0E0,1.3355535E-5,2.423888E-6,7.0143565E-6,0E0,1.0744116E-5,4.340457E-6,0E0,2.3312023E-6,3.7474276E-6,0E0,2.1658168E-6,3.135456E-6,6.174474E-6,0E0,0E0,0E0,0E0,0E0,0E0,4.18387E-6,0E0,0E0,1.4710917E-6,1.8663416E-6,0E0,3.3178658E-6,4.8323527E-6,0E0,0E0,0E0,0E0,0E0,0E0,0E0,0E0,0E0,0E0],"parents":[2147483647,0,0,1,1,2,2,3,3,4,4,5,5,6,6,8,8,9,9,10,10,12,12,13,13,15,15,16,16,18,18,19,19,20,20,27,27,30,30,31,31,33,33,34,34],"right_children":[2,4,6,8,10,12,14,-1,16,18,20,-1,22,24,-1,26,28,-1,30,32,34,-1,-1,-1,-1,-1,-1,36,-1,-1,38,40,-1,42,44,-1,-1,-1,-1,-1,-1,-1,-1,-1,-1],"split_conditions":[1.14778385E-1,1.0562448E-1,1.2885326E-1,6.1657235E-2,2.6296275E-2,1.16386436E-1,1.2960249E-1,-6.655535E-5,8.11901E-2,1.0930396E-1,1.8935079E-2,7.0583407E-4,1.23938374E-1,1.317486E-1,-1.4723922E-4,1.05368264E-1,1.01468444E-1,-4.236263E-5,8.705676E-2,1.2905906E-1,3.804988E-2,4.0053437E-5,2.0823558E-4,5.5346445E-6,7.2635215E-5,-6.4489795E-5,-1.2667561E-5,7.650022E-2,3.7362926E-5,3.1739863E-5,1.1624561E-1,1.059947E-1,2.047793E-5,1.3084315E-1,6.249658E-2,-2.7539614E-5,2.154938E-5,2.6274008E-6,-3.9648014E-5,2.023325E-5,-3.808412E-5,6.99097E-5,-4.2526517E-7,2.7799424E-5,-4.1115767E-5],"split_indices":[2,3,3,2,10,5,0,0,9,2,0,0,3,3,0,2,9,0,0,4,0,0,0,0,0,0,0,2,0,0,3,3,0,5,9,0,0,0,0,0,0,0,0,0,0],"split_type":[0,0,0,0,0,0,0,0,0,0,0,0,0,0,0,0,0,0,0,0,0,0,0,0,0,0,0,0,0,0,0,0,0,0,0,0,0,0,0,0,0,0,0,0,0],"sum_hessian":[1.37E2,1.2E2,1.7E1,7.1E1,4.9E1,7E0,1E1,2.1E1,5E1,1.7E1,3.2E1,2E0,5E0,9E0,1E0,2.6E1,2.4E1,8E0,9E0,1.2E1,2E1,2E0,3E0,5E0,4E0,2.3E1,3E0,2.1E1,3E0,2E0,7E0,8E0,4E0,1.1E1,9E0,1.6E1,5E0,4E0,3E0,1E0,7E0,9E0,2E0,6E0,3E0],"tree_param":{"num_deleted":"0","num_feature":"12","num_nodes":"45","size_leaf_vector":"1"}},{"base_weights":[2.9235132E-4,-3.688639E-4,7.085466E-3,-7.9046603E-4,3.7861874E-4,1.8769461E-3,9.167699E-4,-6.011143E-5,-5.9199845E-4,1.623836E-4,2.2490113E-3,2.693352E-4,-3.9676504E-4,-6.654502E-4,5.92004E-5,6.3125027E-4,-3.135432E-4,1.786069E-4,5.125975E-5,4.941625E-4,-1.4355825E-4,-7.388198E-5,-5.524178E-4,-3.6892572E-5,2.6279571E-5,-1.1103223E-4,1.0345364E-3,1.482002E-5,-5.462527E-4,5.1469695E-5,-1.921001E-5,-3.9971237E-5,-1.4165712E-5,-3.1671167E-5,2.1678265E-5,7.226087E-5,8.882268E-6,-4.112427E-5,-1.7068365E-6],"categories":[],"categories_nodes":[],"categories_segments":[],"categories_sizes":[],"default_left":[0,0,0,0,0,0,0,0,0,0,0,0,0,0,0,0,0,0,0,0,0,0,0,0,0,0,0,0,0,0,0,0,0,0,0,0,0,0,0],"id":35,"left_children":[1,3,5,7,9,11,-1,-1,13,15,17,-1,19,21,23,25,27,-1,-1,29,-1,-1,31,-1,-1,33,35,-1,37,-1,-1,-1,-1,-1,-1,-1,-1,-1,-1],"loss_changes":[6.584033E-4,4.252809E-5,7.273269E-4,6.316335E-6,1.9452582E-5,8.193901E-5,0E0,0E0,2.909297E-6,1.0239503E-5,4.4341814E-6,0E0,1.6850401E-5,4.141124E-6,2.9899734E-6,6.999967E-6,3.4265222E-6,0E0,0E0,3.216257E-6,0E0,0E0,3.0305646E-6,0E0,0E0,2.8350664E-6,5.021897E-6,0E0,2.376797E-6,0E0,0E0,0E0,0E0,0E0,0E0,0E0,0E0,0E0,0E0],"parents":[2147483647,0,0,1,1,2,2,3,3,4,4,5,5,8,8,9,9,10,10,12,12,13,13,14,14,15,15,16,16,19,19,22,22,25,25,26,26,28,28],"right_children":[2,4,6,8,10,12,-1,-1,14,16,18,-1,20,22,24,26,28,-1,-1,30,-1,-1,32,-1,-1,34,36,-1,38,-1,-1,-1,-1,-1,-1,-1,-1,-1,-1],"split_conditions":[1.1846312E-1,1.102222E-1,1.401543E-1,8.384467E-2,1.14153065E-1,1.276437E-1,9.167699E-4,-6.011143E-5,1.09482095E-1,3.911682E-2,1.1530314E-1,2.693352E-4,1.1394229E-1,6.1657235E-2,4.9727667E-2,1.8935079E-2,1.1323433E-1,1.786069E-4,5.125975E-5,7.54334E-2,-1.4355825E-4,-7.388198E-5,9.8261155E-2,-3.6892572E-5,2.6279571E-5,1.2905906E-1,1.3084315E-1,1.482002E-5,1.2670031E-1,5.1469695E-5,-1.921001E-5,-3.9971237E-5,-1.4165712E-5,-3.1671167E-5,2.1678265E-5,7.226087E-5,8.882268E-6,-4.112427E-5,-1.7068365E-6],"split_indices":[2,3,0,4,2,3,0,0,9,0,2,0,0,2,2,0,3,0,0,0,0,0,8,0,0,4,5,0,4,0,0,0,0,0,0,0,0,0,0],"split_type":[0,0,0,0,0,0,0,0,0,0,0,0,0,0,0,0,0,0,0,0,0,0,0,0,0,0,0,0,0,0,0,0,0,0,0,0,0,0,0],"sum_hessian":[1.45E2,1.33E2,1.2E1,8.5E1,4.8E1,9E0,3E0,2.6E1,5.9E1,4.4E1,4E0,3E0,6E0,5.3E1,6E0,2.2E1,2.2E1,1E0,3E0,5E0,1E0,5E0,4.8E1,2E0,4E0,8E0,1.4E1,6E0,1.6E1,3E0,2E0,2.4E1,2.4E1,4E0,4E0,9E0,5E0,1E1,6E0],"tree_param":{"num_deleted":"0","num_feature":"12","num_nodes":"39","size_leaf_vector":"1"}},{"base_weights":[1.280835E-4,-3.531186E-4,6.1533386E-3,-7.4028544E-4,3.6521064E-4,6.951781E-4,1.5090595E-3,-1.112427E-3,-4.0619908E-4,1.7712101E-4,1.9849753E-3,1.3918657E-4,6.202136E-4,-6.284977E-5,-7.684042E-4,-5.1149464E-4,3.113503E-5,7.4977276E-4,-1.9733801E-4,1.7414172E-4,3.6990095E-5,-1.1729387E-6,4.739573E-5,-9.27369E-4,3.6427566E-5,-5.70653E-4,1.1877093E-5,1.0484346E-3,6.533527E-6,-3.6615602E-4,1.4315001E-4,-2.4692547E-5,-6.451685E-5,-4.3417913E-5,-1.5559623E-5,-2.0197515E-6,6.3512E-5,-2.2626482E-5,2.971422E-5,1.8408517E-5,-4.7050824E-5],"categories":[],"categories_nodes":[],"categories_segments":[],"categories_sizes":[],"default_left":[0,0,0,0,0,0,0,0,0,0,0,0,0,0,0,0,0,0,0,0,0,0,0,0,0,0,0,0,0,0,0,0,0,0,0,0,0,0,0,0,0],"id":36,"left_children":[1,3,5,7,9,-1,11,13,15,17,19,-1,21,-1,23,25,-1,27,29,-1,-1,-1,-1,31,-1,33,-1,35,-1,37,39,-1,-1,-1,-1,-1,-1,-1,-1,-1,-1],"loss_changes":[4.3127892E-4,3.864999E-5,3.7495492E-4,1.0737604E-5,1.4576806E-5,0E0,7.3373867E-6,1.1229786E-6,5.6270965E-6,9.797516E-6,6.7488654E-6,0E0,1.287829E-6,0E0,4.245083E-6,2.1295837E-6,0E0,3.1912414E-6,1.6618693E-6,0E0,0E0,0E0,0E0,1.5657115E-6,0E0,2.9739695E-6,0E0,2.9494104E-6,0E0,1.8451085E-6,2.7860494E-6,0E0,0E0,0E0,0E0,0E0,0E0,0E0,0E0,0E0,0E0],"parents":[2147483647,0,0,1,1,2,2,3,3,4,4,6,6,7,7,8,8,9,9,10,10,12,12,14,14,15,15,17,17,18,18,23,23,25,25,27,27,29,29,30,30],"right_children":[2,4,6,8,10,-1,12,14,16,18,20,-1,22,-1,24,26,-1,28,30,-1,-1,-1,-1,32,-1,34,-1,36,-1,38,40,-1,-1,-1,-1,-1,-1,-1,-1,-1,-1],"split_conditions":[1.19086675E-1,1.102222E-1,1.234097E-1,8.612165E-2,1.14153065E-1,6.951781E-4,1.276437E-1,7.971535E-2,6.369388E-2,3.804988E-2,1.1530314E-1,1.3918657E-4,1.3078924E-1,-6.284977E-5,7.158219E-2,1.06474616E-1,3.113503E-5,1.3084315E-1,1.1425946E-2,1.7414172E-4,3.6990095E-5,-1.1729387E-6,4.739573E-5,8.1131004E-2,3.6427566E-5,3.7170123E-2,1.1877093E-5,1.8935079E-2,6.533527E-6,1.2475065E-1,3.3031516E-2,-2.4692547E-5,-6.451685E-5,-4.3417913E-5,-1.5559623E-5,-2.0197515E-6,6.3512E-5,-2.2626482E-5,2.971422E-5,1.8408517E-5,-4.7050824E-5],"split_indices":[2,3,4,3,2,0,3,3,10,0,2,0,3,0,10,2,0,5,11,0,0,0,0,3,0,10,0,0,0,3,10,0,0,0,0,0,0,0,0,0,0],"split_type":[0,0,0,0,0,0,0,0,0,0,0,0,0,0,0,0,0,0,0,0,0,0,0,0,0,0,0,0,0,0,0,0,0,0,0,0,0,0,0,0,0],"sum_hessian":[1.47E2,1.37E2,1E1,8.9E1,4.8E1,3E0,7E0,4.1E1,4.8E1,4.4E1,4E0,2E0,5E0,2.7E1,1.4E1,4.4E1,4E0,1.7E1,2.7E1,1E0,3E0,2E0,3E0,1.3E1,1E0,4.1E1,3E0,1.1E1,6E0,1.8E1,9E0,7E0,6E0,1.8E1,2.3E1,2E0,9E0,1.7E1,1E0,8E0,1E0],"tree_param":{"num_deleted":"0","num_feature":"12","num_nodes":"41","size_leaf_vector":"1"}},{"base_weights":[1.8652115E-4,-3.8816364E-4,4.604003E-3,-7.094188E-4,2.2088215E-4,1.1959596E-2,1.4207747E-3,-1.1235758E-3,-5.3097773E-4,-3.551154E-4,6.3936616E-4,-2.9437815E-5,7.6219364E-4,2.0096865E-3,-1.4115419E-4,-6.898035E-5,-7.8111596E-4,-6.1483827E-4,5.480002E-4,-6.292749E-4,3.8946923E-4,8.824018E-4,-3.0323543E-5,3.1563228E-3,5.2091404E-5,-6.794585E-5,-9.172691E-5,-6.940067E-4,-3.3284887E-5,3.899098E-5,-9.481929E-6,1.1722016E-5,-4.323702E-5,3.302685E-5,-2.4146739E-5,1.3406621E-5,1.1343863E-3,1.8580435E-4,2.2931654E-5,-2.3704677E-5,1.5678572E-5,-4.9835613E-5,-2.1499929E-5,-3.4266694E-5,7.8884905E-6,9.6568765E-5,2.3152772E-5],"categories":[],"categories_nodes":[],"categories_segments":[],"categories_sizes":[],"default_left":[0,0,0,0,0,0,0,0,0,0,0,0,0,0,0,0,0,0,0,0,0,0,0,0,0,0,0,0,0,0,0,0,0,0,0,0,0,0,0,0,0,0,0,0,0,0,0],"id":37,"left_children":[1,3,5,7,9,11,13,15,17,19,21,-1,-1,23,-1,-1,25,27,29,31,33,35,-1,37,-1,-1,39,41,43,-1,-1,-1,-1,-1,-1,-1,45,-1,-1,-1,-1,-1,-1,-1,-1,-1,-1],"loss_changes":[3.7497006E-4,2.5788042E-5,3.8105508E-4,5.7590296E-6,1.1315155E-5,2.1503621E-4,3.8163875E-5,1.1143784E-6,5.9469185E-6,4.327782E-6,8.710285E-6,0E0,0E0,1.0029031E-5,0E0,0E0,5.0536373E-6,2.6472608E-6,1.0028787E-6,3.2533576E-6,1.7378798E-6,3.255922E-6,0E0,5.846032E-6,0E0,0E0,1.23347E-6,3.6471665E-6,1.1047412E-6,0E0,0E0,0E0,0E0,0E0,0E0,0E0,7.66636E-6,0E0,0E0,0E0,0E0,0E0,0E0,0E0,0E0,0E0,0E0],"parents":[2147483647,0,0,1,1,2,2,3,3,4,4,5,5,6,6,7,7,8,8,9,9,10,10,13,13,16,16,17,17,18,18,19,19,20,20,21,21,23,23,26,26,27,27,28,28,36,36],"right_children":[2,4,6,8,10,12,14,16,18,20,22,-1,-1,24,-1,-1,26,28,30,32,34,36,-1,38,-1,-1,40,42,44,-1,-1,-1,-1,-1,-1,-1,46,-1,-1,-1,-1,-1,-1,-1,-1,-1,-1],"split_conditions":[1.14778385E-1,1.102222E-1,1.234097E-1,6.1657235E-2,2.7088609E-2,1.1394229E-1,1.3375136E-1,1.23558305E-2,6.873147E-2,1.2375082E-1,2.4243735E-2,-2.9437815E-5,7.6219364E-4,1.276437E-1,-1.4115419E-4,-6.898035E-5,7.812591E-2,1.0425726E-1,3.832378E-2,1.1129096E-1,8.705676E-2,1.243296E-1,-3.0323543E-5,1.0729986E-1,5.2091404E-5,-6.794585E-5,4.9404632E-2,1.5620977E-2,2.1313828E-1,3.899098E-5,-9.481929E-6,1.1722016E-5,-4.323702E-5,3.302685E-5,-2.4146739E-5,1.3406621E-5,1.3056225E-1,1.8580435E-4,2.2931654E-5,-2.3704677E-5,1.5678572E-5,-4.9835613E-5,-2.1499929E-5,-3.4266694E-5,7.8884905E-6,9.6568765E-5,2.3152772E-5],"split_indices":[2,3,4,2,10,0,2,0,10,3,11,0,0,3,0,0,10,2,0,3,0,5,0,0,0,0,2,11,0,0,0,0,0,0,0,0,5,0,0,0,0,0,0,0,0,0,0],"split_type":[0,0,0,0,0,0,0,0,0,0,0,0,0,0,0,0,0,0,0,0,0,0,0,0,0,0,0,0,0,0,0,0,0,0,0,0,0,0,0,0,0,0,0,0,0,0,0],"sum_hessian":[1.46E2,1.3E2,1.6E1,8.5E1,4.5E1,4E0,1.2E1,2.4E1,6.1E1,1.9E1,2.6E1,1E0,3E0,1.1E1,1E0,1.2E1,1.2E1,5.7E1,4E0,1.4E1,5E0,2.2E1,4E0,4E0,7E0,6E0,6E0,5E1,7E0,3E0,1E0,3E0,1.1E1,4E0,1E0,7E0,1.5E1,3E0,1E0,3E0,3E0,2.2E1,2.8E1,1E0,6E0,6E0,9E0],"tree_param":{"num_deleted":"0","num_feature":"12","num_nodes":"47","size_leaf_vector":"1"}},{"base_weights":[1.52438E-4,-4.1305312E-4,2.9486793E-3,-9.6724485E-4,-1.11976806E-4,